tree
version=v4
num_class=1
num_tree_per_iteration=1
label_index=0
max_feature_idx=6
objective=regression
feature_names=paid_on_time invoice_total log_invoice_total item_count avg_line_amount tax_ratio ocr_confidence
feature_infos=[0:1] [6034993:159707782] [15.613085418312778:18.88885634712609] [1:4] [3017496.5:79853891] [0.090909019485588508:0.090909163865083589] [0.71999999999999997:0.97999999999999998]
tree_sizes=1330 1379 1384 1383 1388 1385 1382 1384 1381 1384 1383 1406 1391 1389 1391 1395 1392 1393 1393 1401 1393 1394 1394 1401 1394 1397 1406 1397 1394 1398 1408 1409 1397 1407 1395 1427 1399 1409 1406 1404 1407 1416 1410 1407 1425 1423 1423 1410 1402 1427 1411 1413 1439 1402 1438 1413 1424 1423 1417 1434 1422 1430 1423 1429 1431 1420 1424 1434 1429 1425 1420 1431 1429 1421 1427 1430 1431 1431 1426 1426 1431 1424 1429 1423 1430 1437 1431 1435 1437 1435 1428 1429 1433 1433 1451 1441 1439 1446 1433 1433 1434 1448 1445 1434 1443 1432 1441 1447 1437 1442 1438 1445 1448 1450 1444 1454 1444 1447 1449 1441 1442 1444 1452 1444 1453 1445 1464 1461 1449 1451 1441 1449 1457 1445 1469 1459 1451 1453 1459 1452 1455 1467 1462 1453 1453 1455 1470 1459 1459 1448 1453 1451 1447 1453 1442 1452 1452 1458 1460 1457 1473 1459 1463 1477 1449 1474 1468 1467 1468 1456 1477 1455 1475 1460 1466 1477 1465 1455 1471 1471 1468 1465 1462 1479 1447 1462 1474 1458 1463 1456 1467 1475 1474 1469 1484 1463 1470 1473 1465 1459 1459 1480 1474 1476 1472 1471 1474 1457 1457 1463 1453 1471 1467 1468 1470 1454 1465 1470 1467 1457 1441 1466 1464 1478 1465 1477 1476 1474 1467 1449 1472 1463 1466 1476 1459 1466 1462 1477 1467 1477 1460 1476 1477

Tree=0
num_leaves=15
num_cat=0
split_feature=1 3 1 1 1 1 1 4 4 4 5 4 6 4
split_gain=175790 84324.6 19773.9 15001.9 3561.69 2321.85 2138.98 1619.28 1528.43 2282.96 2519.5 1862.9 1735.35 1475.09
threshold=54822999.000000007 1.5000000000000002 21791438.500000004 18050385.000000004 17600244.000000004 22731545.000000004 19889280.000000004 9099627.1666666698 14066705.333333334 23169670.33333334 0.090909084792618514 12725774.250000002 0.79500000000000015 17958873.08333334
decision_type=2 2 2 2 2 2 2 2 2 2 2 2 2 2
left_child=1 3 4 -1 -3 -5 7 -6 11 10 13 -4 -11 -10
right_child=-2 2 8 5 6 -7 -8 -9 9 12 -12 -13 -14 -15
leaf_value=78.469654857663386 79.753203951921051 78.830031593096535 79.202449984623371 77.329568647683828 78.483735311370268 77.907388150664914 78.772161218200637 77.874568670333602 79.258933709640573 78.665282899338322 79.424836124640862 78.920594261810962 79.174690579132047 78.837633134587364
leaf_weight=232 861 216 236 20 24 133 27 20 63 21 243 78 82 31
leaf_count=232 861 216 236 20 24 133 27 20 63 21 243 78 82 31
internal_value=79.1891 78.8484 79.0823 78.2162 78.729 77.8319 78.4218 78.2068 79.2167 79.2768 79.3398 79.1324 79.0708 79.12
internal_weight=2287 1426 1041 385 287 153 71 44 754 440 337 314 103 94
internal_count=2287 1426 1041 385 287 153 71 44 754 440 337 314 103 94
is_linear=0
shrinkage=1


Tree=1
num_leaves=15
num_cat=0
split_feature=0 1 1 3 3 3 4 1 1 1 1 4 1 4
split_gain=442680 138696 19124.1 6290.41 4111.11 865.269 51.6012 114.577 35.6545 32.5536 17.693 10.8874 5.92658 4.25794
threshold=1.0000000180025095e-35 19889280.000000004 19889280.000000004 1.5000000000000002 1.5000000000000002 1.5000000000000002 25719477.750000004 53402627.500000007 22731545.000000004 54822999.000000007 54822999.000000007 8293008.5000000009 17600244.000000004 14066705.333333334
decision_type=2 2 2 2 2 2 2 2 2 2 2 2 2 2
left_child=2 3 5 -2 -4 -1 9 -8 -6 11 -10 -3 -5 -13
right_child=1 6 4 12 8 -7 7 -9 10 -11 -12 13 -14 -15
leaf_value=-2.2484007873535155 -0.57320331896052645 0.65025611460208899 -1.344517138577247 -0.19150158166885378 -1.0804693267458962 -1.8715814786079603 0.5410533010959625 0.66272289244066773 -1.0082420231140767 0.66233978271484384 -1.0376602172851563 0.69393219385254257 -0.16565843343734743 0.68387925735739774
leaf_weight=25 204 20 129 197 21 39 20 595 291 205 62 178 25 258
leaf_count=25 204 20 129 197 21 39 20 595 291 205 62 178 25 258
internal_value=0.00529677 0.408394 -1.2047 -0.372772 -1.10113 -2.01878 0.66919 0.658766 -1.01717 0.678889 -1.01341 0.686329 -0.188591 0.687983
internal_weight=2269 1702 567 426 503 64 1276 615 374 661 353 456 222 436
internal_count=2269 1702 567 426 503 64 1276 615 374 661 353 456 222 436
is_linear=0
shrinkage=0.05


Tree=2
num_leaves=15
num_cat=0
split_feature=0 1 1 3 3 3 4 1 1 1 1 4 4 1
split_gain=408689 127544 18756.3 5803.27 3859.58 848.208 45.4438 169.175 30.2508 23.469 17.2566 9.23012 5.53055 4.7401
threshold=1.0000000180025095e-35 19889280.000000004 19889280.000000004 1.5000000000000002 1.5000000000000002 1.5000000000000002 18184150.33333334 37472193.500000007 22313360.000000004 54822999.000000007 54822999.000000007 8293008.5000000009 14066705.333333334 17600244.000000004
decision_type=2 2 2 2 2 2 2 2 2 2 2 2 2 2
left_child=2 3 5 -2 -4 -1 11 -8 -6 -9 -10 -3 -13 -5
right_child=1 6 4 13 8 -7 7 9 10 -11 -12 12 -14 -15
leaf_value=-2.1355090305722992 -0.54482259750366213 0.61774330735206606 -1.2762316928190345 -0.18192650079727174 -1.0243968872796922 -1.7784463491195286 0.4853569555282593 0.65277302304252249 -0.95749463097523835 0.62920851236060549 -0.98577718734741215 0.65929301649332051 0.64604095120583815 -0.15795819085577262
leaf_weight=29 212 20 136 200 21 39 20 122 295 789 66 160 155 23
leaf_count=29 212 20 136 200 21 39 20 122 295 789 66 160 155 23
internal_value=-0.0112125 0.381098 -1.14999 -0.357519 -1.04749 -1.93072 0.634889 0.629206 -0.966059 0.632364 -0.962665 0.650681 0.652772 -0.179454
internal_weight=2287 1701 586 435 518 68 1266 931 382 911 361 335 315 223
internal_count=2287 1701 586 435 518 68 1266 931 382 911 361 335 315 223
is_linear=0
shrinkage=0.05


Tree=3
num_leaves=15
num_cat=0
split_feature=0 2 2 3 3 3 4 2 2 2 2 6 5 4
split_gain=365415 116247 16329.8 5265.79 3511.55 747.155 42.7025 115.418 24.8293 21.0762 14.2471 6.8667 9.10618 5.31384
threshold=1.0000000180025095e-35 16.80569144025333 16.80569144025333 1.5000000000000002 1.5000000000000002 1.5000000000000002 18267697.375000004 17.446353493644473 16.920695674718278 17.819619936256064 17.819619936256064 0.75500000000000012 0.090909094467500062 14066705.333333334
decision_type=2 2 2 2 2 2 2 2 2 2 2 2 2 2
left_child=2 3 5 -2 -4 -1 11 -8 -6 -9 -10 12 -3 -13
right_child=1 6 4 -5 8 -7 7 9 10 -11 -12 13 -14 -15
leaf_value=-2.0298568998064317 -0.51731508758580569 0.62022597312927252 -1.213116587072179 -0.1704921956573214 -0.96909465789794924 -1.6894671640898054 0.4821705534344628 0.62025669376055403 -0.90970583558082585 0.59774804188654973 -0.93648834228515632 0.62686477975349209 0.57496129393577577 0.61378783604777454
leaf_weight=28 214 25 138 224 22 38 21 120 288 780 60 173 20 141
leaf_count=28 214 25 138 224 22 38 21 120 288 780 60 173 20 141
internal_value=-0.00176691 0.363155 -1.09399 -0.339944 -0.997864 -1.83387 0.603747 0.598045 -0.91758 0.600749 -0.914324 0.618375 0.600108 0.620993
internal_weight=2292 1718 574 438 508 66 1280 921 370 900 348 359 45 314
internal_count=2292 1718 574 438 508 66 1280 921 370 900 348 359 45 314
is_linear=0
shrinkage=0.05


Tree=4
num_leaves=15
num_cat=0
split_feature=0 1 1 3 3 3 1 1 1 1 1 5 5 1
split_gain=325577 105252 14288.2 4807.85 3002.46 647.822 27.6854 25.0739 13.6158 12.2321 12.195 9.46379 25.7211 4.86067
threshold=1.0000000180025095e-35 19889280.000000004 19889280.000000004 1.5000000000000002 1.5000000000000002 1.5000000000000002 22313360.000000004 54822999.000000007 54822999.000000007 35616319.500000007 33398371.500000004 0.090909099960946163 0.090909105072560448 17600244.000000004
decision_type=2 2 2 2 2 2 2 2 2 2 2 2 2 2
left_child=2 3 5 -2 -4 -1 -6 9 -8 10 11 -3 -13 -5
right_child=1 7 4 13 6 -7 8 -9 -10 -11 -12 12 -14 -15
leaf_value=-1.9299927139282227 -0.49144804376951412 0.5852153304878992 -1.1521400414407255 -0.16430556774139404 -0.92921289443969735 -1.6055375933647156 -0.86421499155005632 0.56784649156544309 -0.88966388702392585 0.58933059012448352 0.54191380253544563 0.52553862289146147 0.59335397194171768 -0.14095298767089845
leaf_weight=25 213 131 128 205 20 40 294 803 64 270 27 27 29 25
leaf_count=25 213 131 128 205 20 40 294 803 64 270 27 27 29 25
internal_value=0.00276383 0.344455 -1.03248 -0.320282 -0.942838 -1.73033 -0.871963 0.573265 -0.868765 0.582254 0.573326 0.577861 0.560657 -0.161767
internal_weight=2301 1730 571 443 506 65 378 1287 358 484 214 187 56 230
internal_count=2301 1730 571 443 506 65 378 1287 358 484 214 187 56 230
is_linear=0
shrinkage=0.05


Tree=5
num_leaves=15
num_cat=0
split_feature=0 1 1 3 3 3 4 1 1 1 1 6 4 1
split_gain=295399 97054.1 13904.8 4398.33 2720.56 625.755 35.0602 117.788 23.5976 17.4385 12.3974 5.74046 6.16449 5.65354
threshold=1.0000000180025095e-35 19889280.000000004 19889280.000000004 1.5000000000000002 1.5000000000000002 1.5000000000000002 19082174.000000004 39712547.000000007 22731545.000000004 54822999.000000007 54822999.000000007 0.75500000000000012 14066705.333333334 33940846.000000007
decision_type=2 2 2 2 2 2 2 2 2 2 2 2 2 2
left_child=2 3 5 -2 -4 -1 11 -8 -6 -9 -10 13 -13 -3
right_child=1 6 4 -5 8 -7 7 9 10 -11 -12 12 -14 -15
leaf_value=-1.8307411456930227 -0.46714329719543457 0.52106967568397522 -1.0949928882510163 -0.15381122763667787 -0.88019704364594953 -1.5256935739517212 0.42228502659570605 0.5610253982454817 -0.82114755883034096 0.53946779153350144 -0.84518070220947272 0.56653354924596 0.55296829200926279 0.55457183473250449
leaf_weight=29 224 20 129 224 21 40 21 107 287 761 66 167 168 34
leaf_count=29 224 20 129 224 21 40 21 107 287 761 66 167 168 34
internal_value=-0.00356103 0.322784 -0.988302 -0.310477 -0.896997 -1.6539 0.544773 0.539294 -0.828704 0.542125 -0.825641 0.557292 0.559731 0.542164
internal_weight=2298 1726 572 448 503 69 1278 889 374 868 353 389 335 54
internal_count=2298 1726 572 448 503 69 1278 889 374 868 353 389 335 54
is_linear=0
shrinkage=0.05


Tree=6
num_leaves=15
num_cat=0
split_feature=0 1 1 3 3 3 4 1 1 1 4 4 1 4
split_gain=267776 84782.7 12500.1 3835.8 2445.19 571.715 34.0757 95.5794 16.1177 10.5644 7.07633 6.18837 5.44767 5.19975
threshold=1.0000000180025095e-35 19889280.000000004 19889280.000000004 1.5000000000000002 1.5000000000000002 1.5000000000000002 18945814.500000004 39712547.000000007 54822999.000000007 54822999.000000007 8101829.666666667 8101829.666666667 18050385.000000004 14066705.333333334
decision_type=2 2 2 2 2 2 2 2 2 2 2 2 2 2
left_child=2 3 5 -2 -4 -1 10 -8 -9 11 -3 -6 -7 -12
right_child=1 6 4 -5 9 12 7 8 -10 -11 13 -13 -14 -15
leaf_value=-1.7423631599971228 -0.44351598154312061 0.50122971177101139 -1.0392393142700196 -0.14611044683798546 -0.80772376298904425 -1.466233835220337 0.41179491022358772 0.53304208484264692 0.51249276041673308 -0.80292167663574221 0.5378917294941592 -0.77899289627203205 -1.4293296527862549 0.52595247890859997
leaf_weight=28 211 20 125 223 20 20 23 109 766 65 178 298 20 187
leaf_count=28 211 20 125 223 20 20 23 109 766 65 178 298 20 187
internal_value=0.000442058 0.313396 -0.932442 -0.290702 -0.847223 -1.56908 0.517743 0.512408 0.515053 -0.784554 0.530188 -0.7808 -1.44778 0.531775
internal_weight=2293 1717 576 434 508 68 1283 898 875 383 385 318 40 365
internal_count=2293 1717 576 434 508 68 1283 898 875 383 385 318 40 365
is_linear=0
shrinkage=0.05


Tree=7
num_leaves=15
num_cat=0
split_feature=0 1 1 3 3 3 1 1 1 1 1 5 5 1
split_gain=241109 78509.5 10722.9 3544.52 2211.09 482.483 19.1499 18.5108 10.7559 9.73839 8.65361 7.68886 19.3221 5.10263
threshold=1.0000000180025095e-35 19889280.000000004 19889280.000000004 1.5000000000000002 1.5000000000000002 1.5000000000000002 22313360.000000004 54822999.000000007 35616319.500000007 54822999.000000007 33398371.500000004 0.090909099960946163 0.090909103445756853 18050385.000000004
decision_type=2 2 2 2 2 2 2 2 2 2 2 2 2 2
left_child=2 3 5 -2 -4 -1 -6 8 10 -8 11 -3 -13 -7
right_child=1 7 4 -5 6 13 9 -9 -10 -11 -12 12 -14 -15
leaf_value=-1.6525576629638672 -0.42135236975294438 0.50162952715956322 -0.98783338753752015 -0.13880493074254605 -0.79441287176949649 -1.3923951522163724 -0.74136961710821725 0.48680633111541782 0.5057198041982025 -0.76277561187744147 0.46536511881598114 0.4427407459779219 0.5022176762421926 -1.3578631114959716
leaf_weight=25 221 127 129 223 21 23 291 801 274 65 29 22 36 20
leaf_count=25 221 127 129 223 21 23 291 801 274 65 29 22 36 20
internal_value=-0.00020765 0.29397 -0.888377 -0.279442 -0.809154 -1.47789 -0.748015 0.491483 0.49916 -0.745278 0.49076 0.494741 0.479657 -1.37633
internal_weight=2307 1733 574 444 506 68 377 1289 488 356 214 185 58 43
internal_count=2307 1733 574 444 506 68 377 1289 488 356 214 185 58 43
is_linear=0
shrinkage=0.05


Tree=8
num_leaves=15
num_cat=0
split_feature=0 2 2 3 3 3 4 2 2 2 2 2 4 2
split_gain=219191 69704.3 9324.61 3173.89 2013.36 419.15 30.5227 134.637 17.469 10.9484 9.32945 6.21646 6.49894 4.40914
threshold=1.0000000180025095e-35 16.80569144025333 16.80569144025333 1.5000000000000002 1.5000000000000002 1.5000000000000002 19879984.750000004 17.554749217875941 16.920695674718278 17.819619936256064 17.819619936256064 17.819619936256064 8293008.5000000009 16.683423315526927
decision_type=2 2 2 2 2 2 2 2 2 2 2 2 2 2
left_child=2 3 5 -2 -4 -1 11 -8 -6 -9 -10 12 -3 -5
right_child=1 6 4 13 8 -7 7 9 10 -11 -12 -13 -14 -15
leaf_value=-1.5676496200561525 -0.40027123939423337 0.45353675105355001 -0.93866560884224359 -0.13415396213531494 -0.75469221387590679 -1.3053834621722882 0.33635144404002598 0.48068867255282655 -0.70397499880275216 0.4625292390121698 -0.72463679313659668 0.46147110737287084 0.48153950538528101 -0.11229702601066004
leaf_weight=25 210 22 129 205 21 39 21 93 296 772 67 52 356 26
leaf_count=25 210 22 129 205 21 39 21 93 296 772 67 52 356 26
internal_value=0.00676918 0.284442 -0.838761 -0.259588 -0.767765 -1.40783 0.46675 0.461445 -0.710354 0.464482 -0.707789 0.47768 0.47991 -0.131694
internal_weight=2334 1757 577 441 513 64 1316 886 384 865 363 430 378 231
internal_count=2334 1757 577 441 513 64 1316 886 384 865 363 430 378 231
is_linear=0
shrinkage=0.05


Tree=9
num_leaves=15
num_cat=0
split_feature=0 1 1 3 3 3 4 1 1 1 1 1 5 1
split_gain=200922 61324.6 9062.9 2776.08 1874.43 414.804 27.6638 87.8876 17.3867 15.8454 8.76014 7.48731 10.9293 4.49194
threshold=1.0000000180025095e-35 19889280.000000004 19889280.000000004 1.5000000000000002 1.5000000000000002 1.5000000000000002 27209712.33333334 56823959.000000007 54822999.000000007 22313360.000000004 54822999.000000007 25144578.500000004 0.090909098851601658 17759482.500000004
decision_type=2 2 2 2 2 2 2 2 2 2 2 2 2 2
left_child=2 3 5 -2 -4 -1 8 -8 11 -6 -11 12 -3 -7
right_child=1 6 4 -5 9 13 7 -9 -10 10 -12 -13 -14 -15
leaf_value=-1.4921987806047712 -0.38025242148093807 0.45737085895878932 -0.89178084828960369 -0.12511712377427392 -0.71688920202709383 -1.2580331897735597 0.33270963966846467 0.43939871788024903 0.43918185897495432 -0.66850393978325107 -0.68840498924255378 0.45803455513590113 0.40897680580615997 -1.2245222139358523
leaf_weight=28 206 28 134 221 21 20 20 554 230 296 68 427 20 20
leaf_count=28 206 28 134 221 21 20 20 554 230 296 68 427 20 20
internal_value=-0.00392411 0.270619 -0.801831 -0.248203 -0.730717 -1.3446 0.443831 0.435681 0.450466 -0.674658 -0.672222 0.45593 0.437207 -1.24128
internal_weight=2293 1706 587 427 519 68 1279 574 705 385 364 475 48 40
internal_count=2293 1706 587 427 519 68 1279 574 705 385 364 475 48 40
is_linear=0
shrinkage=0.05


Tree=10
num_leaves=15
num_cat=0
split_feature=0 1 1 4 4 1 1 4 4 4 1 1 4 1
split_gain=176356 55977.2 7816.15 1434.01 865.687 429.581 398.688 686.867 151.618 65.1166 317.591 43.8333 22.687 99.7603
threshold=1.0000000180025095e-35 19889280.000000004 20256855.000000004 9624213.0000000019 27708927.000000004 56823959.000000007 9562122.5000000019 6042057.5000000009 9977634.1666666698 20212646.625000004 40914003.000000007 16134077.500000002 17958873.08333334 37472193.500000007
decision_type=2 2 2 2 2 2 2 2 2 2 2 2 2 2
left_child=2 3 8 6 9 -6 7 -2 11 -4 -11 -1 -3 -14
right_child=1 12 4 -5 5 -7 -8 -9 -10 10 -12 -13 13 -15
leaf_value=-1.2581520557403565 -0.12119040489196778 0.43261493075461621 -0.63456352162266905 -0.35926253310102507 -0.849357278276198 -0.6539847373962403 -0.11825537226416849 -0.3615165233612061 -1.3592097022316674 -0.84122076034545901 -0.63442357807624639 -1.1619340847278463 0.307010093331337 0.41987507449797845
leaf_weight=20 61 336 253 151 101 39 165 58 22 24 82 29 20 929
leaf_count=20 61 336 253 151 101 39 165 58 22 24 82 29 20 929
internal_value=0.00289632 0.255489 -0.759314 -0.234762 -0.689473 -0.794932 -0.168566 -0.238324 -1.25017 -0.648347 -0.681246 -1.20121 0.42145 0.417496
internal_weight=2290 1720 570 435 499 140 284 119 71 359 106 49 1285 949
internal_count=2290 1720 570 435 499 140 284 119 71 359 106 49 1285 949
is_linear=0
shrinkage=0.05


Tree=11
num_leaves=15
num_cat=0
split_feature=3 1 1 1 1 1 5 6 4 4 1 6 5 4
split_gain=58236.8 26504.4 6296.79 4986.86 1496.45 799.437 595.477 548.653 440.981 666.003 518.52 399.644 395.181 450.246
threshold=1.5000000000000002 54822999.000000007 20256855.000000004 18050385.000000004 18050385.000000004 22731545.000000004 0.090909085548035756 0.77500000000000013 13976525.333333334 23169670.33333334 38006157.500000007 0.94500000000000006 0.09090908874483862 19588863.33333334
decision_type=2 2 2 2 2 2 2 2 2 2 2 2 2 2
left_child=3 2 4 -1 -2 -5 7 -4 10 12 -8 -9 -10 -14
right_child=1 -3 6 5 -6 -7 8 11 9 -11 -12 -13 13 -15
leaf_value=-0.41386314300780608 -0.21822578727671532 0.32025063447784963 -0.21904016375541688 -1.0753871917724609 -0.56124956978333962 -0.73633469558299935 0.025683922320604326 0.020578422301854846 0.27329838526876354 -0.038333104905628024 -0.1742911228766808 -0.15484423986295376 0.059921366013820823 0.24950322126730895
leaf_weight=235 226 855 40 20 37 133 192 156 38 84 39 41 159 39
leaf_count=235 226 855 40 20 37 133 192 156 38 84 39 41 159 39
internal_value=-0.000135838 0.113529 -0.0546411 -0.5585 -0.266484 -0.780655 0.0160628 -0.0502109 0.0445689 0.0825734 -0.0080781 -0.0159309 0.125608 0.0972632
internal_weight=2294 1906 1051 388 263 153 788 237 551 320 231 197 236 198
internal_count=2294 1906 1051 388 263 153 788 237 551 320 231 197 236 198
is_linear=0
shrinkage=0.05


Tree=12
num_leaves=15
num_cat=0
split_feature=0 1 1 3 3 3 1 4 1 1 1 5 1 4
split_gain=152449 47293.4 6413.38 2169.61 926.583 260.485 81.2956 27.7274 21.762 12.1534 8.46572 5.14862 17.6089 5.65899
threshold=1.0000000180025095e-35 19889280.000000004 19889280.000000004 1.5000000000000002 1.5000000000000002 1.5000000000000002 54822999.000000007 26259785.416666668 54822999.000000007 22731545.000000004 17600244.000000004 0.090909099960946163 26730826.000000004 14066705.333333334
decision_type=2 2 2 2 2 2 2 2 2 2 2 2 2 2
left_child=2 3 5 -2 -4 -1 7 11 9 -6 -5 13 -13 -3
right_child=1 6 4 10 8 -7 -8 -9 -10 -11 -12 12 -14 -15
leaf_value=-1.3109354057312013 -0.32241396189834665 0.419641732473443 -0.76670222729444504 -0.10432152736363152 -0.64321071863174439 -1.1031236397592645 0.38043577348379265 0.35035286517370318 -0.63751117438077931 -0.60292142433662943 -0.072314573370892074 0.35951556075703017 0.41230871209076475 0.40691501555106452
leaf_weight=25 217 137 128 203 20 38 798 21 64 292 23 22 56 241
leaf_count=25 217 137 128 203 20 38 798 21 64 292 23 22 56 241
internal_value=0.000940453 0.235563 -0.709961 -0.209491 -0.650508 -1.18559 0.390197 0.406527 -0.610952 -0.605504 -0.101064 0.409114 0.397418 0.411528
internal_weight=2285 1718 567 443 504 63 1275 477 376 312 226 456 78 378
internal_count=2285 1718 567 443 504 63 1275 477 376 312 226 456 78 378
is_linear=0
shrinkage=0.05


Tree=13
num_leaves=15
num_cat=0
split_feature=0 1 1 4 4 1 4 1 4 1 1 4 1 4
split_gain=141834 42897.1 6469.71 1067.16 471.234 315.596 472.771 177.757 159.637 74.5592 46.7626 168.517 45.1104 34.0575
threshold=1.0000000180025095e-35 19889280.000000004 19889280.000000004 9501916.2500000019 27373371.375000004 9040469.5000000019 6042057.5000000009 56823959.000000007 10504637.250000002 54822999.000000007 26964128.500000004 19879984.750000004 15999512.000000002 25719477.750000004
decision_type=2 2 2 2 2 2 2 2 2 2 2 2 2 2
left_child=2 3 8 5 10 6 -2 -6 12 13 11 -4 -1 -3
right_child=1 9 4 -5 7 -7 -8 -9 -10 -11 -12 -13 -14 -15
leaf_value=-1.1321689878191268 -0.099003517627716073 0.3892106755236362 -0.57060623243451125 -0.30444047756733439 -0.73050007187590316 -0.10086535471777676 -0.30662684440612797 -0.60542244911193854 -1.2406338146754674 0.36140910552649091 -0.57560919419578882 -0.71422280947367356 -1.035944705173887 0.33146440585454306
leaf_weight=21 52 470 64 155 98 179 58 40 21 799 276 30 29 27
leaf_count=21 52 470 64 155 98 179 58 40 21 799 276 30 29 27
internal_value=-9.51346e-06 0.225557 -0.677877 -0.198594 -0.615393 -0.141825 -0.208478 -0.694246 -1.12495 0.370868 -0.585983 -0.616441 -1.07636 0.386074
internal_weight=2319 1740 579 444 508 289 110 138 71 1296 370 94 50 497
internal_count=2319 1740 579 444 508 289 110 138 71 1296 370 94 50 497
is_linear=0
shrinkage=0.05


Tree=14
num_leaves=15
num_cat=0
split_feature=0 1 1 3 3 3 1 4 1 1 1 5 4 4
split_gain=125174 38517.7 5397.66 1769.37 758.476 228.78 65.8663 32.1167 17.8294 9.8395 8.4731 5.48653 5.17964 8.02304
threshold=1.0000000180025095e-35 19889280.000000004 19889280.000000004 1.5000000000000002 1.5000000000000002 1.5000000000000002 54822999.000000007 25719477.750000004 54822999.000000007 22313360.000000004 17600244.000000004 0.090909084792618514 8852276.083333334 14066705.333333334
decision_type=2 2 2 2 2 2 2 2 2 2 2 2 2 2
left_child=2 3 5 -2 -4 -1 7 11 9 -6 -5 -3 -13 -14
right_child=1 6 4 10 8 -7 -8 -9 -10 -11 -12 12 13 -15
leaf_value=-1.1866290899423453 -0.29128373202667934 0.37956457180636272 -0.69174649128547083 -0.094086780421661617 -0.58057279348373414 -0.9951520015031865 0.34334019111681591 0.31382919329184072 -0.57562773674726486 -0.5443171817412491 -0.062024764327899273 0.34275668916248142 0.37926064353805411 0.36264103497777667
leaf_weight=26 219 112 130 198 20 39 790 27 64 291 23 21 111 210
leaf_count=26 219 112 130 198 20 39 790 27 64 291 23 21 111 210
internal_value=-0.00114482 0.21264 -0.642874 -0.190561 -0.587673 -1.07174 0.352222 0.366809 -0.551594 -0.546649 -0.09075 0.36996 0.366814 0.368388
internal_weight=2281 1711 570 440 505 65 1271 481 375 311 221 454 342 321
internal_count=2281 1711 570 440 505 65 1271 481 375 311 221 454 342 321
is_linear=0
shrinkage=0.05


Tree=15
num_leaves=15
num_cat=0
split_feature=0 1 1 3 3 3 1 4 1 1 1 1 5 4
split_gain=114271 34559.6 4960.18 1589.42 747.406 217.969 61.5395 38.1004 24.3106 17.4874 7.65377 4.34682 3.45554 4.4882
threshold=1.0000000180025095e-35 19889280.000000004 19889280.000000004 1.5000000000000002 1.5000000000000002 1.5000000000000002 54822999.000000007 26259785.416666668 54822999.000000007 22313360.000000004 17600244.000000004 24488339.500000004 0.090909084792618514 8528187.1666666698
decision_type=2 2 2 2 2 2 2 2 2 2 2 2 2 2
left_child=2 3 5 -2 11 -1 7 12 9 -6 -5 -4 -3 -14
right_child=1 6 4 10 8 -7 -8 -9 -10 -11 -12 -13 13 -15
leaf_value=-1.1307622762826772 -0.2767651187541873 0.3590805156391208 -0.63542043685913097 -0.089380103558301935 -0.46868459463119505 -0.94386424529246793 0.32617489993572235 0.285812579030576 -0.54689081346287449 -0.51699220054858441 -0.058923525492782181 -0.66069251152507047 0.32623071551322935 0.35060738547313852
leaf_weight=26 215 119 20 200 20 39 776 23 68 296 23 114 20 338
leaf_count=26 215 119 20 200 20 39 776 23 68 296 23 114 20 338
internal_value=-0.00222886 0.203448 -0.606912 -0.179762 -0.55525 -1.01862 0.334989 0.348668 -0.519771 -0.513935 -0.0862388 -0.656921 0.351699 0.349246
internal_weight=2297 1714 583 438 518 65 1276 500 384 316 223 134 477 358
internal_count=2297 1714 583 438 518 65 1276 500 384 316 223 134 477 358
is_linear=0
shrinkage=0.05


Tree=16
num_leaves=15
num_cat=0
split_feature=0 1 1 4 4 1 4 1 4 1 4 1 4 1
split_gain=101927 31336.9 4614.21 790.717 371.887 243.767 396.678 142.357 91.026 60.2599 53.2124 50.5136 28.2286 105.21
threshold=1.0000000180025095e-35 19889280.000000004 20256855.000000004 9624213.0000000019 27708927.000000004 9562122.5000000019 6042057.5000000009 56119421.500000007 9977634.1666666698 18050385.000000004 18679684.750000004 38713223.000000007 14148763.583333334 28742489.500000004
decision_type=2 2 2 2 2 2 2 2 2 2 2 2 2 2
left_child=2 3 8 5 12 6 -2 -6 9 -1 -3 -12 -4 -14
right_child=1 10 4 -5 7 -7 -8 -9 -10 -11 11 -13 13 -15
leaf_value=-0.95804966893689392 -0.084866481250332249 0.33409118911350011 -0.48240034438126927 -0.26147495981974478 -0.6276090761627815 -0.081147807137465777 -0.26372450320951402 -0.51865280395330382 -1.0298013806343078 -0.84683535439627511 0.23652405007319019 0.31321771428507456 -0.61419294964183457 -0.49829050851671886
leaf_weight=29 62 359 151 156 99 162 62 43 24 21 22 891 22 178
leaf_count=29 62 359 151 156 99 162 62 43 24 21 22 891 22 178
internal_value=-0.000481115 0.191756 -0.581601 -0.170925 -0.52634 -0.121534 -0.174295 -0.594615 -0.94976 -0.91134 0.317782 0.31137 -0.498719 -0.51104
internal_weight=2281 1714 567 442 493 286 124 142 74 50 1272 913 351 200
internal_count=2281 1714 567 442 493 286 124 142 74 50 1272 913 351 200
is_linear=0
shrinkage=0.05


Tree=17
num_leaves=15
num_cat=0
split_feature=0 2 2 3 3 3 2 4 2 5 2 2 2 4
split_gain=92860.4 28652.6 4256.81 1308.2 559.549 195.89 51.743 35.3225 16.9168 7.83447 12.0725 6.01126 5.76833 4.13741
threshold=1.0000000180025095e-35 16.80569144025333 16.80569144025333 1.5000000000000002 1.5000000000000002 1.5000000000000002 17.819619936256064 26259785.416666668 17.819619936256064 0.09090907735490586 16.959097179164569 16.708677175772383 16.683423315526927 25098401.375000004
decision_type=2 2 2 2 2 2 2 2 2 2 2 2 2 2
left_child=2 3 5 -2 13 -1 7 -3 9 -6 -11 -7 -5 -4
right_child=1 6 4 12 8 11 -8 -9 -10 10 -12 -13 -14 -15
leaf_value=-1.020120348249163 -0.24981988228119173 0.3177037130286699 -0.57073536872863773 -0.080794920503790613 -0.49510546865917393 -0.86742149699818016 0.29417006894759368 0.25287924070249906 -0.49386498183012012 -0.42599829435348513 -0.46626843605468526 -0.82954661846160893 -0.054832075179244079 -0.59549317668985446
leaf_weight=28 222 469 20 197 21 22 798 22 64 20 268 20 24 108
leaf_count=28 222 469 20 197 21 22 798 22 64 20 268 20 24 108
internal_value=0.00050868 0.182807 -0.552452 -0.164092 -0.501422 -0.91768 0.302028 0.314799 -0.470468 -0.465622 -0.463472 -0.849386 -0.0779754 -0.591625
internal_weight=2303 1732 571 443 501 70 1289 491 373 309 288 42 221 128
internal_count=2303 1732 571 443 501 70 1289 491 373 309 288 42 221 128
is_linear=0
shrinkage=0.05


Tree=18
num_leaves=15
num_cat=0
split_feature=0 1 1 3 3 3 1 4 1 1 1 1 4 4
split_gain=83415.3 25710.4 3745.2 1184.63 521.793 138.32 44.7812 38.6399 16.3149 7.19524 7.02927 4.33601 3.30214 5.06931
threshold=1.0000000180025095e-35 19889280.000000004 20256855.000000004 1.5000000000000002 1.5000000000000002 1.5000000000000002 54822999.000000007 26557421.750000004 54822999.000000007 23186879.500000004 17759482.500000004 18358786.000000004 8101829.666666667 14066705.333333334
decision_type=2 2 2 2 2 2 2 2 2 2 2 2 2 2
left_child=2 3 5 -2 -4 -1 7 12 9 -6 -5 -7 -3 -14
right_child=1 6 4 10 8 11 -8 -9 -10 -11 -12 -13 13 -15
leaf_value=-0.94233815193176262 -0.23737211850556461 0.28178517222404481 -0.56407449699583512 -0.076627807076928664 -0.41315889812651135 -0.81796284372156325 0.27946870380774474 0.23068319573998453 -0.469349693873572 -0.44348898152230493 -0.045559715181589133 -0.78619935171944766 0.30930865061910534 0.29833753063295881
leaf_weight=30 220 20 126 203 21 22 798 20 63 284 20 21 171 274
leaf_count=30 220 20 126 203 21 22 798 20 63 284 20 21 171 274
internal_value=0.000509382 0.173356 -0.525653 -0.155053 -0.476254 -0.859939 0.286751 0.298733 -0.446185 -0.441401 -0.0738414 -0.80245 0.30166 0.302553
internal_weight=2293 1726 567 443 494 73 1283 485 368 305 223 43 465 445
internal_count=2293 1726 567 443 494 73 1283 485 368 305 223 43 465 445
is_linear=0
shrinkage=0.05


Tree=19
num_leaves=15
num_cat=0
split_feature=0 2 2 3 3 3 2 4 2 5 2 2 2 2
split_gain=76483.3 22357.7 3279.83 1033.55 472.012 168.582 39.5028 28.6212 13.7452 6.32016 11.6361 5.70087 4.65697 4.58435
threshold=1.0000000180025095e-35 16.80569144025333 16.80569144025333 1.5000000000000002 1.5000000000000002 1.5000000000000002 17.819619936256064 26259785.416666668 17.819619936256064 0.090909076873363623 16.959097179164569 16.692429456355143 17.0299385172124 16.692429456355143
decision_type=2 2 2 2 2 2 2 2 2 2 2 2 2 2
left_child=2 3 5 -2 12 -1 7 -3 9 -6 -11 -5 -4 -7
right_child=1 6 4 11 8 13 -8 -9 -10 10 -12 -13 -14 -15
leaf_value=-0.93379366397857666 -0.22593843705445815 0.28614786872818215 -0.51216673612594599 -0.072795992941405638 -0.44677455425262452 -0.78342578411102304 0.26549412395327038 0.22780125181783331 -0.44587741894508481 -0.38217524409294135 -0.42169061241781014 -0.044804644547402864 -0.53832485717639589 -0.75035023212432872
leaf_weight=24 206 471 20 201 22 22 787 22 67 20 272 20 114 20
leaf_count=24 206 471 20 201 22 22 787 22 67 20 272 20 114 20
internal_value=-0.000722126 0.167932 -0.496234 -0.145366 -0.453706 -0.828082 0.272446 0.283544 -0.425318 -0.420931 -0.418984 -0.0702628 -0.534421 -0.767676
internal_weight=2288 1707 581 427 515 66 1280 493 381 314 292 221 134 42
internal_count=2288 1707 581 427 515 66 1280 493 381 314 292 221 134 42
is_linear=0
shrinkage=0.05


Tree=20
num_leaves=15
num_cat=0
split_feature=0 1 1 3 3 3 1 4 1 5 4 1 1 4
split_gain=69426.4 20715.4 3012.9 950.733 452.473 112.285 44.6741 17.4733 14.4841 9.30278 7.51853 10.6068 7.21713 5.80853
threshold=1.0000000180025095e-35 19889280.000000004 20256855.000000004 1.5000000000000002 1.5000000000000002 1.5000000000000002 54822999.000000007 26259785.416666668 54822999.000000007 0.090909085360775257 14066705.333333334 30269586.500000004 22731545.000000004 23169670.33333334
decision_type=2 2 2 2 2 2 2 2 2 2 2 2 2 2
left_child=2 3 5 -2 -4 -1 7 10 12 -7 -3 -12 -6 -13
right_child=1 6 4 -5 8 9 -8 -9 -10 -11 11 13 -14 -15
leaf_value=-0.85662872110094357 -0.21420546025737353 0.28096486138556287 -0.50935628197409899 -0.06681976754135556 -0.36858445763587955 -0.74980178963054311 0.2521953840351584 0.2277942295101556 -0.42355911034804122 -0.70268511533737188 0.23395323363088427 0.26735519227527438 -0.39960840872697606 0.28680032821411783
leaf_weight=28 213 193 132 225 20 22 796 22 65 20 21 210 299 47
leaf_count=28 213 193 132 225 20 22 796 22 65 20 21 210 299 47
internal_value=-0.000991652 0.158577 -0.471256 -0.138494 -0.429498 -0.779071 0.259521 0.271349 -0.402047 -0.727365 0.273383 0.26812 -0.397663 0.270911
internal_weight=2313 1727 586 438 516 70 1289 493 384 42 471 278 319 257
internal_count=2313 1727 586 438 516 70 1289 493 384 42 471 278 319 257
is_linear=0
shrinkage=0.05


Tree=21
num_leaves=15
num_cat=0
split_feature=0 1 1 3 3 3 1 4 1 1 1 1 4 4
split_gain=63696 18453.9 2911.84 865.677 361.731 139.919 33.8193 21.1613 9.61603 8.25015 5.87506 4.58472 3.50672 2.99136
threshold=1.0000000180025095e-35 19889280.000000004 19889280.000000004 1.5000000000000002 1.5000000000000002 1.5000000000000002 54822999.000000007 26259785.416666668 54822999.000000007 22313360.000000004 17759482.500000004 18050385.000000004 25098401.375000004 8293008.5000000009
decision_type=2 2 2 2 2 2 2 2 2 2 2 2 2 2
left_child=2 3 5 -2 12 -1 7 13 9 -6 -5 -7 -4 -3
right_child=1 6 4 10 8 11 -8 -9 -10 -11 -12 -13 -14 -15
leaf_value=-0.8351911749158587 -0.20393645832504054 0.24016337848844982 -0.46278190158662347 -0.065792988177159381 -0.41295451760292057 -0.70776122808456421 0.2395991663263661 0.2094819456986759 -0.40236508233206614 -0.37977041470802436 -0.038061758858107392 -0.67577100027175185 -0.48506298623643479 0.25947254980337164
leaf_weight=28 207 21 21 211 20 24 791 23 70 295 21 21 111 447
leaf_count=28 207 21 21 211 20 24 791 23 70 295 21 21 111 447
internal_value=-0.0035084 0.150187 -0.451831 -0.129605 -0.410092 -0.747436 0.245997 0.256305 -0.385602 -0.381877 -0.0632828 -0.692832 -0.481518 0.258606
internal_weight=2311 1721 590 439 517 73 1282 491 385 315 232 45 132 468
internal_count=2311 1721 590 439 517 73 1282 491 385 315 232 45 132 468
is_linear=0
shrinkage=0.05


Tree=22
num_leaves=15
num_cat=0
split_feature=0 1 1 3 3 3 1 1 5 1 5 5 5 3
split_gain=55098.4 16799.9 2525.85 770.746 352.257 97.5651 29.8614 11.4279 10.4136 6.37453 6.23188 6.66229 10.3661 12.4626
threshold=1.0000000180025095e-35 19889280.000000004 20256855.000000004 1.5000000000000002 1.5000000000000002 1.5000000000000002 54822999.000000007 54822999.000000007 0.090909086145147658 35616319.500000007 0.090909085604154963 0.090909102160350461 0.090909098851601658 2.5000000000000004
decision_type=2 2 2 2 2 2 2 2 2 2 2 2 2 2
left_child=2 3 5 -2 -4 -1 9 -6 -7 10 -3 12 13 -12
right_child=1 6 4 -5 7 8 -8 -9 -10 -11 11 -13 -14 -15
leaf_value=-0.77512979425232986 -0.19320713623806285 0.24878818841172837 -0.46007079552477742 -0.060093861450887714 -0.3589884777458347 -0.67920671900113427 0.22762363148099596 -0.38215550422668459 -0.63035552740097056 0.24848051814025621 0.20983465756688802 0.24714861786500975 0.19257781548159464 0.24981327923861418
leaf_weight=29 216 74 127 219 294 24 786 65 20 271 35 44 21 44
leaf_count=29 216 74 127 219 294 24 786 65 20 271 35 44 21 44
internal_value=0.0012444 0.142118 -0.429693 -0.126191 -0.388501 -0.703929 0.233659 -0.363183 -0.657002 0.24336 0.236995 0.230935 0.223801 0.232101
internal_weight=2269 1710 559 435 486 73 1275 359 44 489 218 144 100 79
internal_count=2269 1710 559 435 486 73 1275 359 44 489 218 144 100 79
is_linear=0
shrinkage=0.05


Tree=23
num_leaves=15
num_cat=0
split_feature=0 1 1 3 3 3 1 4 4 1 5 1 4 1
split_gain=50641.2 15237.3 2214.13 701.143 326.354 86.9038 33.5661 21.5647 20.3797 10.6201 9.72153 5.92381 4.62837 3.3196
threshold=1.0000000180025095e-35 20256855.000000004 20256855.000000004 1.5000000000000002 1.5000000000000002 1.5000000000000002 54822999.000000007 8772896.583333334 25719477.750000004 54822999.000000007 0.090909086145147658 23186879.500000004 14066705.333333334 16699251.500000002
decision_type=2 2 2 2 2 2 2 2 2 2 2 2 2 2
left_child=2 3 5 -2 -4 -1 8 13 12 11 -7 -6 -3 -5
right_child=1 6 4 7 9 10 -8 -9 -10 -11 -12 -13 -14 -15
leaf_value=-0.740007756306575 -0.18364746839769427 0.24147144478300345 -0.43706793457497173 -0.059642168424897279 -0.31703739891881533 -0.64597182464599612 0.21625138774702821 -0.008523907233029605 0.18897082009911537 -0.36315216810806938 -0.59920278429985052 -0.34341995245973833 0.23124855102823794 -0.081132566779851922
leaf_weight=26 217 184 131 177 23 25 790 21 25 69 20 284 278 20
leaf_count=26 217 184 131 177 23 25 790 21 25 69 20 284 278 20
internal_value=-0.00106515 0.135555 -0.405727 -0.120023 -0.369106 -0.667233 0.222616 -0.0566895 0.232941 -0.345427 -0.625186 -0.341443 0.23532 -0.0618239
internal_weight=2290 1712 578 435 507 71 1277 218 487 376 45 307 462 197
internal_count=2290 1712 578 435 507 71 1277 218 487 376 45 307 462 197
is_linear=0
shrinkage=0.05


Tree=24
num_leaves=15
num_cat=0
split_feature=0 2 2 3 3 3 4 2 2 2 4 2 5 2
split_gain=44931.9 13888 2046.83 635.728 270.897 98.7651 30.6705 61.8381 19.8561 8.86165 8.4108 8.31097 5.44171 9.65072
threshold=1.0000000180025095e-35 16.824003741506463 16.80569144025333 1.5000000000000002 1.5000000000000002 1.5000000000000002 17870455.000000004 17.43910967549397 17.819619936256064 17.652673862433716 8689936.5000000019 17.819619936256064 0.090909076873363623 16.98075297716013
decision_type=2 2 2 2 2 2 2 2 2 2 2 2 2 2
left_child=2 3 5 -2 -4 -1 -3 -8 9 -9 -5 12 -6 -14
right_child=1 6 4 10 11 -7 7 8 -10 -11 -12 -13 13 -15
leaf_value=-0.71767474923815044 -0.17436500080277986 0.22421969807291606 -0.41248051533332242 -0.058284067324069745 -0.34984664803459531 -0.59391682900880516 0.11957559362053871 0.21350933598048649 0.20544800848218064 0.23932264393026179 -0.025811146043071692 -0.34494398557222805 -0.29165658083829016 -0.32611488462390759
leaf_weight=28 214 332 130 213 21 38 20 67 796 66 22 65 22 266
leaf_count=28 214 332 130 213 21 38 20 67 796 66 22 65 22 266
internal_value=0.000415514 0.127268 -0.384592 -0.112019 -0.350305 -0.64642 0.211139 0.206563 0.208436 0.226319 -0.055244 -0.328693 -0.325274 -0.323483
internal_weight=2300 1730 570 449 504 66 1281 949 929 133 235 374 309 288
internal_count=2300 1730 570 449 504 66 1281 949 929 133 235 374 309 288
is_linear=0
shrinkage=0.05


Tree=25
num_leaves=15
num_cat=0
split_feature=0 1 1 4 4 1 4 1 4 1 4 1 1 4
split_gain=40779.2 12451.6 1875.6 298.705 145.601 97.4502 157.633 57.1208 42.8343 35.4642 23.053 62.3665 18.3772 17.5975
threshold=1.0000000180025095e-35 19889280.000000004 20256855.000000004 9624213.0000000019 27708927.000000004 9562122.5000000019 6042057.5000000009 56119421.500000007 9977634.1666666698 17600244.000000004 18679684.750000004 38713223.000000007 54822999.000000007 14148763.583333334
decision_type=2 2 2 2 2 2 2 2 2 2 2 2 2 2
left_child=2 3 8 5 13 6 -2 -6 9 -1 -3 -12 -13 -4
right_child=1 10 4 -5 7 -7 -8 -9 -10 -11 11 12 -14 -15
leaf_value=-0.61891759943079072 -0.053580130934715281 0.21080820796956329 -0.30199620883736839 -0.16533556438261465 -0.39614161374617596 -0.052334925026422556 -0.16638770326972008 -0.32644789729799545 -0.66450258710167631 -0.53339713053269822 0.1087214294075966 0.21683900124203845 0.1952463997029639 -0.32441890329684853
leaf_weight=27 60 373 149 155 98 155 64 42 22 22 20 113 770 212
leaf_count=27 60 373 149 155 98 155 64 42 22 22 20 113 770 212
internal_value=-0.000580904 0.121664 -0.366034 -0.109683 -0.33195 -0.0787654 -0.111803 -0.375233 -0.606543 -0.580521 0.200351 0.196032 0.19801 -0.315164
internal_weight=2282 1710 572 434 501 279 124 140 71 49 1276 903 883 361
internal_count=2282 1710 572 434 501 279 124 140 71 49 1276 903 883 361
is_linear=0
shrinkage=0.05


Tree=26
num_leaves=15
num_cat=0
split_feature=3 1 1 1 4 5 5 4 5 4 1 4 5 1
split_gain=12514.2 5284.04 1351.11 1049.49 380.337 189.995 95.5915 163 88.4121 87.0567 84.3164 90.3531 82.579 79.0485
threshold=1.5000000000000002 54822999.000000007 20256855.000000004 18050385.000000004 8913103.1666666698 0.090909076873363623 0.090909102869732764 15355272.000000002 0.090909081613331527 23928881.250000004 15329617.500000002 7939268.7500000009 0.090909100142215274 22313360.000000004
decision_type=2 2 2 2 2 2 2 2 2 2 2 2 2 2
left_child=3 2 4 -1 10 -4 7 -7 -9 12 -2 -12 -10 -5
right_child=1 -3 5 13 -6 6 -8 8 9 -11 11 -13 -14 -15
leaf_value=-0.19116525877846613 -0.08011827482896694 0.14563247954444841 -0.10181673867361887 -0.45301520079374313 -0.3123597702092451 -0.014027712561867453 0.076828014466070363 -0.057572038968404141 0.066258923336863521 -0.0015658822170523711 -0.2148354951824461 -0.10224288963541693 -0.03133010566234589 -0.34650267773204385
leaf_weight=225 170 863 35 20 23 319 62 24 224 86 28 49 24 135
leaf_count=225 170 863 35 20 23 319 62 24 224 86 28 49 24 135
internal_value=0.00187993 0.0540901 -0.0215815 -0.260132 -0.117888 0.0120137 0.0174048 0.0119628 0.035122 0.0417827 -0.099779 -0.143186 0.0568148 -0.360246
internal_weight=2287 1907 1044 380 270 774 739 677 358 334 247 77 248 155
internal_count=2287 1907 1044 380 270 774 739 677 358 334 247 77 248 155
is_linear=0
shrinkage=0.05


Tree=27
num_leaves=15
num_cat=0
split_feature=0 1 1 3 3 3 1 1 4 1 4 4 1 5
split_gain=35923.2 10179.3 1581.47 469.598 118.96 82.1716 45.3818 11.8835 10.8806 5.10695 5.01689 4.0705 6.43728 5.61235
threshold=1.0000000180025095e-35 19889280.000000004 19889280.000000004 1.5000000000000002 1.5000000000000002 1.5000000000000002 54822999.000000007 54822999.000000007 26259785.416666668 17600244.000000004 25098401.375000004 14066705.333333334 30586565.500000004 0.090909099960946163
decision_type=2 2 2 2 2 2 2 2 2 2 2 2 2 2
left_child=2 3 5 -2 10 -1 8 -6 11 -5 -4 13 -13 -3
right_child=1 6 4 9 7 -7 -8 -9 -10 -11 -12 12 -14 -15
leaf_value=-0.63815337249210913 -0.14780962881347945 0.21014590443467066 -0.33190180120014012 -0.046667989851230413 -0.29515412967406846 -0.52526948451995847 0.17810127417653532 -0.31876197494566444 0.16415310242901679 -0.021795864370854005 -0.35857143185355445 0.16814632424153389 0.19764796140242596 0.1903153344988823
leaf_weight=28 213 139 21 201 319 38 781 64 23 23 110 20 245 48
leaf_count=28 213 139 21 201 319 38 781 64 23 23 110 20 245 48
internal_value=-0.00314852 0.113195 -0.342752 -0.0946568 -0.313167 -0.57316 0.185513 -0.299099 0.1977 -0.0441142 -0.354296 0.199407 0.195421 0.205056
internal_weight=2273 1693 580 437 514 66 1256 383 475 224 131 452 265 187
internal_count=2273 1693 580 437 514 66 1256 383 475 224 131 452 265 187
is_linear=0
shrinkage=0.05


Tree=28
num_leaves=15
num_cat=0
split_feature=0 1 1 3 3 3 1 1 1 5 1 1 3 1
split_gain=31789.5 9359.76 1360.15 434.103 103.033 69.8758 46.1961 10.5697 6.14979 5.7734 5.25094 4.87764 9.49396 4.24545
threshold=1.0000000180025095e-35 19889280.000000004 19889280.000000004 1.5000000000000002 1.5000000000000002 1.5000000000000002 54822999.000000007 54822999.000000007 17600244.000000004 0.090909084792618514 24488339.500000004 49555926.000000007 2.5000000000000004 22731545.000000004
decision_type=2 2 2 2 2 2 2 2 2 2 2 2 2 2
left_child=2 3 5 -2 10 -1 9 13 -5 -3 -4 -11 -13 -6
right_child=1 6 4 8 7 -7 -8 -9 -10 11 -12 12 -14 -15
leaf_value=-0.60489584781505457 -0.14047478809952738 0.19797723298072817 -0.31373550534248351 -0.0443100553896369 -0.30227550665537517 -0.4984887348281013 0.169180216277065 -0.30275359153747561 -0.017043716168921929 0.1829255187877826 -0.34173223393634689 0.21600028872489929 0.17628686251463715 -0.27898896435896553
leaf_weight=27 216 125 20 205 21 36 796 65 23 303 103 34 27 288
leaf_count=27 216 125 20 205 21 36 796 65 23 303 103 34 27 288
internal_value=0.00218443 0.108228 -0.325226 -0.0896805 -0.297482 -0.544092 0.176611 -0.284427 -0.0415595 0.188706 -0.33718 0.185522 0.198422 -0.280572
internal_weight=2289 1729 560 444 497 63 1285 374 228 489 123 364 61 309
internal_count=2289 1729 560 444 497 63 1285 374 228 489 123 364 61 309
is_linear=0
shrinkage=0.05


Tree=29
num_leaves=15
num_cat=0
split_feature=0 2 2 3 3 3 2 4 4 2 6 6 2 4
split_gain=29531.2 8411.76 1328.19 395.374 99.8316 63.4864 42.5041 10.7708 10.0116 9.40123 4.9384 14.8035 7.60815 4.80326
threshold=1.0000000180025095e-35 16.824003741506463 16.80569144025333 1.5000000000000002 1.5000000000000002 1.5000000000000002 17.819619936256064 26259785.416666668 8772896.583333334 17.819619936256064 0.74500000000000011 0.76500000000000012 16.98075297716013 14066705.333333334
decision_type=2 2 2 2 2 2 2 2 2 2 2 2 2 2
left_child=2 3 5 -2 -4 -1 7 13 -5 10 -6 -12 -13 -3
right_child=1 6 4 8 9 -7 -8 -9 -10 -11 11 12 -14 -15
leaf_value=-0.57155249436696376 -0.13344999515733055 0.18751796080006494 -0.32090581332066265 -0.042186376538414228 -0.24632163643836977 -0.47480452855428057 0.16073462901779523 0.1460714569558268 -0.005148748867213726 -0.28753089639875623 -0.30036527737975122 -0.23544871352967764 -0.26688231689073305 0.1770850443317179
leaf_weight=30 215 180 129 208 28 39 797 23 20 63 32 21 231 285
leaf_count=30 215 180 129 208 28 39 797 23 20 63 32 21 231 285
internal_value=-6.956e-05 0.103078 -0.311131 -0.084807 -0.282965 -0.516869 0.16785 0.179472 -0.0389375 -0.269913 -0.266356 -0.268331 -0.264263 0.181124
internal_weight=2301 1728 573 443 504 69 1285 488 228 375 312 284 252 465
internal_count=2301 1728 573 443 504 69 1285 488 228 375 312 284 252 465
is_linear=0
shrinkage=0.05


Tree=30
num_leaves=15
num_cat=0
split_feature=0 1 1 4 4 1 4 1 1 1 4 1 4 5
split_gain=26405.4 7505.3 1103.45 173.813 72.1917 61.4849 101.192 37.5595 36.9422 15.0649 13.2434 17.9792 11.3977 5.29865
threshold=1.0000000180025095e-35 19889280.000000004 20256855.000000004 9624213.0000000019 27373371.375000004 9919594.5000000019 6042057.5000000009 54822999.000000007 15999512.000000002 56823959.000000007 14254696.333333334 28742489.500000004 26259785.416666668 0.090909084792618514
decision_type=2 2 2 2 2 2 2 2 2 2 2 2 2 2
left_child=2 3 8 5 10 6 -2 12 -1 -6 -4 -12 -3 -13
right_child=1 7 4 -5 9 -7 -8 -9 -10 -11 11 13 -14 -15
leaf_value=-0.52780945851252636 -0.040253732556646521 0.17190300641809336 -0.24428179703260722 -0.12631253281095686 -0.30757151344447464 -0.036866288698952775 -0.12780959262992397 0.15269375120758252 -0.45231152634287985 -0.27233629226684569 -0.30260406274061941 -0.24466470479965211 0.13508853774348445 -0.26359172351658344
leaf_weight=26 66 474 152 149 103 145 66 785 43 43 26 52 22 128
leaf_count=26 66 474 152 149 103 145 66 785 43 43 26 52 22 128
internal_value=0.000454648 0.0990394 -0.293235 -0.0827661 -0.267562 -0.0593422 -0.0840317 0.159499 -0.48076 -0.297194 -0.255477 -0.263738 0.17027 -0.258124
internal_weight=2280 1707 573 426 504 277 132 1281 69 146 358 206 496 180
internal_count=2280 1707 573 426 504 277 132 1281 69 146 358 206 496 180
is_linear=0
shrinkage=0.05


Tree=31
num_leaves=15
num_cat=0
split_feature=0 1 1 3 3 3 1 1 1 1 1 5 6 6
split_gain=24188.6 6934.43 1049.39 320.823 81.3406 55.228 34.4794 7.98386 6.38554 4.94689 4.81693 4.78297 3.71312 13.9759
threshold=1.0000000180025095e-35 19889280.000000004 19889280.000000004 1.5000000000000002 1.5000000000000002 1.5000000000000002 54822999.000000007 54822999.000000007 17759482.500000004 24889050.000000004 52750322.500000007 0.090909084792618514 0.74500000000000011 0.76500000000000012
decision_type=2 2 2 2 2 2 2 2 2 2 2 2 2 2
left_child=2 3 5 -2 9 -1 10 12 -5 -4 11 -3 -6 -14
right_child=1 6 4 8 7 -7 -8 -9 -10 -11 -12 -13 13 -15
leaf_value=-0.51851703780038017 -0.12039044052362442 0.16946243617845619 -0.26599152803421022 -0.038178749265624035 -0.22196188354492188 -0.42695929110050201 0.14504951034701846 -0.25982448682188991 -0.0092229726768675302 -0.29293410736581554 0.18129623969395958 0.15770071434397681 -0.27376796237884032 -0.23823613668828048
leaf_weight=28 220 115 20 204 25 40 795 64 21 115 30 348 31 258
leaf_count=28 220 115 20 204 25 40 795 64 21 115 30 348 31 258
internal_value=-0.000899055 0.0927024 -0.280092 -0.0774563 -0.255627 -0.46466 0.151492 -0.243729 -0.0354762 -0.288943 0.16188 0.160622 -0.240448 -0.242048
internal_weight=2314 1733 581 445 513 68 1288 378 225 135 493 463 314 289
internal_count=2314 1733 581 445 513 68 1288 378 225 135 493 463 314 289
is_linear=0
shrinkage=0.05


Tree=32
num_leaves=15
num_cat=0
split_feature=0 1 1 3 3 1 1 1 1 1 1 1 5 3
split_gain=21577.8 6237.3 918.086 289.083 89.7995 42.2977 30.4871 9.90259 5.0618 5.02462 4.8669 5.20792 3.70112 3.7582
threshold=1.0000000180025095e-35 20256855.000000004 20256855.000000004 1.5000000000000002 1.5000000000000002 17600244.000000004 54822999.000000007 55427440.000000007 17759482.500000004 23186879.500000004 51741597.500000007 24248294.500000004 0.090909084792618514 2.5000000000000004
decision_type=2 2 2 2 2 2 2 2 2 2 2 2 2 2
left_child=2 3 5 -2 -4 -1 10 9 -5 -6 11 -3 -13 -14
right_child=1 6 4 8 7 -7 -8 -9 -10 -11 -12 12 13 -15
leaf_value=-0.47410492897033696 -0.11442075114884334 0.1717046894133091 -0.27718466820607657 -0.036268744982925115 -0.2022953737865795 -0.39719094309287195 0.13780440056809073 -0.2467980135404147 -0.011025199632753026 -0.22709257677718475 0.17116900811324251 0.15927440726879949 0.14275787889026106 0.15379323199291359
leaf_weight=33 219 32 131 204 22 39 811 65 22 286 37 97 160 149
leaf_count=33 219 32 131 204 22 39 811 65 22 286 37 97 160 149
internal_value=-0.000344269 0.0878647 -0.26543 -0.0734821 -0.241572 -0.432443 0.143696 -0.229064 -0.0338114 -0.225321 0.153756 0.152285 0.150754 0.148079
internal_weight=2307 1731 576 445 504 72 1286 373 226 308 475 438 406 309
internal_count=2307 1731 576 445 504 72 1286 373 226 308 475 438 406 309
is_linear=0
shrinkage=0.05


Tree=33
num_leaves=15
num_cat=0
split_feature=0 1 1 4 4 1 4 1 1 1 4 1 5 4
split_gain=19560.6 5525.45 865.789 131.765 52.4324 51.1866 71.5265 32.4498 25.6131 11.2691 11.2021 15.2888 5.46793 6.00254
threshold=1.0000000180025095e-35 19889280.000000004 20256855.000000004 9853470.333333334 27708927.000000004 9919594.5000000019 6042057.5000000009 17600244.000000004 54822999.000000007 56119421.500000007 14148763.583333334 28742489.500000004 0.090909084792618514 25719477.750000004
decision_type=2 2 2 2 2 2 2 2 2 2 2 2 2 2
left_child=2 3 7 5 10 6 -2 -1 12 -6 -4 -12 -3 -14
right_child=1 8 4 -5 9 -7 -8 -9 -10 -11 11 -13 13 -15
leaf_value=-0.45236397236585618 -0.034520499110221863 0.15478119420803202 -0.20843212234562844 -0.10894877910614015 -0.26403642432524427 -0.03165881670080125 -0.10968144847385919 -0.38481207070872192 0.13090525009428763 -0.23295458933202232 -0.26088719197681975 -0.22122863375622295 0.14413465095602948 0.11876241725683212
leaf_weight=32 60 118 145 145 101 160 67 40 809 41 28 184 345 25
leaf_count=32 60 118 145 145 101 160 67 40 809 41 28 184 345 25
internal_value=0.000982025 0.0847768 -0.25275 -0.0700992 -0.229363 -0.0504714 -0.0741723 -0.414835 0.136362 -0.255062 -0.219142 -0.226467 0.145409 0.14242
internal_weight=2300 1729 571 432 499 287 127 72 1297 142 357 212 488 370
internal_count=2300 1729 571 432 499 287 127 72 1297 142 357 212 488 370
is_linear=0
shrinkage=0.05


Tree=34
num_leaves=15
num_cat=0
split_feature=0 2 2 3 3 3 2 2 2 4 2 6 2 6
split_gain=17580.4 5040 768.973 234.13 54.9545 49.9982 24.0384 6.33338 5.10483 4.79601 15.1357 6.89292 5.84183 4.57193
threshold=1.0000000180025095e-35 16.80569144025333 16.80569144025333 1.5000000000000002 1.5000000000000002 1.5000000000000002 17.819619936256064 17.819619936256064 16.692429456355143 14066705.333333334 17.225653869810458 0.75500000000000012 16.939263637974097 0.74500000000000011
decision_type=2 2 2 2 2 2 2 2 2 2 2 2 2 2
left_child=2 3 5 -2 -4 -1 9 13 -5 11 -11 -3 -13 -6
right_child=1 6 4 8 7 -7 -8 -9 -10 10 -12 12 -14 -15
leaf_value=-0.44936343431472781 -0.10323837045309417 0.11760439532143729 -0.24696853967813348 -0.032828334704614603 -0.18565405416488648 -0.36224847674369814 0.12436755587495257 -0.22301585744409003 -0.0063810196891427046 0.092470158934593205 0.13749884164034251 0.1733515065908432 0.14458358987172445 -0.207970282951636
leaf_weight=28 215 21 130 208 25 40 797 68 20 20 279 20 150 280
leaf_count=28 215 21 130 208 25 40 797 68 20 20 279 20 150 280
internal_value=0.000255752 0.0796558 -0.240308 -0.0658062 -0.218974 -0.398119 0.129726 -0.209217 -0.0305084 0.13844 0.134487 0.14463 0.147968 -0.206141
internal_weight=2301 1730 571 443 503 68 1287 373 228 490 299 191 170 305
internal_count=2301 1730 571 443 503 68 1287 373 228 490 299 191 170 305
is_linear=0
shrinkage=0.05


Tree=35
num_leaves=15
num_cat=0
split_feature=3 1 1 1 1 5 5 4 5 5 3 5 5 5
split_gain=5289.4 2260.82 699.333 441.135 350.389 46.5503 33.6575 41.5538 68.5368 43.2369 71.9706 36.8211 35.0115 36.5016
threshold=1.5000000000000002 54822999.000000007 20256855.000000004 18050385.000000004 18050385.000000004 0.09090907803357455 0.090909105800721687 15652451.500000002 0.090909080216389396 0.090909087195359214 2.5000000000000004 0.090909081823089655 0.090909100944274387 0.090909081823089655
decision_type=2 2 2 2 2 2 2 2 2 2 2 2 2 2
left_child=3 2 4 -1 -2 -4 7 8 -7 10 -10 -12 13 -9
right_child=1 -3 5 -5 -6 6 -8 12 9 -11 11 -13 -14 -15
leaf_value=-0.12482754469445322 -0.061230178243000602 0.093851530223434745 -0.039641787650737365 -0.23414037082439815 -0.22346379306071845 0.087699702978134161 0.065440618140356885 -0.03135798344245324 0.037479849483655847 0.0026956742334549953 -0.0098098212480545038 -0.09192807896192684 -0.042548051476478582 0.030319723967582951
leaf_weight=226 227 871 47 156 39 20 28 26 23 259 20 43 20 310
leaf_count=226 227 871 47 156 39 20 28 26 23 259 20 43 20 310
internal_value=0.000544513 0.0341425 -0.0148279 -0.169468 -0.0850163 0.00862704 0.0116559 0.0095672 -0.00228738 -0.00750402 -0.0382217 -0.0658588 0.0217215 0.025547
internal_weight=2315 1933 1062 382 266 796 749 721 365 345 86 63 356 336
internal_count=2315 1933 1062 382 266 796 749 721 365 345 86 63 356 336
is_linear=0
shrinkage=0.05


Tree=36
num_leaves=15
num_cat=0
split_feature=0 1 1 3 3 1 3 1 1 6 1 1 3 1
split_gain=15196.2 4093.54 647.609 187.947 45.6962 39.2984 26.8511 11.0655 4.61455 3.99358 3.38131 3.44421 10.2764 2.74268
threshold=1.0000000180025095e-35 20256855.000000004 19889280.000000004 1.5000000000000002 1.5000000000000002 54822999.000000007 1.5000000000000002 54822999.000000007 17759482.500000004 0.75500000000000012 24248294.500000004 51318536.000000007 2.5000000000000004 25623596.000000004
decision_type=2 2 2 2 2 2 2 2 2 2 2 2 2 2
left_child=2 3 4 -2 -1 10 13 9 -5 -8 -3 -12 -13 -4
right_child=1 5 6 8 -6 -7 7 -9 -10 -11 11 12 -14 -15
leaf_value=-0.4235116903598492 -0.09171007909415442 0.1470036055102493 -0.20694032847881316 -0.028095675079986965 -0.33793648511935503 0.11346362049011385 -0.17870780512308465 -0.21665885675521124 -0.003474944763417755 -0.19582837822268886 0.12896403799086442 0.17025906026363374 0.12217380428314209 -0.22706914143128831
leaf_weight=26 209 33 20 203 39 793 39 63 21 269 405 20 25 110
leaf_count=26 209 33 20 203 39 793 39 63 21 269 405 20 25 110
internal_value=0.000865822 0.0752334 -0.223682 -0.0576069 -0.372167 0.120312 -0.204418 -0.197566 -0.0257875 -0.193661 0.131555 0.130422 0.143545 -0.223972
internal_weight=2275 1709 566 433 65 1276 501 371 224 308 483 450 45 130
internal_count=2275 1709 566 433 65 1276 501 371 224 308 483 450 45 130
is_linear=0
shrinkage=0.05


Tree=37
num_leaves=15
num_cat=0
split_feature=0 1 1 3 1 1 3 1 5 1 1 5 1 6
split_gain=13889.6 3843.41 606.311 177.705 41.2098 29.8023 29.7329 11.5617 5.5269 4.95416 3.43734 3.5701 3.39959 1.80015
threshold=1.0000000180025095e-35 20256855.000000004 20256855.000000004 1.5000000000000002 54822999.000000007 17600244.000000004 1.5000000000000002 54822999.000000007 0.090909084792618514 17759482.500000004 52750322.500000007 0.090909084792618514 24248294.500000004 0.77500000000000013
decision_type=2 2 2 2 2 2 2 2 2 2 2 2 2 2
left_child=2 3 5 -2 10 -1 -4 8 -8 -5 11 -3 -13 -14
right_child=1 4 6 9 -6 -7 7 -9 -10 -11 -12 12 13 -15
leaf_value=-0.38364742433323579 -0.087187685045451602 0.13275795397551166 -0.21516263262043156 -0.026681068700318247 0.10777893882048757 -0.31880139434659804 -0.17313199090957643 -0.20557535834172191 -0.1873812776216319 -0.0022023398171017029 0.14205660559237004 0.14037084579467773 0.12939263454505376 0.11953900225432833
leaf_weight=34 221 115 123 204 779 37 100 68 213 23 32 25 56 269
leaf_count=34 221 115 123 204 779 37 100 68 213 23 32 25 56 269
internal_value=-0.000255439 0.0707204 -0.213059 -0.0552725 0.114956 -0.349854 -0.193789 -0.186889 -0.182829 -0.0242008 0.126206 0.125115 0.122604 0.121237
internal_weight=2299 1724 575 448 1276 71 504 381 313 227 497 465 350 325
internal_count=2299 1724 575 448 1276 71 504 381 313 227 497 465 350 325
is_linear=0
shrinkage=0.05


Tree=38
num_leaves=15
num_cat=0
split_feature=0 1 1 3 3 1 3 1 1 3 5 5 1 1
split_gain=12641.1 3381.63 558.348 155.53 39.6139 29.1765 20.6467 9.16843 4.54649 8.99784 4.38561 3.98086 3.73741 3.20173
threshold=1.0000000180025095e-35 19402933.000000004 19889280.000000004 1.5000000000000002 1.5000000000000002 54822999.000000007 1.5000000000000002 54822999.000000007 51741597.500000007 2.5000000000000004 0.090909084792618514 0.090909084792618514 17600244.000000004 25623596.000000004
decision_type=2 2 2 2 2 2 2 2 2 2 2 2 2 2
left_child=2 3 4 -2 -1 8 13 10 11 -10 -8 -3 -5 -4
right_child=1 5 6 12 -6 -7 7 -9 9 -11 -12 -13 -14 -15
leaf_value=-0.38117625302281877 -0.082821721947470381 0.12503048528160435 -0.18402827964587645 -0.025309325134990242 -0.30401182480347466 0.10240310519077954 -0.16600994567076366 -0.19541481083089657 0.15775267720222474 0.11032420694828034 -0.17884481667373586 0.11387816358368404 -0.0031466373763534995 -0.20492324829101563
leaf_weight=29 215 104 22 202 39 801 96 66 20 20 217 347 21 110
leaf_count=29 215 104 22 202 39 801 96 66 20 20 217 347 21 110
internal_value=-9.71523e-05 0.0675839 -0.202322 -0.0524777 -0.33692 0.108286 -0.184411 -0.178479 0.117883 0.134038 -0.174908 0.11645 -0.0232223 -0.201441
internal_weight=2309 1730 579 438 68 1292 511 379 491 40 313 451 223 132
internal_count=2309 1730 579 438 68 1292 511 379 491 40 313 451 223 132
is_linear=0
shrinkage=0.05


Tree=39
num_leaves=15
num_cat=0
split_feature=0 1 1 4 1 1 1 4 4 4 4 1 4 5
split_gain=11371.1 2977.06 469.878 74.5636 31.8609 26.6272 24.4601 38.2481 20.6473 8.41014 5.99248 5.43572 4.88859 5.46257
threshold=1.0000000180025095e-35 19402933.000000004 20256855.000000004 9624213.0000000019 17600244.000000004 54822999.000000007 9919594.5000000019 6042057.5000000009 14148763.583333334 27708927.000000004 26259785.416666668 28742489.500000004 22624170.33333334 0.090909085256786884
decision_type=2 2 2 2 2 2 2 2 2 2 2 2 2 2
left_child=2 3 4 6 -1 10 7 -2 -4 11 -3 -10 13 -13
right_child=1 5 8 -5 -6 -7 -8 -9 9 -11 -12 12 -14 -15
leaf_value=-0.34552510193416053 -0.024085502536036075 0.11342334636947611 -0.159734952929836 -0.078272286037198546 -0.27940483677544092 0.097282965540885932 -0.021305226799265681 -0.079652909437815347 -0.1961161698613848 -0.19133850705455727 0.08610455933071319 -0.16415236754850909 -0.16090333344506436 -0.18618543285589953
leaf_weight=35 64 455 149 147 38 800 158 60 28 142 21 44 61 78
leaf_count=35 64 455 149 147 38 800 158 60 28 142 21 44 61 78
internal_value=-0.000299811 0.064545 -0.192579 -0.0494007 -0.311106 0.102854 -0.0343506 -0.050973 -0.175343 -0.181931 0.112218 -0.1756 -0.17246 -0.178239
internal_weight=2280 1705 575 429 73 1276 282 124 502 353 476 211 183 122
internal_count=2280 1705 575 429 73 1276 282 124 502 353 476 211 183 122
is_linear=0
shrinkage=0.05


Tree=40
num_leaves=15
num_cat=0
split_feature=0 1 1 3 3 1 3 1 1 6 6 1 5 1
split_gain=10144.1 2770.51 430.235 128.69 34.8345 24.1781 13.8498 6.40491 4.19658 4.01508 14.6678 8.127 3.94778 4.52955
threshold=1.0000000180025095e-35 19889280.000000004 19889280.000000004 1.5000000000000002 1.5000000000000002 54822999.000000007 1.5000000000000002 54822999.000000007 17759482.500000004 0.74500000000000011 0.76500000000000012 23694487.500000004 0.090909084792618514 51741597.500000007
decision_type=2 2 2 2 2 2 2 2 2 2 2 2 2 2
left_child=2 3 4 -2 -1 12 -4 9 -5 -8 -11 -12 -3 -14
right_child=1 5 6 8 -6 -7 7 -9 -10 10 11 -13 13 -15
leaf_value=-0.34870866903891934 -0.074794968408207568 0.11455039623482476 -0.18193288408219815 -0.02302509366610404 -0.27436732769012456 0.092400029369035575 -0.13959869612818179 -0.17656997511352318 0.00094927863683551554 -0.19708465658701385 -0.12785563440549941 -0.16035520999192152 0.1024279213908067 0.1229930614602977
leaf_weight=26 215 116 128 209 40 796 23 69 20 26 21 229 349 29
leaf_count=26 215 116 128 209 40 796 23 69 20 26 21 229 349 29
internal_value=0.000882011 0.0607141 -0.183724 -0.0470139 -0.303653 0.0977926 -0.167766 -0.162839 -0.0209313 -0.15967 -0.161342 -0.157625 0.106482 0.104006
internal_weight=2296 1734 562 444 66 1290 496 368 229 299 276 250 494 378
internal_count=2296 1734 562 444 66 1290 496 368 229 299 276 250 494 378
is_linear=0
shrinkage=0.05


Tree=41
num_leaves=15
num_cat=0
split_feature=3 1 1 1 1 4 5 4 4 4 4 6 5 6
split_gain=2816.12 1191.68 302.759 229.262 100.174 23.6717 26.6248 18.4171 17.7342 19.3637 38.1396 17.588 17.482 13.578
threshold=1.5000000000000002 54822999.000000007 20256855.000000004 18050385.000000004 18050385.000000004 9166044.833333334 0.0909090948112352 19439990.250000004 9716780.6666666698 13925212.500000002 12725774.250000002 0.83500000000000008 0.090909081823089655 0.96500000000000008
decision_type=2 2 2 2 2 2 2 2 2 2 2 2 2 2
left_child=3 2 4 -1 -2 6 -4 -3 -7 10 -10 -6 -11 -14
right_child=1 7 5 -5 11 8 -8 -9 9 12 -12 -13 13 -15
leaf_value=-0.092556728488576101 -0.043613370694220069 0.035218093598761206 -0.046056308084064058 -0.17197234091397964 -0.16035198332032277 0.044566269651536018 0.016748294565412734 0.069544030724167108 0.0071319354515449671 -0.019485182878447745 -0.038835721090435982 -0.094836332071572549 0.016774399906396866 -0.024472321498961676
leaf_weight=226 232 41 45 152 21 31 27 833 153 41 64 20 400 21
leaf_count=226 232 41 45 152 21 31 27 833 153 41 64 20 400 21
internal_value=0.000302538 0.0247566 -0.0110128 -0.124491 -0.0563459 0.00481314 -0.0225046 0.0679338 0.00758338 0.00589492 -0.00642535 -0.128393 0.0116817 0.014717
internal_weight=2307 1929 1055 378 273 782 72 874 710 679 217 41 462 421
internal_count=2307 1929 1055 378 273 782 72 874 710 679 217 41 462 421
is_linear=0
shrinkage=0.05


Tree=42
num_leaves=15
num_cat=0
split_feature=0 1 1 3 1 1 3 1 3 1 6 6 1 5
split_gain=9093.42 2252.2 340.046 92.8849 28.566 24.6365 18.4036 6.9344 4.60453 4.28008 2.77418 7.30784 5.48407 3.0507
threshold=1.0000000180025095e-35 18358786.000000004 19889280.000000004 1.5000000000000002 54822999.000000007 20705354.000000004 1.5000000000000002 54822999.000000007 1.5000000000000002 24889050.000000004 0.74500000000000011 0.76500000000000012 24248294.500000004 0.090909086540955406
decision_type=2 2 2 2 2 2 2 2 2 2 2 2 2 2
left_child=2 3 6 -2 5 -3 -1 8 9 -4 -10 -12 -13 -14
right_child=1 4 7 -5 -6 -7 -8 -9 10 -11 11 12 13 -15
leaf_value=-0.31109734821319579 -0.066934605922017776 0.046599054691337405 -0.14177099823951722 -0.019621653182477487 0.084376960102168996 0.10191551853701011 -0.25691426708584741 -0.17226172422661501 -0.13622526526451112 -0.16691625530069526 -0.17581373788416388 -0.12660659659992565 -0.14511739800958073 -0.15694543209515122
leaf_weight=25 210 21 20 205 783 485 42 68 26 110 32 22 85 152
leaf_count=25 210 21 20 205 783 485 42 68 26 110 32 22 85 152
internal_value=-0.000536179 0.0577442 -0.171171 -0.0435631 0.0903606 0.0996198 -0.277132 -0.157386 -0.155123 -0.163048 -0.151874 -0.153272 -0.150487 -0.152703
internal_weight=2286 1704 582 415 1289 506 67 515 447 130 317 291 259 237
internal_count=2286 1704 582 415 1289 506 67 515 447 130 317 291 259 237
is_linear=0
shrinkage=0.05


Tree=43
num_leaves=15
num_cat=0
split_feature=0 1 1 3 3 1 1 1 5 6 6 1 1 3
split_gain=8115.59 2023.09 338.625 92.9708 29.2056 28.9176 5.96775 4.2329 4.18146 3.92392 4.35051 20.1971 16.5052 5.57394
threshold=1.0000000180025095e-35 19889280.000000004 19889280.000000004 1.5000000000000002 1.5000000000000002 54822999.000000007 54822999.000000007 18050385.000000004 0.090909084792618514 0.74500000000000011 0.76500000000000012 36359574.500000007 22731545.000000004 1.5000000000000002
decision_type=2 2 2 2 2 2 2 2 2 2 2 2 2 2
left_child=2 3 4 -2 -1 8 9 -6 -3 -4 11 -11 -12 -14
right_child=1 5 6 -5 7 -7 -8 -9 -10 10 12 -13 13 -15
leaf_value=-0.30785687234666614 -0.063080844096839436 0.10376065057866715 -0.13118522705303298 -0.016658238770573267 -0.25707683109101798 0.080170381604955446 -0.16334833521395922 -0.22533042885008314 0.092982177755373929 -0.19980837672948837 -0.10568248124226282 -0.12960117317381359 -0.15964291132986547 -0.1453704083667082
leaf_weight=27 208 119 36 224 21 801 64 21 369 20 23 21 96 238
leaf_count=27 208 119 36 224 21 801 64 21 369 20 23 21 96 238
internal_value=0.000581355 0.0546323 -0.163478 -0.0390099 -0.267285 0.0860158 -0.149095 -0.241204 0.0956105 -0.146993 -0.148423 -0.163849 -0.146651 -0.149473
internal_weight=2288 1721 567 432 69 1289 498 42 488 434 398 41 357 334
internal_count=2288 1721 567 432 69 1289 498 42 488 434 398 41 357 334
is_linear=0
shrinkage=0.05


Tree=44
num_leaves=15
num_cat=0
split_feature=3 1 1 1 1 6 5 4 6 5 4 5 5 5
split_gain=1998.69 887.475 248.168 189.554 112.951 52.1006 30.6704 25.3282 22.7086 16.5123 11.676 11.5717 12.5303 15.3575
threshold=1.5000000000000002 54082670.500000007 20256855.000000004 18050385.000000004 17600244.000000004 0.81500000000000006 0.090909105800721687 15652451.500000002 0.76500000000000012 0.090909087934632898 19439990.250000004 0.090909081613331527 0.090909100725310443 0.090909095866427578
decision_type=2 2 2 2 2 2 2 2 2 2 2 2 2 2
left_child=3 2 4 -1 -2 -6 7 8 9 -4 -3 -9 13 -13
right_child=1 10 6 -5 5 -7 -8 11 -10 -11 -12 12 -14 -15
leaf_value=-0.076227362235387175 -0.036305699890310114 0.033586252729098008 -0.070310390847069887 -0.14836224278593377 -0.17249340371539196 -0.071244868111831172 0.057085867111499489 -0.020809249877929689 -0.0015006875651223321 -0.016009108367420376 0.058952890939054425 0.010642546254235346 -0.022789166654859271 0.03707901680306213
leaf_weight=225 220 48 21 153 24 27 26 25 350 42 826 222 21 73
leaf_count=225 220 48 21 153 24 27 26 25 350 42 826 222 21 73
internal_value=-0.000309752 0.020331 -0.010628 -0.105425 -0.0518476 -0.118891 0.00369321 0.00185208 -0.00647492 -0.0341095 0.0575598 0.0119373 0.014528 0.0171845
internal_weight=2303 1925 1051 378 271 51 780 754 413 63 874 341 316 295
internal_count=2303 1925 1051 378 271 51 780 754 413 63 874 341 316 295
is_linear=0
shrinkage=0.05


Tree=45
num_leaves=15
num_cat=0
split_feature=3 1 1 1 1 6 5 4 1 6 6 4 6 4
split_gain=1909.79 770.521 248.593 149.937 87.9466 28.8863 18.4892 22.4867 19.2409 36.9945 14.9193 13.1967 19.4788 25.3121
threshold=1.5000000000000002 54082670.500000007 20256855.000000004 18050385.000000004 18050385.000000004 0.83500000000000008 0.090909096786967888 17763731.500000004 29933762.500000004 0.85500000000000009 0.89500000000000013 15652451.500000002 0.94500000000000006 17613550.500000004
decision_type=2 2 2 2 2 2 2 2 2 2 2 2 2 2
left_child=3 2 4 -1 -2 -6 11 8 10 -10 -8 -4 13 -13
right_child=1 -3 6 -5 5 -7 7 -9 9 -11 -12 12 -14 -15
leaf_value=-0.076642136352843254 -0.038862176994351967 0.054361516855279429 -0.0070493012866717861 -0.14003416871031124 -0.16173241548240186 -0.076752520296722651 0.043762100670072773 0.043714116589497712 -0.049255931026795333 0.020185753025791862 -0.00049969192707177365 0.038516946913490835 -0.024971560741725723 0.0026795830785857969
leaf_weight=232 228 868 298 156 20 20 45 59 34 44 33 71 38 161
leaf_count=232 228 868 298 156 20 20 45 59 34 44 33 71 38 161
internal_value=-0.000957464 0.0194984 -0.00929435 -0.10213 -0.0508592 -0.119242 0.0049322 0.0174205 0.00747613 -0.0100837 0.025036 0.000205114 0.00821184 0.0136471
internal_weight=2307 1919 1051 388 268 40 783 215 156 78 78 568 270 232
internal_count=2307 1919 1051 388 268 40 783 215 156 78 78 568 270 232
is_linear=0
shrinkage=0.05


Tree=46
num_leaves=15
num_cat=0
split_feature=3 1 1 1 1 5 4 6 6 5 1 5 1 4
split_gain=1721.03 713.855 192.36 151.366 74.4708 33.537 29.3748 18.8177 15.9468 20.1579 17.4884 14.5166 23.4008 19.9449
threshold=1.5000000000000002 54082670.500000007 20256855.000000004 18050385.000000004 18050385.000000004 0.090909103445756853 9099627.1666666698 0.84500000000000008 0.92500000000000016 0.090909101177320109 49066567.000000007 0.090909082900956464 43555940.500000007 13976525.333333334
decision_type=2 2 2 2 2 2 2 2 2 2 2 2 2 2
left_child=3 2 4 -1 -2 6 -4 -6 9 -8 11 -10 13 -13
right_child=1 -3 5 -5 7 -7 8 -9 10 -11 -12 12 -14 -15
leaf_value=-0.070399778747353065 -0.033821784434880757 0.052435304422834221 -0.036191729988370627 -0.13397159473911213 -0.13815996714613654 0.042760363221168524 0.010395033121604683 -0.07114816635381431 -0.046217877214605158 -0.039650096212114606 0.025999061337539126 -0.014214240856792616 -0.050778907289107646 0.039309239387512213
leaf_weight=232 229 879 49 157 22 52 481 20 33 21 28 46 24 28
leaf_count=232 229 879 49 157 22 52 481 20 33 21 28 46 24 28
internal_value=-0.000189018 0.0193156 -0.00886667 -0.0960573 -0.0450468 0.00400052 0.00116177 -0.10625 0.00393079 0.00830151 -0.00986859 -0.017535 -0.00787643 0.00603789
internal_weight=2301 1912 1033 389 271 762 710 42 661 502 159 131 98 74
internal_count=2301 1912 1033 389 271 762 710 42 661 502 159 131 98 74
is_linear=0
shrinkage=0.05


Tree=47
num_leaves=15
num_cat=0
split_feature=0 1 1 1 4 1 1 1 4 1 4 4 1 4
split_gain=6713.65 1461.26 268.256 54.9268 34.5595 34.4259 21.3757 14.0962 13.3877 8.09819 13.903 7.87232 9.32146 17.1919
threshold=1.0000000180025095e-35 18050385.000000004 19889280.000000004 54822999.000000007 8913103.1666666698 17759482.500000004 54822999.000000007 21791438.500000004 7602372.5000000009 9040469.5000000019 6042057.5000000009 14066705.333333334 34636240.500000007 15995987.000000002
decision_type=2 2 2 2 2 2 2 2 2 2 2 2 2 2
left_child=2 4 5 8 9 -1 7 -4 -3 10 -2 -10 13 -13
right_child=1 3 6 -5 -6 -7 -8 -9 11 -11 -12 12 -14 -15
leaf_value=-0.27371074965125636 -0.012282961606979372 0.049007866485044363 -0.091390089988708512 0.067924826846140596 -0.049070124604604533 -0.2027097086752615 -0.16256237503360302 -0.13439300619434602 0.098834545757319481 -0.012615526237605533 -0.048499017953872681 0.088850537935892746 0.089858757813605306 0.030101941749453544
leaf_weight=38 53 20 20 801 159 31 68 404 185 162 53 33 239 20
leaf_count=38 53 20 20 801 159 31 68 404 185 162 53 33 239 20
internal_value=0.000767081 0.0496321 -0.149486 0.0760267 -0.0306026 -0.241812 -0.136538 -0.132365 0.0890843 -0.0196461 -0.030391 0.0907647 0.0856519 0.0666813
internal_weight=2286 1725 561 1298 427 69 492 424 497 268 106 477 292 53
internal_count=2286 1725 561 1298 427 69 492 424 497 268 106 477 292 53
is_linear=0
shrinkage=0.05


Tree=48
num_leaves=15
num_cat=0
split_feature=0 1 1 1 3 1 1 1 4 1 4 4 4 1
split_gain=6259.94 1298.16 233.686 50.1861 50.118 32.5313 18.7785 10.7101 8.04392 5.38956 15.3371 6.71786 4.30172 3.54493
threshold=1.0000000180025095e-35 18050385.000000004 19889280.000000004 54822999.000000007 1.5000000000000002 17600244.000000004 54822999.000000007 20705354.000000004 14066705.333333334 35616319.500000007 17152512.250000004 23615115.625000004 19588863.33333334 51096542.000000007
decision_type=2 2 2 2 2 2 2 2 2 2 2 2 2 2
left_child=2 4 5 7 -2 -1 12 -3 -9 10 -10 -11 -4 -13
right_child=1 3 6 -5 -6 -7 -8 8 9 11 -12 13 -14 -15
leaf_value=-0.26292414528982982 -0.046654319363918034 0.052109765771676086 -0.13127466143384156 0.064535171814059503 -0.011816284219350886 -0.1937276323636373 -0.15493818210518881 0.094567022753543548 0.085913957764462728 0.080180271830823699 0.033368330768176489 0.090149543746825198 -0.12134038561429733 0.1171495145559311
leaf_weight=35 209 24 247 806 204 33 69 183 41 180 21 31 195 20
leaf_count=35 209 24 247 806 204 33 69 183 41 180 21 31 195 20
internal_value=-7.33475e-05 0.0478207 -0.142267 0.072255 -0.0294462 -0.229343 -0.130679 0.0846994 0.0863425 0.0812057 0.0681162 0.0847189 -0.126892 0.100738
internal_weight=2298 1719 579 1306 413 68 511 500 476 293 62 231 442 51
internal_count=2298 1719 579 1306 413 68 511 500 476 293 62 231 442 51
is_linear=0
shrinkage=0.05


Tree=49
num_leaves=15
num_cat=0
split_feature=3 1 1 1 1 6 5 5 4 1 6 6 1 5
split_gain=1283.13 545.762 133.67 106.496 59.7186 29.1589 12.5586 13.283 14.9077 34.3267 41.6708 16.1984 12.2261 14.0084
threshold=1.5000000000000002 54082670.500000007 20256855.000000004 18050385.000000004 18050385.000000004 0.81500000000000006 0.090909096786967888 0.09090909749583917 17446781.83333334 30269586.500000004 0.85500000000000009 0.90500000000000014 22313360.000000004 0.090909094264935528
decision_type=2 2 2 2 2 2 2 2 2 2 2 2 2 2
left_child=3 2 4 -1 -2 -6 12 -8 9 11 -11 -9 -4 -14
right_child=1 -3 6 -5 5 -7 7 8 -10 10 -12 -13 13 -15
leaf_value=-0.06231648885043322 -0.028457459191029724 0.045470271230825227 -0.039902433156967169 -0.11633667316701678 -0.13721581995487214 -0.053798929356377236 0.050481407982962467 0.043652689041093345 0.031490613749394047 -0.070782694323309539 0.0083597227548941593 -0.0042182813088099159 0.0033312944873519568 -0.018873445405846553
leaf_weight=226 220 882 20 153 20 22 21 43 52 29 39 30 460 84
leaf_count=226 220 882 20 153 20 22 21 43 52 29 39 30 460 84
internal_value=-4.18709e-05 0.0165383 -0.00799816 -0.0841241 -0.0388875 -0.0935213 0.00240417 0.0127171 0.00860808 0.000169136 -0.0253922 0.0239797 -0.00150891 -9.73786e-05
internal_weight=2301 1922 1040 379 262 42 778 214 193 141 68 73 564 544
internal_count=2301 1922 1040 379 262 42 778 214 193 141 68 73 564 544
is_linear=0
shrinkage=0.05


Tree=50
num_leaves=15
num_cat=0
split_feature=0 1 1 1 3 1 1 3 1 6 6 1 5 1
split_gain=5371.06 1107.9 200.312 55.9906 42.987 31.6898 21.3178 8.16953 8.07402 3.7919 6.6585 7.33666 2.95813 2.58308
threshold=1.0000000180025095e-35 18050385.000000004 19889280.000000004 54822999.000000007 1.5000000000000002 18050385.000000004 54822999.000000007 1.5000000000000002 20705354.000000004 0.74500000000000011 0.76500000000000012 23694487.500000004 0.090909082167064989 24889050.000000004
decision_type=2 2 2 2 2 2 2 2 2 2 2 2 2 2
left_child=2 4 5 8 -2 -1 7 13 -3 -9 -11 -12 -13 -4
right_child=1 3 6 -5 -6 -7 -8 9 -10 10 11 12 -14 -15
leaf_value=-0.24713358084360759 -0.041377529487790658 0.052113681605987949 -0.091474540531635284 0.059049958283414777 -0.0097893520309166471 -0.17690142680858745 -0.14971417756307692 -0.10431413292884827 0.081836564942192644 -0.14690633555253349 -0.093693093458811438 -0.11316790606664576 -0.12730639844975145 -0.11103671623600855
leaf_weight=36 211 24 20 794 220 29 63 25 476 30 21 46 189 108
leaf_count=36 211 24 20 794 220 29 63 25 476 30 21 46 189 108
internal_value=0.000295224 0.0441776 -0.133209 0.0673034 -0.0252536 -0.215799 -0.122515 -0.118612 0.0804099 -0.122988 -0.12462 -0.122009 -0.124539 -0.10798
internal_weight=2292 1725 567 1294 431 65 502 439 500 311 286 256 235 128
internal_count=2292 1725 567 1294 431 65 502 439 500 311 286 256 235 128
is_linear=0
shrinkage=0.05


Tree=51
num_leaves=15
num_cat=0
split_feature=0 2 2 2 3 2 2 4 2 4 2 4 4 4
split_gain=4949.33 1005.59 185.195 51.3506 38.3914 26.3251 20.3916 7.88607 6.89789 5.62277 5.95791 4.63385 4.52703 5.03684
threshold=1.0000000180025095e-35 16.708677175772383 16.824003741506463 17.819619936256064 1.5000000000000002 16.683423315526927 17.819619936256064 7856663.0000000009 16.920695674718278 14066705.333333334 17.214496991238168 22235025.83333334 14148763.583333334 12725774.250000002
decision_type=2 2 2 2 2 2 2 2 2 2 2 2 2 2
left_child=2 4 5 7 -2 -1 8 -3 -4 -9 -11 12 13 -10
right_child=1 3 6 -5 -6 -7 -8 9 11 10 -12 -13 -14 -15
leaf_value=-0.23364744116278258 -0.039297495954047704 0.045730216624215253 -0.084911414168097762 0.056091036796569828 -0.0092721019965110781 -0.17345457260425276 -0.14110058613226448 0.084548327183340974 -0.11867979522589799 0.048427193815057931 0.075482647544343529 -0.10733425252577838 -0.12584474328553902 -0.097914101633914688
leaf_weight=34 217 20 22 805 209 39 71 187 91 22 271 170 106 43
leaf_count=34 217 20 22 805 209 39 71 187 91 22 271 170 106 43
internal_value=-0.000111518 0.0421341 -0.127069 0.0639078 -0.0245667 -0.20149 -0.116268 0.0764927 -0.112187 0.0777744 0.0734512 -0.11365 -0.118124 -0.112016
internal_weight=2307 1731 576 1305 426 73 503 500 432 480 293 410 240 134
internal_count=2307 1731 576 1305 426 73 503 500 432 480 293 410 240 134
is_linear=0
shrinkage=0.05


Tree=52
num_leaves=15
num_cat=0
split_feature=3 1 1 1 3 4 1 5 5 6 5 5 4 1
split_gain=895.54 396.237 97.4806 74.6445 33.2204 18.2266 9.29504 8.91539 7.97428 7.14644 10.7946 15.0831 13.4946 18.1391
threshold=1.5000000000000002 54822999.000000007 20256855.000000004 18050385.000000004 2.5000000000000004 8852276.083333334 7593591.5000000009 0.090909076873363623 0.090909096786967888 0.92500000000000016 0.090909103445756853 0.090909101177320109 15438446.250000002 51318536.000000007
decision_type=2 2 2 2 2 2 2 2 2 2 2 2 2 2
left_child=3 2 4 6 5 -2 -1 -4 -8 10 11 12 -9 -14
right_child=1 -3 7 -5 -6 -7 8 9 -10 -11 -12 -13 13 -15
leaf_value=-0.079702061095408033 -0.022678703185565738 0.038810940663660726 -0.021910856382266895 -0.098514391562423198 -0.090358324348926544 -0.066240462260665725 -0.039515891330582753 -0.0027053645517252671 -0.059738096431061462 -0.0054862478092396064 0.032080740864212448 -0.033762926816940313 0.020704859808871622 -0.0099020072392054983
leaf_weight=28 217 868 37 148 23 27 105 237 91 179 37 25 209 63
leaf_count=28 217 868 37 148 23 27 105 237 91 179 37 25 209 63
internal_value=5.02411e-05 0.0137942 -0.00680789 -0.07096 -0.0329139 -0.0274991 -0.0527544 0.00204891 -0.0489048 0.00323092 0.00596363 0.00415402 0.00601634 0.0136158
internal_weight=2294 1922 1054 372 267 244 224 787 196 750 571 534 509 272
internal_count=2294 1922 1054 372 267 244 224 787 196 750 571 534 509 272
is_linear=0
shrinkage=0.05


Tree=53
num_leaves=15
num_cat=0
split_feature=0 1 1 1 3 1 1 3 4 1 4 4 1 4
split_gain=4472 842.49 180.255 64.596 30.7412 26.106 23.2523 7.43297 6.41669 5.53908 3.50461 3.35824 7.08348 3.77153
threshold=1.0000000180025095e-35 18050385.000000004 20256855.000000004 54822999.000000007 1.5000000000000002 17600244.000000004 54822999.000000007 1.5000000000000002 14066705.333333334 29602309.000000004 14148763.583333334 23169670.33333334 51096542.000000007 24998616.250000004
decision_type=2 2 2 2 2 2 2 2 2 2 2 2 2 2
left_child=2 4 5 8 -2 -1 7 -4 -3 -10 -9 -11 13 -13
right_child=1 3 6 -5 -6 -7 -8 10 9 11 -12 12 -14 -15
leaf_value=-0.22271739741166435 -0.034753008674106328 0.081004521580816724 -0.095041569756038169 0.051343665220359769 -0.0076657745937924269 -0.16367187438867031 -0.13690063880040096 -0.10362370090196599 0.044086891114711764 0.068310207513070875 -0.11428023211658001 0.083791104100999381 0.10285931378602982 0.05382473631983712
leaf_weight=36 211 203 134 808 208 39 65 149 20 217 160 21 24 21
leaf_count=36 211 203 134 808 208 39 65 149 20 217 160 21 24 21
internal_value=0.000132095 0.0404304 -0.119657 0.0601166 -0.0213064 -0.192014 -0.108974 -0.104877 0.0741255 0.0695169 -0.109142 0.071314 0.0811902 0.0688079
internal_weight=2316 1733 583 1314 419 75 508 443 506 303 309 283 66 42
internal_count=2316 1733 583 1314 419 75 508 443 506 303 309 283 66 42
is_linear=0
shrinkage=0.05


Tree=54
num_leaves=15
num_cat=0
split_feature=3 1 1 1 1 6 5 4 1 4 5 5 5 5
split_gain=767.285 312.437 88.904 68.8034 41.622 27.0745 11.4102 7.72302 15.7261 14.1766 13.3302 13.1678 12.7637 13.9434
threshold=1.5000000000000002 54082670.500000007 20256855.000000004 18050385.000000004 17600244.000000004 0.81500000000000006 0.090909096786967888 15652451.500000002 43555940.500000007 17763731.500000004 0.090909082167064989 0.09090908887555435 0.090909094264935528 0.090909087195359214
decision_type=2 2 2 2 2 2 2 2 2 2 2 2 2 2
left_child=3 2 4 -1 -2 -6 7 8 12 -9 -11 -12 13 -4
right_child=1 -3 6 -5 5 -7 -8 9 -10 10 11 -13 -14 -15
leaf_value=-0.047759239355723071 -0.020471715489711384 0.035029767006466914 -0.0091961489073813917 -0.091653449329975489 -0.10924915539217182 -0.037999783903360368 0.013123454354130305 0.022068853111102665 -0.044200307130813604 -0.039002273028547113 0.017256331056743474 -0.011891041734279732 -0.029894112896274878 0.015950470068016833
leaf_weight=225 211 883 126 148 24 30 208 87 25 22 77 78 37 98
leaf_count=225 211 883 126 148 24 30 208 87 25 22 77 78 37 98
internal_value=0.000406071 0.0132403 -0.00556726 -0.0651757 -0.0304962 -0.0696662 0.00314802 -0.000624513 -0.00631699 0.00554234 -0.00258087 0.00258862 -0.00268832 0.0018055
internal_weight=2279 1906 1023 373 265 54 758 550 286 264 177 155 261 224
internal_count=2279 1906 1023 373 265 54 758 550 286 264 177 155 261 224
is_linear=0
shrinkage=0.05


Tree=55
num_leaves=15
num_cat=0
split_feature=0 1 1 1 3 3 1 1 4 4 1 5 4 1
split_gain=3811.68 686.062 139.462 62.3941 28.16 23.1717 20.8188 16.5108 10.5071 6.63695 6.04647 5.47585 4.46212 4.87212
threshold=1.0000000180025095e-35 20256855.000000004 18050385.000000004 54822999.000000007 1.5000000000000002 1.5000000000000002 20256855.000000004 54822999.000000007 8772896.583333334 14254696.333333334 33940846.000000007 0.090909082452320725 23363617.83333334 51096542.000000007
decision_type=2 2 2 2 2 2 2 2 2 2 2 2 2 2
left_child=2 4 -1 9 -2 -4 -7 11 -6 -3 -11 -8 -12 -14
right_child=1 3 5 -5 8 6 7 -9 -10 10 12 -13 13 -15
leaf_value=-0.20730334222316743 -0.029987819833414898 0.076932597732303126 -0.08856898340685615 0.047036134968606792 -0.0079614465940921093 -0.15611193370819093 -0.091145207710338363 -0.13099547555481181 0.029965769983828067 0.04749118749584471 0.064132065996939311 -0.10746776073657234 0.069024796783924106 0.098591393232345587
leaf_weight=36 210 198 145 784 210 25 66 69 20 42 181 232 38 22
leaf_count=36 210 198 145 784 210 25 66 69 20 42 181 232 38 22
internal_value=-0.000466011 0.0370284 -0.112033 0.055734 -0.0167501 -0.105646 -0.111963 -0.108956 -0.00466343 0.0699109 0.0649982 -0.103853 0.0680492 0.0798659
internal_weight=2278 1705 573 1265 440 537 392 367 230 481 283 298 241 60
internal_count=2278 1705 573 1265 440 537 392 367 230 481 283 298 241 60
is_linear=0
shrinkage=0.05


Tree=56
num_leaves=15
num_cat=0
split_feature=0 1 1 1 3 3 1 1 5 5 1 6 5 6
split_gain=3465.26 638.157 123.722 55.7095 22.8024 19.5601 19.2308 14.2572 5.19512 4.81169 2.92077 2.76531 2.43243 1.56066
threshold=1.0000000180025095e-35 18050385.000000004 18050385.000000004 54822999.000000007 1.5000000000000002 1.5000000000000002 20256855.000000004 54822999.000000007 0.090909082900956464 0.090909084792618514 22313360.000000004 0.77500000000000013 0.090909100142215274 0.78500000000000014
decision_type=2 2 2 2 2 2 2 2 2 2 2 2 2 2
left_child=2 4 -1 9 -2 12 -7 8 -8 13 -11 -10 -4 -3
right_child=1 3 5 -5 -6 6 7 -9 11 10 -12 -13 -14 -15
leaf_value=-0.19342829961525768 -0.029094914926422966 0.085679160356521622 -0.081642075912739198 0.044675405704353938 -0.005956787687637622 -0.14830633878707886 -0.086620339163592172 -0.12442739661782981 -0.091389265780647599 0.04545601416717876 0.064233424212709708 -0.1048651106979536 -0.099693436785177753 0.071683502204868257
leaf_weight=38 216 25 123 806 210 25 71 64 48 22 353 184 22 98
leaf_count=38 216 25 123 806 210 25 71 64 48 22 353 184 22 98
internal_value=9.80112e-05 0.0354418 -0.106241 0.0527989 -0.0176888 -0.100071 -0.105875 -0.102984 -0.0984551 0.0659466 0.0631318 -0.102077 -0.0843809 0.0745281
internal_weight=2305 1730 575 1304 426 537 392 367 303 498 375 232 145 123
internal_count=2305 1730 575 1304 426 537 392 367 303 498 375 232 145 123
is_linear=0
shrinkage=0.05


Tree=57
num_leaves=15
num_cat=0
split_feature=0 1 1 1 3 3 1 1 5 1 4 1 4 5
split_gain=3095.08 569.664 110.316 47.402 20.8143 19.1694 17.7415 12.778 5.39336 5.15472 5.71349 5.62325 5.50498 4.27167
threshold=1.0000000180025095e-35 18050385.000000004 18050385.000000004 54822999.000000007 1.5000000000000002 1.5000000000000002 20256855.000000004 54822999.000000007 0.090909084792618514 21791438.500000004 14254696.333333334 34636240.500000007 23169670.33333334 0.090909082900956464
decision_type=2 2 2 2 2 2 2 2 2 2 2 2 2 2
left_child=2 4 -1 8 -2 -4 -7 13 -3 -10 -11 -12 -13 -8
right_child=1 3 5 -5 -6 6 7 -9 9 10 11 12 -14 -15
leaf_value=-0.18431385401132946 -0.027604930464909458 0.07126407493821911 -0.079145214238337105 0.042440302279462647 -0.0055004289132138751 -0.14234020113945009 -0.083245469065936842 -0.11811572533387404 0.03510101976848784 0.068756118972799679 0.036976469176657062 0.054313811104873135 0.074332446389728121 -0.097041989194935771
leaf_weight=37 214 122 140 786 212 24 74 65 21 134 34 145 45 232
leaf_count=37 214 122 140 786 212 24 74 65 21 134 34 145 45 232
internal_value=-0.000114084 0.0335125 -0.100817 0.0501013 -0.0166046 -0.0950428 -0.100677 -0.0979823 0.0621204 0.0591771 0.0605893 0.0557039 0.0590551 -0.0937056
internal_weight=2285 1713 572 1287 426 535 395 371 501 379 358 224 190 306
internal_count=2285 1713 572 1287 426 535 395 371 501 379 358 224 190 306
is_linear=0
shrinkage=0.05


Tree=58
num_leaves=15
num_cat=0
split_feature=0 1 1 1 1 4 1 4 1 4 4 1 4 4
split_gain=2828.21 516.775 113.007 41.0698 16.9298 18.7121 22.8593 11.7458 4.73622 4.7141 5.12076 6.38394 6.47213 4.65529
threshold=1.0000000180025095e-35 18050385.000000004 18050385.000000004 54822999.000000007 54822999.000000007 19588863.33333334 20256855.000000004 9099627.1666666698 25623596.000000004 7602372.5000000009 15007677.833333334 34636240.500000007 16363218.333333334 14148763.583333334
decision_type=2 2 2 2 2 2 2 2 2 2 2 2 2 2
left_child=2 7 -1 9 5 6 -4 -2 -7 -3 -11 12 -12 -8
right_child=1 3 4 -5 -6 8 13 -9 -10 10 11 -13 -14 -15
leaf_value=-0.17709512054920196 -0.009544661886651408 0.034884710181504484 -0.13415009578069051 0.040314415403860278 -0.11295467112745559 -0.052530988767033528 -0.084186141825702096 -0.02665113169181196 -0.077630472949097279 0.065543292806698725 0.056809922485124502 0.058424787901874102 0.017554575772512526 -0.098498942262382927
leaf_weight=40 275 20 33 797 70 21 146 158 179 208 21 224 21 93
leaf_count=40 275 20 33 797 70 21 146 158 179 208 21 224 21 93
internal_value=-0.000691125 0.0314817 -0.0959934 0.0473355 -0.0900081 -0.086605 -0.0951417 -0.0157867 -0.074995 0.058663 0.0596663 0.0550707 0.0371822 -0.0897556
internal_weight=2306 1724 582 1291 542 472 272 433 200 494 474 266 42 239
internal_count=2306 1724 582 1291 542 472 272 433 200 494 474 266 42 239
is_linear=0
shrinkage=0.05


Tree=59
num_leaves=15
num_cat=0
split_feature=3 1 1 1 1 6 5 1 4 5 6 1 4 1
split_gain=468.459 195.644 50.3869 40.233 30.1919 14.2884 4.52586 4.34508 5.27847 6.62731 6.87802 3.30734 3.29915 3.27704
threshold=1.5000000000000002 54822999.000000007 20256855.000000004 18050385.000000004 18050385.000000004 0.81500000000000006 0.090909095973006768 53402627.500000007 16278925.333333334 0.090909103445756853 0.90500000000000014 15999512.000000002 19439990.250000004 7593591.5000000009
decision_type=2 2 2 2 2 2 2 2 2 2 2 2 2 2
left_child=3 2 4 13 6 -6 11 8 9 -4 -11 -2 -3 -1
right_child=1 12 7 -5 5 -7 -8 -9 -10 10 -12 -13 -14 -15
leaf_value=-0.053110029134485461 -0.016574913448625311 0.014357181248210726 -0.0021590933055426944 -0.069707873387214472 -0.091911730915308007 -0.034126552834135036 -0.0073698968458920716 -0.014767594252313887 0.0088324451846862918 0.033581243455410005 -0.0037778537381779062 -0.034145045330798304 0.028725508164719055 -0.034557710120927045
leaf_weight=27 97 42 402 156 20 23 100 35 268 28 22 37 819 201
leaf_count=27 97 42 402 156 20 23 100 35 268 28 22 37 819 201
internal_value=0.000212061 0.0104265 -0.00425565 -0.0501419 -0.0224956 -0.0610034 -0.0154193 0.00243634 0.00327264 -2.38794e-05 0.0171432 -0.0214264 0.0280246 -0.0367547
internal_weight=2277 1893 1032 384 277 43 234 755 720 452 50 134 861 228
internal_count=2277 1893 1032 384 277 43 234 755 720 452 50 134 861 228
is_linear=0
shrinkage=0.05


Tree=60
num_leaves=15
num_cat=0
split_feature=0 2 2 2 3 3 2 2 4 4 2 4 2 5
split_gain=2454.63 426.705 78.1062 46.661 18.9055 15.5926 12.2777 12.1667 4.00003 4.25211 3.61369 4.10376 4.31491 3.53365
threshold=1.0000000180025095e-35 16.708677175772383 16.708677175772383 17.819619936256064 1.5000000000000002 1.5000000000000002 16.824003741506463 17.819619936256064 7602372.5000000009 15225954.500000002 17.340129695165079 23363617.83333334 17.749227383883831 0.090909086762083216
decision_type=2 2 2 2 2 2 2 2 2 2 2 2 2 2
left_child=2 5 -1 8 -4 -2 -6 13 -3 -10 -11 -12 -13 -8
right_child=1 3 4 -5 6 -7 7 -9 9 10 11 12 -14 -15
leaf_value=-0.16304230304325329 -0.023312532605187408 0.034445244502276186 -0.069400122099452552 0.036896086249500519 -0.12603261341219363 -0.0040849093321917787 -0.077405304082874535 -0.10800603353060211 0.062322742775951269 0.036582225263118745 0.050987879976540987 0.055795328319072725 0.083234133150266565 -0.088478579907803931
leaf_weight=34 206 20 144 800 23 216 118 65 223 30 167 38 23 185
leaf_count=34 206 20 144 800 23 216 118 65 223 30 167 38 23 185
internal_value=0.000483208 0.0302183 -0.0895581 0.0443895 -0.0848881 -0.0134709 -0.0905921 -0.0883771 0.0563551 0.0572662 0.0528955 0.055042 0.0661411 -0.0841662
internal_weight=2292 1723 569 1301 535 422 391 368 501 481 258 228 61 303
internal_count=2292 1723 569 1301 535 422 391 368 501 481 258 228 61 303
is_linear=0
shrinkage=0.05


Tree=61
num_leaves=15
num_cat=0
split_feature=0 1 1 1 1 1 1 3 3 1 1 6 5 5
split_gain=2209.29 385.761 92.5377 41.8389 16.3968 15.8494 16.5187 13.8959 10.6293 5.85047 3.66054 2.7784 1.98779 1.67163
threshold=1.0000000180025095e-35 18050385.000000004 18050385.000000004 54822999.000000007 54822999.000000007 19889280.000000004 21791438.500000004 1.5000000000000002 1.5000000000000002 20256855.000000004 23186879.500000004 0.77500000000000013 0.090909086903828318 0.090909084792618514
decision_type=2 2 2 2 2 2 2 2 2 2 2 2 2 2
left_child=2 7 -1 9 5 -4 -7 -2 -8 -3 -11 -10 -13 -12
right_child=1 3 4 -5 -6 6 8 -9 11 10 13 12 -14 -15
leaf_value=-0.16011532670573186 -0.022217562823479878 0.026933137243613604 -0.11008342038840056 0.035048063926810598 -0.10309621440246702 -0.032386008941608931 -0.063525923280442348 -0.0039838584828503889 -0.071608022588198303 0.073996009774830035 0.058909597751256586 -0.077526660526500035 -0.087144449802294174 0.051872423697601672
leaf_weight=38 207 20 32 796 64 23 122 211 61 23 111 85 146 352
leaf_count=38 207 20 32 796 64 23 122 211 61 23 111 85 146 352
internal_value=0.000487151 0.0287775 -0.0847306 0.0421942 -0.0793561 -0.0761165 -0.0736293 -0.0130135 -0.0759206 0.053436 0.0545267 -0.0810991 -0.0836054 0.0535595
internal_weight=2291 1720 571 1302 533 469 437 418 414 506 486 292 231 463
internal_count=2291 1720 571 1302 533 469 437 418 414 506 486 292 231 463
is_linear=0
shrinkage=0.05


Tree=62
num_leaves=15
num_cat=0
split_feature=0 1 1 1 3 3 1 1 1 4 1 5 4 1
split_gain=2064.02 352.854 80.4447 36.7934 17.3993 12.9044 10.4501 9.40977 5.17849 5.1102 5.79376 3.55435 3.30278 3.55319
threshold=1.0000000180025095e-35 18050385.000000004 18050385.000000004 54822999.000000007 1.5000000000000002 1.5000000000000002 20256855.000000004 54822999.000000007 20256855.000000004 15007677.833333334 33940846.000000007 0.090909084916768704 23363617.83333334 51096542.000000007
decision_type=2 2 2 2 2 2 2 2 2 2 2 2 2 2
left_child=2 5 -1 8 -4 -2 -6 11 -3 -10 -11 -8 -12 -14
right_child=1 3 4 -5 6 -7 7 -9 9 10 12 -13 13 -15
leaf_value=-0.15218920895927832 -0.021080877898737443 0.025586482156068086 -0.061968974737854267 0.033300024005117022 -0.11579308184710416 -0.0036754853034753933 -0.06905116769028645 -0.097488941207076574 0.057084283951137751 0.026113900045553848 0.045795937658783925 -0.080436801282983084 0.050533003414549485 0.075441412492231893
leaf_weight=38 215 20 143 807 22 211 102 66 224 30 167 209 41 22
leaf_count=38 215 20 143 807 22 211 102 66 224 30 167 209 41 22
internal_value=-0.000196058 0.0270735 -0.0818638 0.0399196 -0.0769332 -0.0124599 -0.0822963 -0.0803416 0.0505189 0.0515491 0.0467804 -0.0767026 0.049476 0.0592312
internal_weight=2317 1737 580 1311 542 426 399 377 504 484 260 311 230 63
internal_count=2317 1737 580 1311 542 426 399 377 504 484 260 311 230 63
is_linear=0
shrinkage=0.05


Tree=63
num_leaves=15
num_cat=0
split_feature=0 1 1 1 3 3 1 1 5 5 1 6 5 6
split_gain=1782.31 317.13 55.7441 34.0133 15.8234 11.7124 8.46977 8.6208 3.95533 3.26303 2.0427 1.96864 1.81056 1.47643
threshold=1.0000000180025095e-35 18641567.500000004 18050385.000000004 54822999.000000007 1.5000000000000002 1.5000000000000002 20705354.000000004 51741597.500000007 0.090909084792618514 0.090909082900956464 22313360.000000004 0.78500000000000014 0.090909100142215274 0.77500000000000013
decision_type=2 2 2 2 2 2 2 2 2 2 2 2 2 2
left_child=2 5 -1 8 12 -2 -6 9 11 -8 -10 -3 -4 -11
right_child=1 3 4 -5 6 -7 7 -9 10 13 -12 -13 -14 -15
leaf_value=-0.13979893417069408 -0.019966927808384563 0.068415039204634154 -0.056378343919428392 0.031629657415459998 -0.10687434176603955 -0.0034046819481893249 -0.062614282734797036 -0.089826353673230525 0.030247958367690442 -0.066705499589443204 0.046678707080447579 0.052869937230060074 -0.071952216327190399 -0.077225347433561173
leaf_weight=33 215 26 123 804 24 212 71 88 20 42 349 94 22 162
leaf_count=33 215 26 123 804 24 212 71 88 20 42 349 94 22 162
internal_value=0.000307068 0.0256163 -0.0767404 0.0379541 -0.0728288 -0.011744 -0.0781071 -0.0762052 0.0483525 -0.0718464 0.0457882 0.056238 -0.0587413 -0.0750595
internal_weight=2285 1720 565 1293 532 427 387 363 489 275 369 120 145 204
internal_count=2285 1720 565 1293 532 427 387 363 489 275 369 120 145 204
is_linear=0
shrinkage=0.05


Tree=64
num_leaves=15
num_cat=0
split_feature=0 1 1 1 3 3 1 1 5 4 4 5 1 1
split_gain=1628.73 280.317 55.1652 30.0528 14.5075 9.92103 7.10288 7.59307 4.60606 3.28548 3.50128 4.06334 2.84235 2.79887
threshold=1.0000000180025095e-35 18050385.000000004 18050385.000000004 54822999.000000007 1.5000000000000002 1.5000000000000002 20256855.000000004 54822999.000000007 0.090909084792618514 14148763.583333334 22624170.33333334 0.090909085256786884 38282991.000000007 21791438.500000004
decision_type=2 2 2 2 2 2 2 2 2 2 2 2 2 2
left_child=2 5 -1 8 -4 -2 -6 9 -3 12 11 -11 -8 -10
right_child=1 3 4 -5 6 -7 7 -9 13 10 -12 -13 -14 -15
leaf_value=-0.1330726640092002 -0.018975275295888078 0.054511072356575013 -0.055498467062736728 0.030053370720461797 -0.10170940810983831 -0.0034330506296828393 -0.066989110056626597 -0.088122038915753376 0.025798667649823154 -0.066195202422769453 -0.063707482152514983 -0.086555643703626561 -0.048726528195234452 0.044186245664996883
leaf_weight=36 211 116 143 798 22 200 118 64 22 38 54 69 26 349
leaf_count=36 211 116 143 798 22 200 118 64 22 38 54 69 26 349
internal_value=-4.4055e-05 0.0245307 -0.0731647 0.0360268 -0.069126 -0.0114121 -0.0741099 -0.0724644 0.0458149 -0.0691789 -0.0740867 -0.0793248 -0.0636917 0.0430959
internal_weight=2266 1696 570 1285 534 411 391 369 487 305 161 107 144 371
internal_count=2266 1696 570 1285 534 411 391 369 487 305 161 107 144 371
is_linear=0
shrinkage=0.05


Tree=65
num_leaves=15
num_cat=0
split_feature=0 1 1 1 4 5 1 3 4 3 1 4 1 4
split_gain=1503.2 254.452 63.0512 29.4504 13.1911 16.3231 11.9922 9.99577 9.17333 7.84233 4.48858 4.30674 5.38123 3.71568
threshold=1.0000000180025095e-35 20256855.000000004 20256855.000000004 54822999.000000007 9977634.1666666698 0.090909079662829032 54822999.000000007 1.5000000000000002 8689936.5000000019 1.5000000000000002 16699251.500000002 15438446.250000002 33940846.000000007 23615115.625000004
decision_type=2 2 2 2 2 2 2 2 2 2 2 2 2 2
left_child=2 7 4 11 5 -1 9 -2 10 -4 -9 -3 -13 -14
right_child=1 3 6 -5 -6 -7 -8 8 -10 -11 -12 12 13 -15
leaf_value=-0.13275790640286037 -0.01760306788502999 0.049245737655714612 -0.050789020604234403 0.02855275401313058 -0.14618217789608498 -0.073489434673235973 -0.08435429334640504 -0.00322726346552372 0.02897599209986982 -0.065696604265712014 -0.02762012807874098 0.017695438742637636 0.038224645465230328 0.053141573698897118
leaf_weight=21 212 229 123 801 23 26 66 185 21 312 21 25 156 57
leaf_count=21 212 229 123 801 23 26 66 185 21 312 21 25 156 57
internal_value=-0.000478707 0.0230124 -0.0707051 0.0343711 -0.115155 -0.0999711 -0.0644946 -0.00979595 -0.00250472 -0.0614814 -0.00571391 0.0443507 0.0396408 0.0422165
internal_weight=2278 1707 571 1268 70 47 501 439 227 435 206 467 238 213
internal_count=2278 1707 571 1268 70 47 501 439 227 435 206 467 238 213
is_linear=0
shrinkage=0.05


Tree=66
num_leaves=15
num_cat=0
split_feature=0 1 1 1 3 3 1 1 1 4 4 4 1 4
split_gain=1366.51 231.353 55.5378 23.4531 12.3273 8.28061 7.81059 6.72834 3.24367 4.37306 3.05672 2.93424 2.85337 2.5101
threshold=1.0000000180025095e-35 18050385.000000004 17600244.000000004 54822999.000000007 1.5000000000000002 1.5000000000000002 20256855.000000004 54822999.000000007 20256855.000000004 8293008.5000000009 26557421.750000004 14148763.583333334 38282991.000000007 22624170.33333334
decision_type=2 2 2 2 2 2 2 2 2 2 2 2 2 2
left_child=2 5 -1 8 -4 -2 -6 11 -3 -10 -11 12 -8 -13
right_child=1 3 4 -5 6 -7 7 -9 9 10 -12 13 -14 -15
leaf_value=-0.12669926103618409 -0.017151401596409935 0.021088512791320683 -0.049787926801613397 0.02710743215243528 -0.09297966636993267 -0.0031101267793703646 -0.060560150650458611 -0.079515475924335319 0.06395494327658699 0.041480242426578821 0.021508141756057739 -0.071178881921500806 -0.043586463024539335 -0.057608614563941951
leaf_weight=36 210 20 140 785 27 210 123 67 21 455 20 107 31 50
leaf_count=36 210 20 140 785 27 210 123 67 21 455 20 107 31 50
internal_value=-0.000249005 0.0221342 -0.066551 0.0325502 -0.0625779 -0.0101308 -0.0669991 -0.0651434 0.0408304 0.0416265 0.0406393 -0.0620471 -0.0571434 -0.0668571
internal_weight=2302 1721 581 1301 545 420 405 378 516 496 475 311 154 157
internal_count=2302 1721 581 1301 545 420 405 378 516 496 475 311 154 157
is_linear=0
shrinkage=0.05


Tree=67
num_leaves=15
num_cat=0
split_feature=3 1 1 1 1 5 4 5 5 4 1 4 4 5
split_gain=221.022 79.3796 28.2324 30.5068 18.0757 3.75655 3.89219 3.5849 5.50867 2.806 3.8927 3.09744 6.70381 3.08551
threshold=1.5000000000000002 54822999.000000007 20256855.000000004 18358786.000000004 18050385.000000004 0.09090907803357455 7740216.7500000009 0.090909094264935528 0.090909094714336544 13338771.833333334 33038978.000000004 15438446.250000002 17152512.250000004 0.090909099960946163
decision_type=2 2 2 2 2 2 2 2 2 2 2 2 2 2
left_child=4 2 3 -2 -1 -4 -7 -8 -9 10 -10 13 -13 -11
right_child=1 -3 5 -5 -6 6 7 8 9 11 -12 12 -14 -15
leaf_value=-0.025784250117805847 -0.010373790076253976 0.017955739233655919 -0.011618514456178832 -0.062384829423535848 -0.047728323945834206 0.023824872823421508 0.0053867232133733463 -0.024289539456367495 -0.00026881527720075665 0.0044665762872406929 -0.023110645665572242 -0.022834246662946849 0.0061007701459972336 0.028983354426565622
leaf_weight=229 237 853 46 32 159 22 423 25 66 33 26 26 87 21
leaf_count=229 237 853 46 32 159 22 423 25 66 33 26 26 87 21
internal_value=-0.000392345 0.00664043 -0.00260475 -0.016561 -0.0347768 0.00223941 0.00311385 0.00246938 -0.00187582 0.000287666 -0.00672412 0.00415044 -0.000556844 0.0140009
internal_weight=2285 1897 1044 269 388 775 729 707 284 259 92 167 113 54
internal_count=2285 1897 1044 269 388 775 729 707 284 259 92 167 113 54
is_linear=0
shrinkage=0.05


Tree=68
num_leaves=15
num_cat=0
split_feature=0 2 2 2 3 3 2 2 5 2 5 4 4 2
split_gain=1164.95 197.952 36.2036 28.1142 12.7719 6.85263 5.22411 6.30417 3.74419 4.8011 3.14893 2.51101 3.17976 3.12808
threshold=1.0000000180025095e-35 16.708677175772383 16.692429456355143 17.819619936256064 1.5000000000000002 1.5000000000000002 17.855468446653003 16.824003741506463 0.090909077736085683 16.874920398282679 0.090909082167064989 14148763.583333334 22784483.375000004 17.460516184582961
decision_type=2 2 2 2 2 2 2 2 2 2 2 2 2 2
left_child=2 5 -1 8 -4 -2 7 -6 -3 -10 -9 13 -13 -12
right_child=1 3 4 -5 6 -7 -8 10 9 -11 11 12 -14 -15
leaf_value=-0.11179615487070645 -0.015109193516629083 0.060073951631784445 -0.045494378811639286 0.02486898184082428 -0.085425483435392385 -0.0023510109354582974 -0.076902615215818759 -0.048543371311388916 0.014996856171637775 0.040014731983130582 -0.060274373363046085 -0.070796780567616222 -0.054017602205276495 -0.04015447294712067
leaf_weight=34 210 22 138 803 24 211 59 60 20 466 85 96 40 25
leaf_count=34 210 22 138 803 24 211 59 60 20 466 85 96 40 25
internal_value=0.000831002 0.0211139 -0.0617892 0.0306928 -0.0585629 -0.00871495 -0.0631991 -0.0607491 0.0398985 0.0389852 -0.0588137 -0.0613186 -0.0658617 -0.0557017
internal_weight=2293 1732 561 1311 527 421 389 330 508 486 306 246 136 110
internal_count=2293 1732 561 1311 527 421 389 330 508 486 306 246 136 110
is_linear=0
shrinkage=0.05


Tree=69
num_leaves=15
num_cat=0
split_feature=0 1 1 1 3 4 5 3 1 4 1 4 1 4
split_gain=1077.65 172.694 45.1674 21.9441 11.561 9.05245 9.55387 6.56636 6.43403 3.49968 4.13348 3.20244 5.36303 4.3043
threshold=1.0000000180025095e-35 20256855.000000004 20256855.000000004 54822999.000000007 1.5000000000000002 9977634.1666666698 0.090909075522860747 1.5000000000000002 56823959.000000007 14254696.333333334 31168044.500000004 6690865.8333333349 17525148.000000004 6195606.0000000009
decision_type=2 2 2 2 2 2 2 2 2 2 2 2 2 2
left_child=2 7 5 9 -4 6 -1 -2 -6 -3 -11 13 -13 -9
right_child=1 3 4 -5 8 -7 -8 11 -10 10 -12 12 -14 -15
leaf_value=-0.1123452751338482 -0.013923056618472852 0.042602668208553192 -0.041367707037925722 0.023624780094381209 -0.055865973520395198 -0.12469598906380791 -0.067731492221355438 -0.0021992716800283501 -0.072829807681195888 0.012434140060629165 0.035498811192379041 -0.0012429535618195169 0.027821232174478829 -0.025222439400851726
leaf_weight=20 218 187 125 787 314 21 30 108 68 21 259 65 21 25
leaf_count=20 218 187 125 787 314 21 30 108 68 21 259 65 21 25
internal_value=-0.000858491 0.0192873 -0.0597972 0.0287199 -0.0545667 -0.0971474 -0.085577 -0.00777999 -0.0588857 0.0373062 0.033769 -0.00166497 0.00585412 -0.00652693
internal_weight=2269 1691 578 1254 507 71 50 437 382 467 280 219 86 133
internal_count=2269 1691 578 1254 507 71 50 437 382 467 280 219 86 133
is_linear=0
