tree
version=v4
num_class=1
num_tree_per_iteration=1
label_index=0
max_feature_idx=10
objective=regression
feature_names=paid_on_time invoice_total log_invoice_total item_count avg_line_amount tax_ratio ocr_confidence trust_graph_score repeat_counterparty_count verified_counterparty_count network_centrality_score
feature_infos=[0:1] [6034993:159707782] [15.613085418312778:18.88885634712609] [1:4] [3017496.5:79853891] [0.090909019485588508:0.090909163865083589] [0.71999999999999997:0.97999999999999998] [0.47999999999999998:0.91000000000000003] [2:18] [0:12] [0.34999999999999998:0.81999999999999995]
tree_sizes=1336 1378 1376 1380 1382 1376 1388 1376 1388 1379 1383 1382 1384 1389 1384 1376 1378 1375 1380 1391 1386 1376 1386 1383 1382 1384 1387 1377 1390 1385 1380 1385 1385 1382 1386 1386 1393 1385 1395 1387 1399 1401 1392 1391 1395 1396 1398 1387 1397 1401 1407 1399 1396 1409 1402 1408 1406 1403 1417 1408 1410 1403 1416 1408 1409 1410 1413 1415 1417 1417 1425 1421 1423 1413 1415 1414 1418 1415 1421 1424 1414 1423 1418 1415 1428 1421 1413 1424 1419 1432 1421 1427 1420 1423 1427 1426 1426 1427 1427 1428 1436 1430 1433 1427 1429 1432 1435 1435 1433 1438 1430 1429 1422 1428 1438 1434 1432 1440 1430 1453 1450 1431 1426 1434 1431 1435 1435 1438 1447 1448 1436 1443 1445 1441 1449 1434 1442 1443 1444 1441 1438 1445 1448 1431 1444 1441 1447 1449 1438 1450 1455 1449 1456 1446 1434 1448 1443 1447 1441 1461 1453 1448 1444 1444 1448 1445 1442 1451 1449 1449 1454 1450 1443 1463 1451 1453 1463 1456 1439 1445 1436 1439 1462 1440 1449 1431 1447 1461 1436 1459 1454 1448 1443 1457 1444 1460 1450 1448 1452 1444 1459 1451 1445 1434 1455 1446 1439 1451 1445 1457 1444 1448 1452 1453 1445 1448 1465 1442 1456 1443 1438 1444 1455 1448 1451 1448 1444 1457 1441 1451 1446 1432 1444 1448 1441 1441 1451 1452 1453 1457 1459 1454 1452 1442 1441 1458 1434 1446 1444 1434 1446 1448 1463 1443 1456 1462 1461 1445 1447 1448 1448 1443 1432 1450 1430 1450 1447 1430 1454 1452 1451 1453 1448 1455 1455 1455 1457 1447 1456 1450 1441 1447 1453 1455 1453 1448 1430 1441 1471 1458 1444 1441 1453

Tree=0
num_leaves=15
num_cat=0
split_feature=7 0 0 1 1 1 3 3 7 7 3 1 1 1
split_gain=606165 117769 73982 17920.6 8907.38 7914.52 6678.2 5514.32 2491.56 943.316 922.034 228.913 54.1091 15.3692
threshold=0.6000000000000002 1.0000000180025095e-35 1.0000000180025095e-35 19889280.000000004 22313360.000000004 19889280.000000004 1.5000000000000002 1.5000000000000002 0.77000000000000013 0.77000000000000013 1.5000000000000002 38282991.000000007 23186879.500000004 22731545.000000004
decision_type=2 2 2 2 2 2 2 2 2 2 2 2 2 2
left_child=2 9 3 10 6 -3 -4 -5 13 11 -1 -2 -9 -7
right_child=1 5 4 7 -6 8 -8 12 -10 -11 -12 -13 -14 -15
leaf_value=80.354333254496254 81.629333326021822 82.654333337942759 82.054333349863683 81.254333349863685 83.200487191432558 83.509333349267635 82.454333326021825 81.57251515937574 83.704333349863688 82.054333349863683 80.75433325449626 81.85433334986368 81.654333349863691 83.554333349863683
leaf_weight=25 20 20 217 133 26 20 201 22 862 63 34 26 248 370
leaf_count=25 20 20 217 133 26 20 201 22 862 63 34 26 248 370
internal_value=82.8467 83.506 81.8416 81.3987 82.3025 83.6411 82.2467 81.5179 83.6569 81.9286 80.5848 81.7565 81.6477 83.552
internal_weight=0 1381 906 462 444 1272 418 403 1252 109 59 46 270 390
internal_count=2287 1381 906 462 444 1272 418 403 1252 109 59 46 270 390
is_linear=0
shrinkage=1


Tree=1
num_leaves=15
num_cat=0
split_feature=7 0 0 1 1 1 3 3 7 7 3 5 1 4
split_gain=543110 102938 66628.4 16293.9 8186.08 7126.26 5862.5 4893.81 2272.89 862.013 832.135 208.112 54.7175 14.7549
threshold=0.6000000000000002 1.0000000180025095e-35 1.0000000180025095e-35 19889280.000000004 22313360.000000004 19889280.000000004 1.5000000000000002 1.5000000000000002 0.77000000000000013 0.77000000000000013 1.5000000000000002 0.090909090293182296 23186879.500000004 8623305.4166666698
decision_type=2 2 2 2 2 2 2 2 2 2 2 2 2 2
left_child=2 9 3 10 6 -3 -4 -5 13 11 -1 -2 -9 -7
right_child=1 5 4 7 -6 8 -8 12 -10 -11 -12 -13 -14 -15
leaf_value=-2.3677165985107425 -1.1609666824340821 -0.18271666765213013 -0.75271668434143069 -1.5127166748046876 0.35151410469642053 0.62829581856727601 -0.37271666526794434 -1.218625764846802 0.81478328704833991 -0.75271668434143069 -1.9877166748046875 -0.93811441334811141 -1.1327166557312012 0.67236049257041919
leaf_weight=25 20 20 204 129 26 20 202 20 851 64 34 22 253 379
leaf_count=25 20 20 204 129 26 20 202 20 851 64 34 22 253 379
internal_value=0 0.628696 -0.954725 -1.37281 -0.508573 0.753635 -0.563653 -1.25893 0.768617 -0.868224 -2.14873 -1.04423 -1.13901 0.670152
internal_weight=0 1376 893 461 432 1270 406 402 1250 106 59 42 273 399
internal_count=2269 1376 893 461 432 1270 406 402 1250 106 59 42 273 399
is_linear=0
shrinkage=0.05


Tree=2
num_leaves=15
num_cat=0
split_feature=7 0 0 1 1 1 3 3 7 5 3 7 1 1
split_gain=496670 99318.9 62339 15870.3 7284.19 6036.79 5419.35 4597.28 1929.1 895.832 804.627 243.063 41.1753 0.0635835
threshold=0.6000000000000002 1.0000000180025095e-35 1.0000000180025095e-35 19889280.000000004 22313360.000000004 20256855.000000004 1.5000000000000002 1.5000000000000002 0.77000000000000013 0.090909085548035756 1.5000000000000002 0.77000000000000013 23186879.500000004 23694487.500000004
decision_type=2 2 2 2 2 2 2 2 2 2 2 2 2 2
left_child=2 9 3 10 6 -3 -4 -5 13 -2 -1 -11 -9 -7
right_child=1 5 4 7 -6 8 -8 12 -10 11 -12 -13 -14 -15
leaf_value=-2.2493309020996093 -1.139438991546631 -0.103322125564922 -0.71508083343505868 -1.4370808601379395 0.30943698220782812 0.64136066039403283 -0.35408084392547612 -1.145955342831819 0.77404417991638186 -0.89000682173104129 -1.8883308410644533 -0.71508083343505868 -1.0760807991027832 0.63870222022413548
leaf_weight=29 20 22 212 136 27 24 204 23 854 29 33 63 253 358
leaf_count=29 20 22 212 136 27 24 204 23 854 29 33 63 253 358
internal_value=0 0.590627 -0.912834 -1.31138 -0.486399 0.717654 -0.538052 -1.19915 0.732267 -0.836152 -2.05719 -0.770221 -1.0819 0.638869
internal_weight=0 1370 917 474 443 1258 416 412 1236 112 62 92 276 382
internal_count=2287 1370 917 474 443 1258 416 412 1236 112 62 92 276 382
is_linear=0
shrinkage=0.05


Tree=3
num_leaves=15
num_cat=0
split_feature=7 0 0 1 1 3 1 3 7 3 7 4 1 4
split_gain=453392 82518.5 56491.9 13932.1 6821.58 4938.02 4934.02 4167.27 1790.91 712.63 683.672 196.093 45.3958 0.066656
threshold=0.6000000000000002 1.0000000180025095e-35 1.0000000180025095e-35 19889280.000000004 22313360.000000004 1.5000000000000002 20256855.000000004 1.5000000000000002 0.77000000000000013 1.5000000000000002 0.77000000000000013 15869579.500000002 22731545.000000004 8623305.4166666698
decision_type=2 2 2 2 2 2 2 2 2 2 2 2 2 2
left_child=2 10 3 9 5 -4 -3 -5 13 -1 11 -2 -9 -8
right_child=1 6 4 7 -6 -7 8 12 -10 -11 -12 -13 -14 -15
leaf_value=-2.1368642807006837 -1.0550074338912965 -0.061033316092057671 -0.67932677268981934 -1.3652267456054688 0.30877992312113445 -0.33637678623199463 0.60974703788757323 -1.1003966808319092 0.73534197807312018 -1.7939142227172853 -0.67896714776249256 -0.84302137692769374 -1.022135353088379 0.60678533413164848
leaf_weight=28 20 22 214 138 27 206 20 20 850 33 59 24 252 379
leaf_count=28 20 22 214 138 27 206 20 20 850 33 59 24 252 379
internal_value=0 0.570941 -0.864217 -1.24632 -0.461594 -0.511118 0.681247 -1.14143 0.694321 -1.95133 -0.790211 -0.939379 -1.02789 0.606934
internal_weight=0 1374 918 471 447 420 1271 410 1249 61 103 44 272 399
internal_count=2292 1374 918 471 447 420 1271 410 1249 61 103 44 272 399
is_linear=0
shrinkage=0.05


Tree=4
num_leaves=15
num_cat=0
split_feature=7 0 0 1 1 1 3 3 7 5 3 7 4 1
split_gain=402985 78633.2 49018.7 12321.1 5369.85 5298.42 4489.8 3687.86 1645.66 753.572 427.211 180.964 9.14983 1.35269
threshold=0.6000000000000002 1.0000000180025095e-35 1.0000000180025095e-35 20256855.000000004 19889280.000000004 22313360.000000004 1.5000000000000002 1.5000000000000002 0.77000000000000013 0.090909085440847762 1.5000000000000002 0.77000000000000013 8913103.1666666698 23694487.500000004
decision_type=2 2 2 2 2 2 2 2 2 2 2 2 2 2
left_child=2 9 3 10 -3 6 -4 -5 12 -2 -1 -11 -6 -9
right_child=1 4 5 7 8 -7 -8 13 -10 11 -12 -13 -14 -15
leaf_value=-1.9757206740202726 -1.0343665122985841 -0.16536306142807009 -0.64536046981811523 -1.2969654083251954 0.54291132404690701 0.26548908185958864 -0.31955795288085942 -0.95824197855862703 0.69857487678527841 -0.79931900841849191 -1.7126161681281198 -0.64537844657897958 0.57684149238152238 -0.97117004394531259
leaf_weight=27 20 20 213 126 21 25 210 22 872 28 36 60 369 252
leaf_count=27 20 20 213 126 21 25 210 22 872 28 36 60 369 252
internal_value=0 0.538356 -0.81467 -1.17545 0.647508 -0.441812 -0.483615 -1.07308 0.660391 -0.757324 -1.82538 -0.69436 0.575014 -0.970132
internal_weight=0 1390 911 463 1282 448 423 400 1262 108 63 88 390 274
internal_count=2301 1390 911 463 1282 448 423 400 1262 108 63 88 390 274
is_linear=0
shrinkage=0.05


Tree=5
num_leaves=15
num_cat=0
split_feature=7 1 1 1 3 3 7 4 6 1 5 5 1 4
split_gain=362228 17770.2 10683.9 6759.32 3994.48 3115.31 2668.92 471.209 362.927 336.822 325.299 312.941 238.286 232.18
threshold=0.6000000000000002 18050385.000000004 19889280.000000004 20256855.000000004 1.5000000000000002 1.5000000000000002 0.77000000000000013 9241176.833333334 0.79500000000000015 35616319.500000007 0.090909086043517814 0.090909058798187101 7593591.5000000009 7602372.5000000009
decision_type=2 2 2 2 2 2 2 2 2 2 2 2 2 2
left_child=1 4 -2 -3 12 9 7 -4 10 -5 -9 -6 -1 -13
right_child=2 3 6 5 11 -7 -8 8 -10 -11 -12 13 -14 -15
leaf_value=-0.83278287251790373 -0.48040221002366812 -1.6592006723086041 0.25180601364857441 -1.0576096943250071 -0.55014397799968717 -0.84880777297260102 0.57233968732672513 0.18142921583993096 0.46597183911005663 -1.2146125675489508 0.40225968007688168 -0.34404181920565091 -0.68213799249558227 -0.46507221188461573
leaf_weight=30 27 36 37 65 32 278 922 21 300 72 81 130 210 57
leaf_count=30 27 36 37 65 32 278 922 21 300 72 81 130 210 57
internal_value=0 -0.779086 0.504487 -1.00199 -0.560069 -0.944977 0.524025 0.422554 0.43827 -1.14012 0.356795 -0.405658 -0.700969 -0.380933
internal_weight=0 910 1388 451 459 415 1361 439 402 137 102 219 240 187
internal_count=2298 910 1388 451 459 415 1361 439 402 137 102 219 240 187
is_linear=0
shrinkage=0.05


Tree=6
num_leaves=15
num_cat=0
split_feature=7 0 0 1 1 1 4 4 7 1 4 7 4 1
split_gain=328384 71072.7 41896.9 11562.6 5282.14 3756.42 2155.85 2137.51 1273.95 519.937 904.176 500.623 365.721 226.369
threshold=0.6000000000000002 1.0000000180025095e-35 1.0000000180025095e-35 19889280.000000004 22313360.000000004 20256855.000000004 26966068.000000004 9099627.1666666698 0.77000000000000013 9040469.5000000019 6042057.5000000009 0.77000000000000013 10504637.250000002 25144578.500000004
decision_type=2 2 2 2 2 2 2 2 2 2 2 2 2 2
left_child=2 11 3 12 7 -3 13 9 -7 10 -4 -2 -1 -5
right_child=1 5 4 6 -6 8 -8 -9 -10 -11 -12 -13 -14 -15
leaf_value=-1.6159853549230669 -0.85602674069611917 -0.043966758251190188 -0.28365585399123855 -0.99889559385911475 0.31514506220817567 0.52653650875332991 -1.1712251607109518 -0.57867438140188809 0.63502912521362309 -0.2854148616916255 -0.5757168301996195 -0.64047519243680517 -1.8715383802141465 -0.88501427569370039
leaf_weight=42 46 23 53 53 25 395 102 157 859 152 53 65 21 247
leaf_count=42 46 23 53 53 25 395 102 157 859 152 53 65 21 247
internal_value=0 0.483755 -0.740422 -1.07135 -0.390689 0.589241 -0.972649 -0.433209 0.600855 -0.344689 -0.429686 -0.729803 -1.70117 -0.905133
internal_weight=0 1388 905 465 440 1277 402 415 1254 258 106 111 63 300
internal_count=2293 1388 905 465 440 1277 402 415 1254 258 106 111 63 300
is_linear=0
shrinkage=0.05


Tree=7
num_leaves=15
num_cat=0
split_feature=7 7 1 1 3 3 7 4 1 1 5 1 6 5
split_gain=296580 14067.1 7869.15 5208.86 2893.19 2651.59 1978.63 433.267 309.282 252.508 231.178 202.734 249.308 188.807
threshold=0.6000000000000002 0.50000000000000011 19889280.000000004 20256855.000000004 1.5000000000000002 1.5000000000000002 0.77000000000000013 9099627.1666666698 29602309.000000004 35616319.500000007 0.090909058798187101 32057821.500000004 0.8650000000000001 0.090909092292638147
decision_type=2 2 2 2 2 2 2 2 2 2 2 2 2 2
left_child=1 3 -2 -1 -3 9 7 -4 -9 11 -6 12 -5 -10
right_child=2 4 6 5 10 -7 -8 8 13 -11 -12 -13 -14 -15
leaf_value=-1.4554362184122989 -0.40285332982356731 -0.62460473133967476 0.20476066350936889 -1.1252668914794923 -0.49593042582273483 -0.75720100001284951 0.51681782088408601 0.50353458116924954 0.35086213658908905 -1.0948553996555732 -0.35049531651053201 -0.82417213469743733 -0.90614383507657947 0.4250335884721656
leaf_weight=38 26 234 30 25 32 285 925 63 197 66 187 20 27 152
leaf_count=38 26 234 30 25 32 285 925 63 197 66 187 20 27 152
internal_value=0 -0.700241 0.458846 -0.894686 -0.502362 -0.844311 0.475236 0.388214 0.401572 -1.02421 -0.371746 -0.959458 -1.01149 0.383166
internal_weight=0 914 1393 461 453 423 1367 442 412 138 219 72 52 349
internal_count=2307 914 1393 461 453 423 1367 442 412 138 219 72 52 349
is_linear=0
shrinkage=0.05


Tree=8
num_leaves=15
num_cat=0
split_feature=7 0 0 1 1 1 3 3 7 3 7 4 1 5
split_gain=267411 63688.3 36889.9 9327.06 6078.15 3737.08 2997.33 2447.34 1072.18 520.823 408.169 134.619 16.0952 5.15565
threshold=0.6000000000000002 1.0000000180025095e-35 1.0000000180025095e-35 19889280.000000004 22313360.000000004 19889280.000000004 1.5000000000000002 1.5000000000000002 0.77000000000000013 1.5000000000000002 0.77000000000000013 13461447.000000002 23186879.500000004 0.090909099960946163
decision_type=2 2 2 2 2 2 2 2 2 2 2 2 2 2
left_child=2 10 3 9 6 -3 -4 -5 13 -1 11 -2 -9 -7
right_child=1 5 4 7 -6 8 -8 12 -10 -11 -12 -13 -14 -15
leaf_value=-1.7307930145263672 -0.92614878177642823 -0.11073379516601563 -0.51760348433539982 -1.0648530228193416 0.35254291613896688 0.48121546256442027 -0.25014192350743492 -0.84140223005543602 0.57743678092956541 -1.4301635349498076 -0.63432968338923679 -0.75050685207049062 -0.79772990338942584 0.46376188546419145
leaf_weight=25 20 22 210 129 30 357 209 23 881 34 67 24 255 48
leaf_count=25 20 22 210 129 30 357 209 23 881 34 67 24 255 48
internal_value=0 0.437847 -0.658399 -0.970032 -0.334967 0.535428 -0.384192 -0.884863 0.546482 -1.55755 -0.712029 -0.830344 -0.801343 0.479147
internal_weight=0 1419 915 466 449 1308 419 407 1286 59 111 44 278 405
internal_count=2334 1419 915 466 449 1308 419 407 1286 59 111 44 278 405
is_linear=0
shrinkage=0.05


Tree=9
num_leaves=15
num_cat=0
split_feature=0 1 1 3 3 7 7 3 7 8 1 7 1 5
split_gain=242780 96875.4 11437.9 3223.32 3017.38 1143.49 514.114 477.447 158.555 133.035 53.3544 46.5159 17.4666 4.96182
threshold=1.0000000180025095e-35 19889280.000000004 19889280.000000004 1.5000000000000002 1.5000000000000002 0.77000000000000013 0.77000000000000013 1.5000000000000002 0.6000000000000002 3.0000000000000004 17759482.500000004 0.6000000000000002 23186879.500000004 0.090909099960946163
decision_type=2 2 2 2 2 2 2 2 2 2 2 2 2 2
left_child=2 4 7 -4 -2 8 11 -1 -3 -6 -9 12 -5 -10
right_child=1 5 3 6 9 -7 -8 10 13 -11 -12 -13 -14 -15
leaf_value=-1.6488900797707693 -0.49166400386291803 0.32804086116644054 -1.0121052172646594 -0.8052584284827824 -0.23824227797985076 0.54856495857238774 -0.60263104579027971 -1.4374345302581788 0.45771762314964742 -0.10595297756649198 -1.3219416999816895 -0.70374033093452459 -0.75782500021159649 0.44069886986090218
leaf_weight=28 206 26 134 21 200 864 68 20 340 21 20 40 256 49
leaf_count=28 206 26 134 21 200 864 68 20 340 21 20 40 256 49
internal_value=0 0.298096 -0.880785 -0.800895 -0.353996 0.515799 -0.727382 -1.49054 0.447584 -0.225672 -1.37969 -0.754143 -0.761421 0.455574
internal_weight=0 1706 587 519 427 1279 385 68 415 221 40 317 277 389
internal_count=2293 1706 587 519 427 1279 385 68 415 221 40 317 277 389
is_linear=0
shrinkage=0.05


Tree=10
num_leaves=15
num_cat=0
split_feature=7 0 0 2 2 2 3 3 7 7 3 4 5 5
split_gain=216926 50482.6 29447.9 7853.62 4480.43 3045.55 2401.54 2040.61 848.311 318.02 265.768 113.175 4.5557 8.6504
threshold=0.6000000000000002 1.0000000180025095e-35 1.0000000180025095e-35 16.824003741506463 16.920695674718278 16.80569144025333 1.5000000000000002 1.5000000000000002 0.77000000000000013 0.77000000000000013 1.5000000000000002 14623216.16666667 0.090909099960946163 0.090909102460927302
decision_type=2 2 2 2 2 2 2 2 2 2 2 2 2 2
left_child=2 9 3 10 6 -3 -4 -5 12 11 -1 -2 -7 -14
right_child=1 5 4 7 -6 8 -8 -9 -10 -11 -12 -13 13 -15
leaf_value=-1.5114158483651969 -0.83590146303176882 -0.099899452924728405 -0.46727130917402415 -0.9621204238891603 0.31723841097619804 0.43452257512262193 -0.22612483978271483 -0.71819579592554561 0.52113671302795417 -0.57236225644095995 -1.3050398093003492 -0.67769592175116911 0.39292686104774477 0.43567055504897551
leaf_weight=26 20 22 208 125 27 343 205 273 866 61 39 26 20 29
leaf_count=26 20 22 208 125 27 343 205 273 866 61 39 26 20 29
internal_value=0 0.396098 -0.599677 -0.878026 -0.306779 0.483313 -0.347574 -0.794805 0.493512 -0.647217 -1.38759 -0.746481 0.432485 0.418224
internal_weight=0 1387 903 463 440 1280 413 398 1258 107 65 46 392 49
internal_count=2290 1387 903 463 440 1280 413 398 1258 107 65 46 392 49
is_linear=0
shrinkage=0.05


Tree=11
num_leaves=15
num_cat=0
split_feature=8 0 0 1 1 1 3 3 8 3 5 8 1 5
split_gain=195404 47916.6 26335.5 7547.29 4116.87 2746.27 2171.8 1881 767.624 403.419 392.011 76.6697 7.30229 3.57024
threshold=5.0000000000000009 1.0000000180025095e-35 1.0000000180025095e-35 19889280.000000004 22313360.000000004 19889280.000000004 1.5000000000000002 1.5000000000000002 10.000000000000002 1.5000000000000002 0.090909085604154963 10.000000000000002 23186879.500000004 0.090909099960946163
decision_type=2 2 2 2 2 2 2 2 2 2 2 2 2 2
left_child=2 10 3 9 6 -3 -4 -5 13 -1 -2 -12 -9 -7
right_child=1 5 4 7 -6 8 -8 12 -10 -11 11 -13 -14 -15
leaf_value=-1.490687486103603 -0.82028696537017831 -0.094904482364654541 -0.443735922574997 -0.91333665627699634 0.30122467787177476 0.41268287779967916 -0.21486702968879623 -0.65263474225997931 0.49507985115051273 -1.2344009427463307 -0.64332156839041876 -0.5450774669647217 -0.68403701916277182 0.39826234506101027
leaf_weight=28 20 22 220 130 27 346 196 20 861 34 29 63 249 49
leaf_count=28 20 22 220 130 27 346 196 20 861 34 29 63 249 49
internal_value=0 0.371998 -0.572371 -0.836921 -0.297072 0.458904 -0.335903 -0.757172 0.468604 -1.35014 -0.61966 -0.576046 -0.681702 0.410894
internal_weight=0 1390 904 461 443 1278 416 399 1256 62 112 92 269 395
internal_count=2294 1390 904 461 443 1278 416 399 1256 62 112 92 269 395
is_linear=0
shrinkage=0.05


Tree=12
num_leaves=15
num_cat=0
split_feature=7 0 0 2 2 2 3 3 7 5 3 7 2 5
split_gain=173870 42692 23649 6179.07 3662.31 2251.98 2004.24 1595.1 697.315 370.928 314.427 57.8739 15.6523 3.5349
threshold=0.6000000000000002 1.0000000180025095e-35 1.0000000180025095e-35 16.80569144025333 16.920695674718278 16.80569144025333 1.5000000000000002 1.5000000000000002 0.77000000000000013 0.090909085440847762 1.5000000000000002 0.77000000000000013 16.959097179164569 0.090909099960946163
decision_type=2 2 2 2 2 2 2 2 2 2 2 2 2 2
left_child=2 9 3 10 6 -3 -4 -5 13 -2 -1 -11 -9 -7
right_child=1 5 4 7 -6 8 -8 12 -10 11 -12 -13 -14 -15
leaf_value=-1.4112840270996094 -0.78132343530654913 -0.090159255266189578 -0.42169797486423904 -0.86735556274652481 0.29572759305055324 0.39199623853387972 -0.20395119954081414 -0.69575376749038709 0.47032585144042971 -0.60489772514060691 -1.1746252954006196 -0.5176085934042931 -0.64979246565070292 0.37726506046626884
leaf_weight=25 20 20 217 128 26 355 206 20 848 27 32 64 251 46
leaf_count=25 20 20 217 128 26 355 206 20 848 27 32 64 251 46
internal_value=0 0.353957 -0.537832 -0.791457 -0.280253 0.436206 -0.315656 -0.721891 0.444635 -0.586357 -1.27842 -0.543508 -0.653184 0.390306
internal_weight=0 1380 905 456 449 1269 423 399 1249 111 57 91 271 401
internal_count=2285 1380 905 456 449 1269 423 399 1249 111 57 91 271 401
is_linear=0
shrinkage=0.05


Tree=13
num_leaves=15
num_cat=0
split_feature=7 0 0 1 1 3 1 3 7 3 4 7 5 1
split_gain=161096 38387.3 22557.5 6210.67 3653.47 1815.9 1624.88 1487.72 613.068 353.302 347.972 47.4548 7.92411 5.64758
threshold=0.6000000000000002 1.0000000180025095e-35 1.0000000180025095e-35 19889280.000000004 22313360.000000004 1.5000000000000002 20256855.000000004 1.5000000000000002 0.77000000000000013 1.5000000000000002 11254713.250000002 0.77000000000000013 0.090909076873363623 24488339.500000004
decision_type=2 2 2 2 2 2 2 2 2 2 2 2 2 2
left_child=2 10 3 9 5 -4 -3 -5 -8 -1 -2 -12 -9 -14
right_child=1 6 4 7 -6 -7 8 12 -10 -11 11 -13 13 -15
leaf_value=-1.347563574049208 -0.74621258497238163 -0.020537544148308891 -0.40057513537230316 -0.82437751800056525 0.28128680576538218 -0.19434062604090616 0.37212364886066701 -0.64802178859710702 0.44680957794189458 -1.1110120296478272 -0.56829955824490253 -0.49060916900634766 -0.58983280658721926 -0.61750085041995795
leaf_weight=27 20 21 216 127 29 211 404 20 859 38 29 61 20 237
leaf_count=27 20 21 216 127 29 211 404 20 859 38 29 61 20 237
internal_value=0 0.338869 -0.51219 -0.755658 -0.261782 -0.298665 0.415667 -0.682675 0.42292 -1.20927 -0.557565 -0.515643 -0.617707 -0.615348
internal_weight=0 1394 925 469 456 427 1284 404 1263 65 110 90 277 257
internal_count=2319 1394 925 469 456 427 1284 404 1263 65 110 90 277 257
is_linear=0
shrinkage=0.05


Tree=14
num_leaves=15
num_cat=0
split_feature=7 7 1 1 3 3 7 1 6 5 4 1 4 6
split_gain=143732 6837.87 3565.5 2468.46 1612.9 1461.11 1066.39 123.141 156.889 116.479 113.399 216.652 103.902 102.497
threshold=0.6000000000000002 0.50000000000000011 20256855.000000004 20256855.000000004 1.5000000000000002 1.5000000000000002 0.77000000000000013 7593591.5000000009 0.92500000000000016 0.090909058798187101 7602372.5000000009 16532746.500000002 9099627.1666666698 0.93500000000000016
decision_type=2 2 2 2 2 2 2 2 2 2 2 2 2 2
left_child=1 3 -2 -1 -5 7 12 -3 -9 -7 13 -12 -4 -11
right_child=2 5 6 4 -6 9 -8 8 -10 10 11 -13 -14 -15
leaf_value=-1.0162858463622428 -0.23659586054938184 -0.53201397260030114 0.16897192001342776 -0.73134922916001655 -0.52258927345275885 -0.34507581889629368 0.36367816088901156 -0.40397972327012283 -0.52317038955110495 -0.19675827835677961 -0.41470473110675815 -0.21315516432126366 0.27404915533567731 -0.31507242321968082
leaf_weight=37 28 30 25 137 285 32 921 169 33 109 24 30 399 22
leaf_count=37 28 30 25 137 285 32 921 169 33 109 24 30 399 22
internal_value=0 -0.488988 0.321845 -0.624696 -0.590362 -0.350258 0.33347 -0.43749 -0.423451 -0.256996 -0.241761 -0.302733 0.267854 -0.216628
internal_weight=0 908 1373 459 422 449 1345 232 202 217 185 54 424 131
internal_count=2281 908 1373 459 422 449 1345 232 202 217 185 54 424 131
is_linear=0
shrinkage=0.05


Tree=15
num_leaves=15
num_cat=0
split_feature=0 1 1 3 3 7 3 7 8 4 1 4 1 5
split_gain=132727 53640.5 6502.48 1682.33 1639.31 562.681 236.786 118.587 78.7744 39.7216 12.0786 11.1149 22.1065 5.12819
threshold=1.0000000180025095e-35 19889280.000000004 19889280.000000004 1.5000000000000002 1.5000000000000002 0.77000000000000013 1.5000000000000002 0.77000000000000013 3.0000000000000004 33578649.625000007 23186879.500000004 24780771.750000004 51741597.500000007 0.090909080969322834
decision_type=2 2 2 2 2 2 2 2 2 2 2 2 2 2
left_child=2 3 6 -2 -4 9 -1 10 -5 11 -6 13 -13 -3
right_child=1 5 4 8 7 -7 -8 -9 -10 -11 -12 12 -14 -15
leaf_value=-1.243016763833853 -0.35860631377197977 0.36279553444154805 -0.74616592286238026 -0.17217206211373359 -0.52317095719850981 0.40628519058227541 -1.048218098664895 -0.48260992107106682 -0.070423175607408794 0.26734327942132952 -0.55874015260807841 0.27860986377511704 0.33876479608672011 0.34145079346953849
leaf_weight=26 215 31 134 202 26 843 39 67 21 20 291 21 56 305
leaf_count=26 215 31 134 202 26 843 39 67 21 20 291 21 56 305
internal_value=0 0.21861 -0.654744 -0.258808 -0.595593 0.382489 -1.12614 -0.543049 -0.16259 0.336161 -0.555823 0.339493 0.322359 0.34342
internal_weight=0 1714 583 438 518 1276 65 384 223 433 317 413 77 336
internal_count=2297 1714 583 438 518 1276 65 384 223 433 317 413 77 336
is_linear=0
shrinkage=0.05


Tree=16
num_leaves=15
num_cat=0
split_feature=0 1 1 3 3 7 3 7 8 1 4 1 1 5
split_gain=118659 48902.6 6157.38 1551.11 1298.16 494.117 215.267 116.733 73.8069 57.7491 30.0285 122.615 8.32728 4.69551
threshold=1.0000000180025095e-35 19889280.000000004 19889280.000000004 1.5000000000000002 1.5000000000000002 0.77000000000000013 1.5000000000000002 0.77000000000000013 3.0000000000000004 17600244.000000004 24104169.500000004 50446106.000000007 22313360.000000004 0.090909058798187101
decision_type=2 2 2 2 2 2 2 2 2 2 2 2 2 2
left_child=2 3 6 -2 -4 10 -1 12 13 -8 -3 -12 -6 -5
right_child=1 5 4 8 7 -7 9 -9 -10 -11 11 -13 -14 -15
leaf_value=-1.1833106464809842 -0.3413605660337457 0.3266509934834072 -0.70751500749975693 -0.14479922508371287 -0.56329745678674603 0.38597092628479007 -1.0622973346710205 -0.45828980226365346 -0.067009812187064782 -0.94358114515032099 0.1879786057131631 0.32507780904639261 -0.53069932379134721 -0.16653053685166372
leaf_weight=27 217 315 123 29 21 863 20 63 22 21 21 73 292 174
leaf_count=27 217 315 123 29 21 863 20 63 22 21 21 73 292 174
internal_value=0 0.207084 -0.627338 -0.245984 -0.566513 0.364517 -1.07368 -0.520388 -0.153999 -1.00149 0.31925 0.294449 -0.532886 -0.163426
internal_weight=0 1714 567 442 499 1272 68 376 225 41 409 94 313 203
internal_count=2281 1714 567 442 499 1272 68 376 225 41 409 94 313 203
is_linear=0
shrinkage=0.05


Tree=17
num_leaves=15
num_cat=0
split_feature=0 1 1 3 3 7 3 7 7 8 4 5 5 1
split_gain=108227 44574.6 5527.44 1394.77 1258.91 450.711 205.312 115.266 98.9386 63.676 34.9745 9.37243 19.3972 10.248
threshold=1.0000000180025095e-35 19889280.000000004 19889280.000000004 1.5000000000000002 1.5000000000000002 0.77000000000000013 1.5000000000000002 0.50000000000000011 0.77000000000000013 3.0000000000000004 33362189.33333334 0.090909099960946163 0.090909102160350461 23694487.500000004
decision_type=2 2 2 2 2 2 2 2 2 2 2 2 2 2
left_child=2 3 6 -2 -4 10 -1 -8 -6 -5 11 13 -13 -3
right_child=1 5 4 9 8 -7 7 -9 -10 -11 -12 12 -14 -15
leaf_value=-1.1174455608640399 -0.32381686122567804 0.34365870044344948 -0.67353865765035159 -0.15507431828975679 -0.50352795270654382 0.3666723728179932 -0.85577853679656979 -1.0216300054029985 -0.43522523827850823 -0.06355152882280804 0.23909813344478606 0.24841589704155922 0.3111857295036316 0.30762933328202591
leaf_weight=28 222 21 128 200 309 868 20 22 64 21 20 20 32 328
leaf_count=28 222 21 128 200 309 868 20 22 64 21 20 20 32 328
internal_value=0 0.19738 -0.596388 -0.235297 -0.538239 0.346082 -1.01257 -0.942653 -0.491808 -0.146378 0.303628 0.306847 0.287043 0.309797
internal_weight=0 1732 571 443 501 1289 70 42 373 221 421 401 52 349
internal_count=2303 1732 571 443 501 1289 70 42 373 221 421 401 52 349
is_linear=0
shrinkage=0.05


Tree=18
num_leaves=15
num_cat=0
split_feature=0 1 1 3 3 7 3 7 8 4 4 1 1 5
split_gain=96928.7 40014.1 4887.48 1260.8 1110.74 411.536 202.116 93.5214 60.0454 30.9931 9.30285 19.6437 8.79438 4.25684
threshold=1.0000000180025095e-35 19889280.000000004 19889280.000000004 1.5000000000000002 1.5000000000000002 0.77000000000000013 1.5000000000000002 0.77000000000000013 3.0000000000000004 32178820.500000004 24104169.500000004 50838702.000000007 22313360.000000004 0.090909099960946163
decision_type=2 2 2 2 2 2 2 2 2 2 2 2 2 2
left_child=2 3 6 -2 -4 9 -1 12 -5 10 13 -12 -6 -3
right_child=1 5 4 8 7 -7 -8 -9 -10 -11 11 -13 -14 -15
leaf_value=-1.0700039863586426 -0.30761080010370778 0.29781978563828904 -0.63979821577668194 -0.14748849975529002 -0.5126321816444398 0.34833877086639409 -0.89392943993592877 -0.41455539079812853 -0.060481744665991183 0.23911558603247007 0.23485625173364366 0.29265556384106073 -0.47834073600038007 0.28168259064356488
leaf_weight=28 220 275 128 201 20 860 39 65 22 30 21 49 287 48
leaf_count=28 220 275 128 201 20 860 39 65 22 30 21 49 287 48
internal_value=0 0.187015 -0.56649 -0.222687 -0.512753 0.328479 -0.967513 -0.469039 -0.138905 0.288101 0.29184 0.275316 -0.480575 0.295422
internal_weight=0 1726 567 443 500 1283 67 372 223 423 393 70 307 323
internal_count=2293 1726 567 443 500 1283 67 372 223 423 393 70 307 323
is_linear=0
shrinkage=0.05


Tree=19
num_leaves=15
num_cat=0
split_feature=0 1 1 3 3 7 7 7 9 7 5 1 5 6
split_gain=89064 34846.7 4350.02 1094.16 1056.1 385.174 173.241 78.391 49.9908 42.8557 5.0774 9.87818 3.73588 2.83088
threshold=1.0000000180025095e-35 19889280.000000004 19889280.000000004 1.5000000000000002 1.5000000000000002 0.77000000000000013 0.50000000000000011 0.77000000000000013 1.0000000180025095e-35 0.6000000000000002 0.090909076873363623 23186879.500000004 0.090909058798187101 0.75500000000000012
decision_type=2 2 2 2 2 2 2 2 2 2 2 2 2 2
left_child=2 3 6 -2 -4 9 -1 10 12 -3 -6 -12 -5 -11
right_child=1 5 4 8 7 -7 -8 -9 -10 13 11 -13 -14 -15
leaf_value=-0.82028470569186751 -0.29279443268637056 0.21036234482263147 -0.60722717455963593 -0.12243567705154419 -0.47748614766381003 0.33092181682586674 -0.98504541592720229 -0.39402423308445855 -0.057231295704841617 0.2648295540279812 -0.41866020798683173 -0.45505941244807557 -0.14274797514506751 0.27815214552198142
leaf_weight=27 206 26 134 26 22 859 39 65 20 45 20 274 175 350
leaf_count=27 206 26 134 26 22 859 39 65 20 45 20 274 175 350
internal_value=0 0.18124 -0.535471 -0.209893 -0.486494 0.31172 -0.917643 -0.444031 -0.132619 0.272542 -0.454317 -0.452583 -0.140121 0.276634
internal_weight=0 1707 581 427 515 1280 66 381 221 421 316 294 201 395
internal_count=2288 1707 581 427 515 1280 66 381 221 421 316 294 201 395
is_linear=0
shrinkage=0.05


Tree=20
num_leaves=15
num_cat=0
split_feature=0 1 1 3 3 7 1 7 8 7 1 1 1 5
split_gain=80808.3 32193.3 3894.87 1009.97 991.797 316.111 154.202 71.6628 46.8892 17.4952 6.73653 6.22195 4.37126 3.44812
threshold=1.0000000180025095e-35 19889280.000000004 20256855.000000004 1.5000000000000002 1.5000000000000002 0.77000000000000013 17759482.500000004 0.77000000000000013 3.0000000000000004 0.6000000000000002 23186879.500000004 23694487.500000004 35616319.500000007 0.090909058798187101
decision_type=2 2 2 2 2 2 2 2 2 2 2 2 2 2
left_child=2 3 6 -2 12 9 -1 10 13 -3 -6 -11 -4 -5
right_child=1 5 4 8 7 -7 -8 -9 -10 11 -12 -13 -14 -15
leaf_value=-0.93722809878262603 -0.2775373203094017 0.22380707088325705 -0.58880145549774177 -0.11630900038613215 -0.4049178381760915 0.31437573432922367 -0.78856408982663551 -0.37313581271605062 -0.054488302731797812 0.28658113956451414 -0.43246788913700862 0.26292428755886343 -0.57059540748596194 -0.13549160775491748
leaf_weight=33 213 28 64 27 24 853 37 66 21 30 294 378 68 177
leaf_count=33 213 28 64 27 24 853 37 66 21 30 294 378 68 177
internal_value=0 0.170834 -0.508668 -0.199502 -0.461191 0.296673 -0.858649 -0.420548 -0.125629 0.26204 -0.430389 0.264664 -0.579423 -0.132953
internal_weight=0 1727 586 438 516 1289 70 384 225 436 318 408 132 204
internal_count=2313 1727 586 438 516 1289 70 384 225 436 318 408 132 204
is_linear=0
shrinkage=0.05


Tree=21
num_leaves=15
num_cat=0
split_feature=0 1 1 3 3 8 3 8 1 8 4 1 4 1
split_gain=73982.7 28738.6 3815.49 925.152 833.402 306.201 171.823 73.3061 72.9583 45.8654 29.756 7.24526 6.95865 7.89913
threshold=1.0000000180025095e-35 19889280.000000004 19889280.000000004 1.5000000000000002 1.5000000000000002 10.000000000000002 1.5000000000000002 10.000000000000002 17759482.500000004 3.0000000000000004 32178820.500000004 22313360.000000004 25719477.750000004 57525811.500000007
decision_type=2 2 2 2 2 2 2 2 2 2 2 2 2 2
left_child=2 3 6 -2 -4 10 -1 11 -8 -5 12 -6 -3 -14
right_child=1 5 4 9 7 -7 8 -9 -10 -11 -12 -13 13 -15
leaf_value=-0.92282587460109178 -0.26439110852669984 0.25296537182846313 -0.54783775300690629 -0.12636092861303302 -0.44139693498611454 0.29865694046020508 -0.82733536181242584 -0.35471792434578514 -0.69997381947257309 -0.051970100435225867 0.19716479755006733 -0.41030931664793285 0.20970014716897692 0.24941663280610116
leaf_weight=28 207 354 132 209 20 848 23 67 22 23 28 298 21 31
leaf_count=28 207 354 132 209 20 848 23 67 22 23 28 298 21 31
internal_value=0 0.161611 -0.4872 -0.187548 -0.439421 0.281176 -0.825579 -0.40225 -0.76507 -0.118986 0.247018 -0.412265 0.250457 0.233377
internal_weight=0 1721 590 439 517 1282 73 385 45 232 434 318 406 52
internal_count=2311 1721 590 439 517 1282 73 385 45 232 434 318 406 52
is_linear=0
shrinkage=0.05


Tree=22
num_leaves=15
num_cat=0
split_feature=7 7 1 1 3 3 7 4 1 5 6 4 6 4
split_gain=62153.9 2902.19 2258.96 1197.07 747.962 739.925 417.849 57.8688 56.2659 67.4349 51.3126 47.3686 41.9093 52.5087
threshold=0.6000000000000002 0.50000000000000011 19889280.000000004 20256855.000000004 1.5000000000000002 1.5000000000000002 0.77000000000000013 9241176.833333334 7593591.5000000009 0.090909096786967888 0.95500000000000007 14770763.666666668 0.91500000000000015 19784531.750000004
decision_type=2 2 2 2 2 2 2 2 2 2 2 2 2 2
left_child=1 3 -2 -1 -5 8 7 -4 -3 -10 12 -11 13 -6
right_child=2 5 6 4 10 -7 -8 -9 9 11 -12 -13 -14 -15
leaf_value=-0.68141614627093083 -0.24080969867882906 -0.36111520017896381 0.12263881854521924 -0.48314410357371629 -0.3494764492946601 -0.16519909995906759 0.24028486942045016 0.18647356647433658 -0.25853197044796417 -0.29333136659679993 -0.28200374805566036 -0.37094323124204365 -0.38873435515983434 -0.27927782535552981
leaf_weight=38 27 28 39 138 159 212 914 396 108 66 33 28 51 32
leaf_count=38 27 28 39 138 159 212 914 396 108 66 33 28 51 32
internal_value=0 -0.323633 0.212024 -0.412867 -0.388158 -0.232582 0.221087 0.18075 -0.294691 -0.285484 -0.340492 -0.31645 -0.348467 -0.337715
internal_weight=0 893 1376 451 413 442 1349 435 230 202 275 94 242 191
internal_count=2269 893 1376 451 413 442 1349 435 230 202 275 94 242 191
is_linear=0
shrinkage=0.05


Tree=23
num_leaves=15
num_cat=0
split_feature=7 7 1 1 3 3 7 4 4 5 1 6 5 5
split_gain=57681.6 2580.01 1710.39 874.823 698.804 594.31 272.68 49.4175 61.2681 111.709 103.801 42.8915 125.686 44.6516
threshold=0.6000000000000002 0.50000000000000011 20256855.000000004 20705354.000000004 1.5000000000000002 1.5000000000000002 0.77000000000000013 8350922.5000000009 18537828.500000004 0.09090908887555435 46868929.000000007 0.76500000000000012 0.090909092870410171 0.090909088826011605
decision_type=2 2 2 2 2 2 2 2 2 2 2 2 2 2
left_child=1 3 -2 -1 -5 -3 11 -6 -9 -10 -11 12 -4 -13
right_child=2 5 6 4 7 -7 -8 8 9 10 -12 13 -14 -15
leaf_value=-0.62593859667713581 -0.20701587677001954 -0.28007474399748306 0.088064608687446241 -0.46548586544329229 -0.25255721926689151 -0.16470357949535053 0.22556554276881546 -0.34817419052124027 -0.37595656101520247 -0.16110699892044067 -0.31533983846505487 0.20515581433837482 0.23149962822596232 0.16940209473802451
leaf_weight=37 25 231 42 137 20 216 928 199 26 20 24 148 24 213
leaf_count=37 25 231 42 137 20 216 928 199 26 20 24 148 24 213
internal_value=0 -0.310008 0.20279 -0.392731 -0.372475 -0.224325 0.210351 -0.328384 -0.334022 -0.293788 -0.245234 0.177284 0.140223 0.18406
internal_weight=0 910 1380 463 426 447 1355 289 269 70 44 427 66 361
internal_count=2290 910 1380 463 426 447 1355 289 269 70 44 427 66 361
is_linear=0
shrinkage=0.05


Tree=24
num_leaves=15
num_cat=0
split_feature=0 1 1 3 3 7 7 9 4 1 4 1 7 7
split_gain=56688.1 21623.2 3008.79 711.172 474.546 182.75 181.619 49.8847 17.7131 48.477 11.0081 6.82981 6.57098 9.80865
threshold=1.0000000180025095e-35 20256855.000000004 19889280.000000004 1.5000000000000002 1.5000000000000002 0.50000000000000011 0.77000000000000013 1.0000000180025095e-35 25719477.750000004 55427440.000000007 9099627.1666666698 25144578.500000004 0.6000000000000002 0.77000000000000013
decision_type=2 2 2 2 2 2 2 2 2 2 2 2 2 2
left_child=2 3 5 -2 -4 -1 8 -5 10 -10 -3 -12 -6 -14
right_child=1 6 4 7 12 -7 -8 -9 9 -11 11 -13 13 -15
leaf_value=-0.65563684331959693 -0.22175215867078193 0.25581170452965635 -0.47288958806257986 -0.10353046443790058 -0.35788007506617792 -0.82327421549204238 0.26043157577514647 -0.027455682183305425 0.1337874677209627 0.2224475042573337 0.19630638471116191 0.2246309455235799 -0.39132837568010603 -0.36003367131756203
leaf_weight=29 214 27 130 211 270 37 867 24 21 58 23 285 42 62
leaf_count=29 214 27 130 211 270 37 867 24 21 58 23 285 42 62
internal_value=0 0.142768 -0.432168 -0.15581 -0.390598 -0.749615 0.247422 -0.0957611 0.220177 0.19888 0.225199 0.222516 -0.361993 -0.372672
internal_weight=0 1730 570 449 504 66 1281 235 414 79 335 308 374 104
internal_count=2300 1730 570 449 504 66 1281 235 414 79 335 308 374 104
is_linear=0
shrinkage=0.05


Tree=25
num_leaves=15
num_cat=0
split_feature=0 1 1 3 3 7 7 4 7 1 1 7 7 1
split_gain=51296.2 19406 2698.99 614.623 416.44 170.639 159.982 17.376 40.3086 17.2286 4.9633 5.40973 9.47927 3.29629
threshold=1.0000000180025095e-35 19889280.000000004 19889280.000000004 1.5000000000000002 1.5000000000000002 0.50000000000000011 0.77000000000000013 32178820.500000004 0.6000000000000002 17600244.000000004 22313360.000000004 0.6000000000000002 0.77000000000000013 15329617.500000002
decision_type=2 2 2 2 2 2 2 2 2 2 2 2 2 2
left_child=2 3 5 -2 -4 -1 7 8 -3 13 -6 -12 -13 -5
right_child=1 6 4 9 10 -7 -8 -9 -10 -11 11 12 -14 -15
leaf_value=-0.61730109282902312 -0.21074685405601157 0.27516131134082877 -0.45019627723693856 -0.09997249590296324 -0.36865178431783407 -0.77997198104858401 0.24741001129150392 0.17016357822486988 0.20830003607947872 -0.047547143995761876 -0.33989646016186437 -0.37500193960526412 -0.34233254678547387 -0.084760849780224745
leaf_weight=28 220 24 125 147 21 38 855 26 371 20 262 34 64 47
leaf_count=28 220 24 125 147 21 38 855 26 371 20 262 34 64 47
internal_value=0 0.136753 -0.41023 -0.152062 -0.371005 -0.71096 0.234987 0.209756 0.212362 -0.0917321 -0.345023 -0.343645 -0.353667 -0.0962872
internal_weight=0 1710 572 434 506 66 1276 421 395 214 381 360 98 194
internal_count=2282 1710 572 434 506 66 1276 421 395 214 381 360 98 194
is_linear=0
shrinkage=0.05


Tree=26
num_leaves=15
num_cat=0
split_feature=0 1 1 3 3 7 7 4 1 4 1 4 7 7
split_gain=45910.5 17470.2 2282.75 550.077 392.738 140.586 137.947 20.8939 13.6093 13.3166 47.4126 10.8415 5.55198 11.5618
threshold=1.0000000180025095e-35 19889280.000000004 19889280.000000004 1.5000000000000002 1.5000000000000002 0.50000000000000011 0.77000000000000013 8913103.1666666698 17525148.000000004 25719477.750000004 55427440.000000007 8101829.666666667 0.6000000000000002 0.77000000000000013
decision_type=2 2 2 2 2 2 2 2 2 2 2 2 2 2
left_child=2 3 5 -2 -4 -1 7 -3 -5 -9 -11 -6 -13 -14
right_child=1 6 4 8 11 -7 -8 9 -10 10 -12 12 13 -15
leaf_value=-0.58856841496058876 -0.19998706184187026 0.24437280368804931 -0.42694008169752184 -0.092190703290018883 -0.29250687414949594 -0.73888175146920343 0.23503949642181399 0.20181149454107361 -0.053072951316833497 0.11235074853524565 0.20162683540377124 -0.32462632820191173 -0.36129822995927602 -0.32616539499652925
leaf_weight=28 212 25 132 201 22 35 864 315 25 20 58 247 36 67
leaf_count=28 212 25 132 201 22 35 864 315 25 20 58 247 36 67
internal_value=0 0.130489 -0.388315 -0.142133 -0.352845 -0.672076 0.223631 0.200051 -0.0878635 0.197232 0.178736 -0.326553 -0.328693 -0.338445
internal_weight=0 1720 567 438 504 63 1282 418 226 393 78 372 350 103
internal_count=2287 1720 567 438 504 63 1282 418 226 393 78 372 350 103
is_linear=0
shrinkage=0.05


Tree=27
num_leaves=15
num_cat=0
split_feature=0 1 1 3 3 7 7 8 5 1 1 3 5 5
split_gain=41982 15590.2 2198.28 502.871 338.22 158.726 135.349 37.8636 8.26498 13.994 8.0002 9.72748 8.43853 7.07194
threshold=1.0000000180025095e-35 19889280.000000004 19889280.000000004 1.5000000000000002 1.5000000000000002 0.50000000000000011 0.77000000000000013 3.0000000000000004 0.090909099960946163 23186879.500000004 36359574.500000007 2.5000000000000004 0.090909085604154963 0.090909102460927302
decision_type=2 2 2 2 2 2 2 2 2 2 2 2 2 2
left_child=2 3 5 -2 -4 -1 8 -5 9 -3 11 12 -11 -10
right_child=1 6 4 7 -6 -7 -8 -9 13 10 -12 -13 -14 -15
leaf_value=-0.55474609342114689 -0.19001540254819002 0.23071564776556835 -0.40515191718822224 -0.089145736630056427 -0.31208046428839786 -0.71097687772802409 0.22328753471374513 -0.017055739611387254 0.14825258944183589 0.18003506630659105 0.19300626414899644 0.19443419624019315 0.13757593818008901 0.18557494687537354
leaf_weight=29 213 21 131 204 383 37 839 20 22 25 260 37 22 30
leaf_count=29 213 21 131 204 383 37 839 20 22 25 260 37 22 30
internal_value=0 0.122218 -0.370682 -0.135012 -0.335801 -0.64233 0.211716 -0.0827091 0.188434 0.191091 0.188672 0.175257 0.160161 0.169785
internal_weight=0 1693 580 437 514 66 1256 224 417 365 344 84 47 52
internal_count=2273 1693 580 437 514 66 1256 224 417 365 344 84 47 52
is_linear=0
shrinkage=0.05


Tree=28
num_leaves=15
num_cat=0
split_feature=0 1 1 3 3 3 7 8 4 6 6 1 7 7
split_gain=37085.7 14353.8 1890.07 460.182 289.987 138.048 117.67 35.7162 8.42519 4.93284 21.4018 6.64166 6.24029 8.87868
threshold=1.0000000180025095e-35 19889280.000000004 19889280.000000004 1.5000000000000002 1.5000000000000002 1.5000000000000002 0.77000000000000013 3.0000000000000004 32178820.500000004 0.74500000000000011 0.76500000000000012 24248294.500000004 0.6000000000000002 0.77000000000000013
decision_type=2 2 2 2 2 2 2 2 2 2 2 2 2 2
left_child=2 3 5 -2 -4 -1 8 -5 -3 -6 -11 -12 -13 -14
right_child=1 6 4 7 9 -7 -8 -9 -10 10 11 12 13 -15
leaf_value=-0.69470307738692672 -0.18044828892581993 0.18172855456288045 -0.38513083826235639 -0.084908268445931773 -0.27785723796114326 -0.54514084657033279 0.21212315559387207 -0.016473715929757982 0.15333388644669738 -0.33543015071323939 -0.26702274367922829 -0.29151318538479692 -0.32948906183242799 -0.29520903849134256
leaf_weight=27 216 390 123 207 32 36 867 21 28 35 21 205 30 51
leaf_count=27 216 390 123 207 32 36 867 21 28 35 21 205 30 51
internal_value=0 0.116934 -0.351237 -0.12815 -0.318532 -0.609239 0.201617 -0.0786051 0.179827 -0.29663 -0.298386 -0.294163 -0.296156 -0.307905
internal_weight=0 1729 560 444 497 63 1285 228 418 374 342 307 286 81
internal_count=2289 1729 560 444 497 63 1285 228 418 374 342 307 286 81
is_linear=0
shrinkage=0.05


Tree=29
num_leaves=15
num_cat=0
split_feature=0 1 1 3 3 7 7 8 4 1 1 7 7 6
split_gain=34462.4 12810.3 1873.28 416.857 272.709 127.685 118.262 32.8324 11.4234 41.9146 4.75098 4.55617 7.6555 2.41083
threshold=1.0000000180025095e-35 19889280.000000004 19889280.000000004 1.5000000000000002 1.5000000000000002 0.50000000000000011 0.77000000000000013 3.0000000000000004 25719477.750000004 54475664.000000007 22313360.000000004 0.6000000000000002 0.77000000000000013 0.95500000000000007
decision_type=2 2 2 2 2 2 2 2 2 2 2 2 2 2
left_child=2 3 5 -2 -4 -1 8 -5 13 -10 -6 -12 -13 -3
right_child=1 6 4 7 10 -7 -8 -9 9 -11 11 12 -14 -15
leaf_value=-0.50522685358601238 -0.17144798527623334 0.17197062341939837 -0.36545576346937075 -0.08037595707794716 -0.30428252333686467 -0.64196578577945118 0.20151698589324951 -0.016069659184325825 0.08963073889724911 0.17304022155824256 -0.27627067004933076 -0.30690724720826024 -0.27816785035594815 0.18637478947639466
leaf_weight=31 215 315 129 203 21 38 860 22 20 61 255 37 62 32
leaf_count=31 215 315 129 203 21 38 860 22 20 61 255 37 62 32
internal_value=0 0.111259 -0.336198 -0.121662 -0.302747 -0.580532 0.190829 -0.0740882 0.169352 0.152445 -0.281176 -0.279805 -0.288909 0.173299
internal_weight=0 1728 573 440 504 69 1288 225 428 81 375 354 99 347
internal_count=2301 1728 573 440 504 69 1288 225 428 81 375 354 99 347
is_linear=0
shrinkage=0.05


Tree=30
num_leaves=15
num_cat=0
split_feature=0 1 1 3 3 7 7 4 7 1 1 1 7 7
split_gain=30857.1 11480 1512.74 357.073 273.69 133.112 89.6904 12.9297 101.627 27.3539 8.05522 6.34693 5.8307 8.35386
threshold=1.0000000180025095e-35 19889280.000000004 20256855.000000004 1.5000000000000002 1.5000000000000002 0.50000000000000011 0.77000000000000013 27209712.33333334 0.6000000000000002 58817652.000000007 17600244.000000004 24248294.500000004 0.6000000000000002 0.77000000000000013
decision_type=2 2 2 2 2 2 2 2 2 2 2 2 2 2
left_child=2 3 5 -2 -4 -1 7 8 -3 -9 -5 -6 -13 -14
right_child=1 6 4 10 11 -7 -8 9 -10 -11 -12 12 13 -15
leaf_value=-0.4657983992467909 -0.16283819137271061 0.27661513909697533 -0.34978363793343309 -0.074442199871178075 -0.24223403802939825 -0.60470725876944409 0.19144114255905154 0.10040770233608783 0.16060938339912575 0.16703878447066908 -0.04109048530459404 -0.26281098350276794 -0.2952160303409283 -0.26577106127663264
leaf_weight=34 215 20 128 191 28 35 857 24 337 43 20 246 39 63
leaf_count=34 215 20 128 191 28 35 857 24 337 43 20 246 39 63
internal_value=0 0.107361 -0.316693 -0.117489 -0.286634 -0.536259 0.182135 0.163326 0.167108 0.143171 -0.0712809 -0.265136 -0.266978 -0.277029
internal_weight=0 1707 573 426 504 69 1281 424 357 67 211 376 348 102
internal_count=2280 1707 573 426 504 69 1281 424 357 67 211 376 348 102
is_linear=0
shrinkage=0.05


Tree=31
num_leaves=15
num_cat=0
split_feature=0 2 2 3 3 3 7 2 8 7 6 6 2 7
split_gain=28359.8 10603.2 1474.78 347.961 226.684 118.201 82.3942 63.0089 29.5222 11.7849 4.94865 13.1385 6.1706 4.73052
threshold=1.0000000180025095e-35 16.80569144025333 16.80569144025333 1.5000000000000002 1.5000000000000002 1.5000000000000002 0.77000000000000013 16.692429456355143 3.0000000000000004 0.6000000000000002 0.76500000000000012 0.74500000000000011 16.959097179164569 0.6000000000000002
decision_type=2 2 2 2 2 2 2 2 2 2 2 2 2 2
left_child=2 3 5 -2 -4 -1 9 -7 -5 -3 11 -6 -12 -14
right_child=1 6 4 8 10 7 -8 -9 -10 -11 12 -13 13 -15
leaf_value=-0.60106348821095068 -0.15493458292931214 0.18706806481436447 -0.3300845398726287 -0.072613392076869995 -0.24208516341323658 -0.52987280845642093 0.18186908960342407 -0.40436489343643189 -0.012827892018401106 0.15295143666090791 -0.22506424844264986 -0.28634856249156754 -0.24987121656607678 -0.26421516424492947
leaf_weight=28 220 27 135 202 30 20 856 20 23 405 20 38 211 79
leaf_count=28 220 27 135 202 30 20 856 20 23 405 20 38 211 79
internal_value=0 0.100189 -0.303471 -0.110221 -0.274468 -0.522273 0.172885 -0.467119 -0.066502 0.155084 -0.254606 -0.266821 -0.251926 -0.253779
internal_weight=0 1733 581 445 513 68 1288 40 225 432 378 68 310 290
internal_count=2314 1733 581 445 513 68 1288 40 225 432 378 68 310 290
is_linear=0
shrinkage=0.05


Tree=32
num_leaves=15
num_cat=0
split_feature=0 1 1 3 3 7 7 4 1 1 5 1 5 1
split_gain=25265.4 9537.48 1302.15 304.335 201.59 98.0119 87.1898 10.2572 72.1187 8.44443 4.92133 8.71348 4.63751 4.29489
threshold=1.0000000180025095e-35 19889280.000000004 19889280.000000004 1.5000000000000002 1.5000000000000002 0.50000000000000011 0.77000000000000013 24104169.500000004 49951289.500000007 17525148.000000004 0.090909099960946163 25933792.500000004 0.090909103898522123 22313360.000000004
decision_type=2 2 2 2 2 2 2 2 2 2 2 2 2 2
left_child=2 3 5 -2 -4 -1 7 10 -9 -5 11 -3 -12 -6
right_child=1 6 4 9 13 -7 -8 8 -10 -11 12 -13 -14 -15
leaf_value=-0.42950119018554694 -0.14726740003788852 0.17509880678994316 -0.31315024974650907 -0.067820378336204495 -0.26352665183090029 -0.55186964538362293 0.17277563810348512 0.046132597774267203 0.15242027315912368 -0.037503271664564429 0.11598604321479798 0.14841480402298918 0.1492528118870475 -0.24025740854525834
leaf_weight=30 219 35 133 197 21 36 870 20 79 26 20 243 22 356
leaf_count=30 219 35 133 197 21 36 870 20 79 26 20 243 22 356
internal_value=0 0.0950248 -0.287269 -0.105401 -0.260225 -0.496248 0.163751 0.145013 0.130948 -0.0642856 0.149364 0.151774 0.133411 -0.241554
internal_weight=0 1731 576 442 510 66 1289 419 99 223 320 278 42 377
internal_count=2307 1731 576 442 510 66 1289 419 99 223 320 278 42 377
is_linear=0
shrinkage=0.05


Tree=33
num_leaves=15
num_cat=0
split_feature=0 1 1 3 3 1 7 5 7 1 1 1 1 7
split_gain=22921.1 8489.51 1199.2 271.526 206.053 82.461 71.6388 8.21684 13.4389 6.86722 6.1374 6.07762 5.48329 4.36178
threshold=1.0000000180025095e-35 19889280.000000004 20256855.000000004 1.5000000000000002 1.5000000000000002 17759482.500000004 0.77000000000000013 0.090909099960946163 0.6000000000000002 26964128.500000004 17525148.000000004 23694487.500000004 24248294.500000004 0.6000000000000002
decision_type=2 2 2 2 2 2 2 2 2 2 2 2 2 2
left_child=2 3 5 -2 -4 -1 7 8 -3 -9 -5 -10 -6 -14
right_child=1 6 4 10 12 -7 -8 9 11 -11 -12 -13 13 -15
leaf_value=-0.520837615518009 -0.14049314322336667 0.17718614560365678 -0.30040146897929587 -0.064189800604795802 -0.20440391111373901 -0.41365379000964925 0.16413685083389284 0.097537271082401289 0.16536623920713153 0.13511667347723438 -0.037875827789306649 0.13764236995657406 -0.22508743080666394 -0.23751614792178377
leaf_weight=34 212 25 129 195 25 38 863 20 21 31 25 337 246 99
leaf_count=34 212 25 129 195 25 38 863 20 21 31 25 337 246 99
internal_value=0 0.0918617 -0.273511 -0.100112 -0.245987 -0.464268 0.155804 0.139233 0.141744 0.12038 -0.0611996 0.139269 -0.227015 -0.228654
internal_weight=0 1729 571 432 499 72 1297 434 383 51 220 358 370 345
internal_count=2300 1729 571 432 499 72 1297 434 383 51 220 358 370 345
is_linear=0
shrinkage=0.05


Tree=34
num_leaves=15
num_cat=0
split_feature=7 7 1 1 3 3 7 6 6 1 1 1 5 5
split_gain=18569.5 912.631 679.361 306.164 263.545 259.186 112.696 31.1518 30.0764 31.244 26.8629 25.9491 19.4672 63.287
threshold=0.6000000000000002 0.50000000000000011 19889280.000000004 20256855.000000004 1.5000000000000002 1.5000000000000002 0.77000000000000013 0.95500000000000007 0.76500000000000012 56119421.500000007 38006157.500000007 25933792.500000004 0.090909088696393858 0.090909089271019497
decision_type=2 2 2 2 2 2 2 2 2 2 2 2 2 2
left_child=1 3 -2 -1 -3 -5 8 11 9 10 -4 -7 -8 -14
right_child=2 4 6 5 -6 7 12 -9 -10 -11 -12 -13 13 -15
leaf_value=-0.36155592434500394 -0.13834561049365079 -0.16292804920155068 0.083686023950576782 -0.26970856807527749 -0.086557490600121995 -0.15292219729036899 0.14054839432875882 -0.13767589370409647 0.1044782212344549 0.1194032765570141 0.0088767314950625106 -0.19827040712410046 0.072966116004519993 0.12951400019795764
leaf_weight=38 26 230 24 137 222 37 281 30 372 21 24 214 54 591
leaf_count=38 26 230 24 137 222 37 281 30 372 21 24 214 54 591
internal_value=0 -0.175767 0.114842 -0.225674 -0.125419 -0.213321 0.119658 -0.18583 0.0988546 0.0685359 0.0462814 -0.191586 0.129565 0.12478
internal_weight=0 908 1393 456 452 418 1367 281 441 69 48 251 926 645
internal_count=2301 908 1393 456 452 418 1367 281 441 69 48 251 926 645
is_linear=0
shrinkage=0.05


Tree=35
num_leaves=15
num_cat=0
split_feature=0 1 1 3 3 1 8 4 8 8 4 1 4 5
split_gain=19756.7 6875.82 1044.27 222.207 149.15 97.0196 50.3471 46.1282 27.9632 17.6877 11.9079 11.2651 29.1186 4.60454
threshold=1.0000000180025095e-35 20256855.000000004 20256855.000000004 1.5000000000000002 1.5000000000000002 17759482.500000004 10.000000000000002 9624213.0000000019 3.0000000000000004 5.0000000000000009 9099627.1666666698 35824614.000000007 15995987.000000002 0.090909082320911064
decision_type=2 2 2 2 2 2 2 2 2 2 2 2 2 2
left_child=2 3 5 -2 -4 -1 10 -7 -5 -6 -3 12 -12 -13
right_child=1 6 4 8 9 7 -8 -9 -10 -11 11 13 -14 -15
leaf_value=-0.48423953586154522 -0.12424771925566887 0.16193121337890626 -0.27172232256590867 -0.058422623327629056 -0.20311875469955334 -0.31740351647138598 0.14942968926646494 -0.42479084849357607 0.00098224813965233897 -0.22778923668042578 0.12483170373099191 0.15411751894723802 0.058199999630451207 0.12980141071567822
leaf_weight=36 211 25 131 199 273 20 880 20 22 99 91 21 20 267
leaf_count=36 211 25 131 199 273 20 880 20 22 99 91 21 20 267
internal_value=0 0.0853357 -0.251942 -0.0875481 -0.225841 -0.424691 0.14261 -0.371097 -0.052509 -0.209684 0.128456 0.126359 0.112826 0.131574
internal_weight=0 1736 579 432 503 76 1304 40 221 372 424 399 111 288
internal_count=2315 1736 579 432 503 76 1304 40 221 372 424 399 111 288
is_linear=0
shrinkage=0.05


Tree=36
num_leaves=15
num_cat=0
split_feature=0 1 1 3 3 3 7 8 7 7 5 1 4 7
split_gain=17114.7 6151.06 875.425 204.505 116.795 115.237 43.0072 25.5604 14.7806 11.3556 4.88842 4.88103 4.30044 4.2615
threshold=1.0000000180025095e-35 20256855.000000004 19889280.000000004 1.5000000000000002 1.5000000000000002 1.5000000000000002 0.77000000000000013 3.0000000000000004 0.6000000000000002 0.6000000000000002 0.090909077736085683 24248294.500000004 9099627.1666666698 0.77000000000000013
decision_type=2 2 2 2 2 2 2 2 2 2 2 2 2 2
left_child=2 3 5 -2 -4 -1 9 -5 10 -3 -6 -12 -11 -10
right_child=1 6 4 7 8 -7 -8 -9 13 12 11 -13 -14 -15
leaf_value=-0.49109065716083233 -0.11810418909246273 0.15257044891858926 -0.25530169404470004 -0.055052323557844209 -0.21733609948839461 -0.35519564763093608 0.14196065243797615 0.00059131359600502517 -0.23012588990701213 0.14110418765441232 -0.16852742195129397 -0.19427977188773779 0.11881305234072959 -0.20874725504527017
leaf_weight=26 209 29 130 201 21 39 859 23 37 23 20 230 365 63
leaf_count=26 209 29 130 201 21 39 859 23 37 23 20 230 365 63
internal_value=0 0.0803073 -0.236917 -0.0825305 -0.214519 -0.409554 0.135565 -0.0493389 -0.200228 0.12239 -0.194166 -0.19222 0.120134 -0.216657
internal_weight=0 1709 566 433 501 65 1276 224 371 417 271 250 388 100
internal_count=2275 1709 566 433 501 65 1276 224 371 417 271 250 388 100
is_linear=0
shrinkage=0.05


Tree=37
num_leaves=15
num_cat=0
split_feature=0 2 2 3 3 7 7 8 7 7 2 7 4 2
split_gain=15612.6 5737.5 841.323 192.795 116.571 104.587 37.487 23.767 16.5171 14.3651 5.80623 8.84145 3.86169 3.53412
threshold=1.0000000180025095e-35 16.824003741506463 16.824003741506463 1.5000000000000002 1.5000000000000002 0.50000000000000011 0.77000000000000013 3.0000000000000004 0.6000000000000002 0.6000000000000002 17.430090546909025 0.77000000000000013 9099627.1666666698 17.388314530277345
decision_type=2 2 2 2 2 2 2 2 2 2 2 2 2 2
left_child=2 3 5 -2 13 -1 9 -5 -6 -3 -10 -12 -11 -4
right_child=1 6 4 7 8 -7 -8 -9 10 12 11 -13 -14 -15
leaf_value=-0.3239311304162531 -0.11241120024504166 0.15341245675086976 -0.2544021662076314 -0.052367396601315203 -0.18314308134071969 -0.44540907756702319 0.13485324902663059 0.00024841191867987314 -0.1818352383375168 0.13378121058146161 -0.23490992869649616 -0.20097219572692621 0.11309129181392691 -0.23744640350341797
leaf_weight=34 221 25 60 203 272 37 853 24 20 24 28 61 374 63
leaf_count=34 221 25 60 203 272 37 853 24 20 24 28 61 374 63
internal_value=0 0.0747706 -0.226096 -0.0791685 -0.203396 -0.387237 0.128818 -0.0468045 -0.189733 0.116648 -0.206179 -0.211649 0.114339 -0.245718
internal_weight=0 1724 575 448 504 71 1276 227 381 423 109 89 398 123
internal_count=2299 1724 575 448 504 71 1276 227 381 423 109 89 398 123
is_linear=0
shrinkage=0.05


Tree=38
num_leaves=15
num_cat=0
split_feature=0 1 1 3 3 3 7 8 7 4 7 1 7 5
split_gain=14237.7 5101.83 797.933 167.51 95.7391 94.1724 41.5649 19.7273 10.9551 8.93201 32.3969 5.50587 7.533 3.36613
threshold=1.0000000180025095e-35 19889280.000000004 19889280.000000004 1.5000000000000002 1.5000000000000002 1.5000000000000002 0.77000000000000013 3.0000000000000004 0.6000000000000002 32178820.500000004 0.6000000000000002 35824614.000000007 0.77000000000000013 0.090909058798187101
decision_type=2 2 2 2 2 2 2 2 2 2 2 2 2 2
left_child=2 3 5 -2 -4 -1 9 13 -6 10 -3 -10 -13 -5
right_child=1 6 4 7 8 -7 -8 -9 11 -11 -12 12 -14 -15
leaf_value=-0.44388998787978606 -0.10688604709713959 0.16990990774198012 -0.23000939000736584 -0.033604170326833376 -0.17523313664338169 -0.32491518350747917 0.12812133552571092 -0.00019601238468153911 -0.17046259969472888 0.081722934224775862 0.10747576049942385 -0.22209218098567082 -0.18995097777882564 -0.052564475109631373
leaf_weight=29 215 22 132 27 272 39 866 22 20 28 374 26 61 176
leaf_count=29 215 22 132 27 272 39 866 22 20 28 374 26 61 176
internal_value=0 0.0716947 -0.214749 -0.0753261 -0.193337 -0.375654 0.121841 -0.0451688 -0.180565 0.109015 0.110944 -0.194118 -0.199556 -0.0500427
internal_weight=0 1730 579 440 511 68 1290 225 379 424 396 107 87 203
internal_count=2309 1730 579 440 511 68 1290 225 379 424 396 107 87 203
is_linear=0
shrinkage=0.05


Tree=39
num_leaves=15
num_cat=0
split_feature=0 1 1 3 3 3 8 1 8 8 4 1 1 5
split_gain=12923.1 4512.67 698.822 149.494 81.6223 69.1168 32.9712 20.3389 18.2664 9.579 7.1291 19.0378 6.19281 4.32364
threshold=1.0000000180025095e-35 19889280.000000004 19889280.000000004 1.5000000000000002 1.5000000000000002 1.5000000000000002 10.000000000000002 17600244.000000004 3.0000000000000004 5.0000000000000009 25719477.750000004 56119421.500000007 22731545.000000004 0.090909090293182296
decision_type=2 2 2 2 2 2 2 2 2 2 2 2 2 2
left_child=2 3 5 -2 -4 -1 10 -7 -5 12 -3 -12 -6 -11
right_child=1 6 4 8 9 7 -8 -9 -10 13 11 -13 -14 -15
leaf_value=-0.41884668491504806 -0.10163012573108582 0.10768696389284478 -0.21941246647101181 -0.047519811795125558 -0.19536758959293365 -0.3509652924537659 0.12170883288813963 -0.27965803027153013 -0.00048076511644150896 -0.17495514698650527 0.052690030958341516 0.10686276847665961 -0.16647028937114505 -0.19548181346778215
leaf_weight=27 207 332 130 201 20 20 864 20 23 46 23 55 254 58
leaf_count=27 207 332 130 201 20 20 864 20 23 46 23 55 254 58
internal_value=0 0.068855 -0.205255 -0.0709976 -0.185237 -0.357035 0.116168 -0.315312 -0.0426899 -0.173483 0.104491 0.0908888 -0.16858 -0.186403
internal_weight=0 1705 575 431 508 67 1274 40 224 378 410 78 274 104
internal_count=2280 1705 575 431 508 67 1274 40 224 378 410 78 274 104
is_linear=0
shrinkage=0.05


Tree=40
num_leaves=15
num_cat=0
split_feature=0 1 1 3 1 3 7 7 1 4 5 7 1 5
split_gain=11397.9 4161.39 601.963 134.979 90.9934 86.2336 39.6565 11.9639 9.23374 50.7573 5.37019 9.15874 3.61373 3.9322
threshold=1.0000000180025095e-35 19019585.500000004 20256855.000000004 1.5000000000000002 17759482.500000004 1.5000000000000002 0.77000000000000013 0.6000000000000002 36359574.500000007 17036765.166666668 0.090909086145147658 0.77000000000000013 15329617.500000002 0.090909058798187101
decision_type=2 2 2 2 2 2 2 2 2 2 2 2 2 2
left_child=2 3 4 -2 -1 -4 8 -7 9 -3 -9 -12 13 -5
right_child=1 6 5 12 -6 7 -8 10 -10 -11 11 -13 -14 -15
leaf_value=-0.38304112020291781 -0.097236589572139986 0.098435472776040894 -0.21069239605040779 -0.029546668529510503 -0.27044849273036509 -0.1568125255405903 0.11562433551651932 -0.15396274384998143 0.10240296480984523 0.012960505187511446 -0.20768192577362063 -0.17183253630515069 -0.031934023340881773 -0.049643641017204115
leaf_weight=38 214 132 126 30 34 256 853 21 290 20 25 62 66 129
leaf_count=38 214 132 126 30 34 256 853 21 290 20 25 62 66 129
internal_value=0 0.0642275 -0.194877 -0.068808 -0.329872 -0.175041 0.109326 -0.1627 0.0971709 0.0871888 -0.176656 -0.182134 -0.0417692 -0.0458518
internal_weight=0 1734 562 439 72 490 1295 364 442 152 108 87 225 159
internal_count=2296 1734 562 439 72 490 1295 364 442 152 108 87 225 159
is_linear=0
shrinkage=0.05


Tree=41
num_leaves=15
num_cat=0
split_feature=0 1 1 3 7 3 7 8 7 7 4 7 4 5
split_gain=10506.7 3731.91 574.465 121.497 80.5702 65.7314 27.6965 15.1476 8.19811 6.47354 5.94227 8.72163 3.90883 2.80546
threshold=1.0000000180025095e-35 19889280.000000004 19889280.000000004 1.5000000000000002 0.50000000000000011 1.5000000000000002 0.77000000000000013 3.0000000000000004 0.6000000000000002 0.6000000000000002 13461447.000000002 0.77000000000000013 8528187.1666666698 0.090909058798187101
decision_type=2 2 2 2 2 2 2 2 2 2 2 2 2 2
left_child=2 3 4 -2 -1 -4 9 13 12 -3 -10 -12 -7 -5
right_child=1 6 5 7 -6 8 -8 -9 10 -11 11 -13 -14 -15
leaf_value=-0.26154213643843133 -0.091446336665989669 0.11745293023330826 -0.19708149058874264 -0.02806738018989563 -0.37081944620287099 -0.17245725154876712 0.10982957207923916 -0.00027708562657884935 -0.14301300734281538 0.092571800100016713 -0.19745912047532888 -0.16278897265593212 -0.14949578866657062 -0.045370280153333803
leaf_weight=31 211 28 129 27 37 20 871 23 20 394 26 60 253 177
leaf_count=31 211 28 129 27 37 20 871 23 20 394 26 60 253 177
internal_value=0 0.0620067 -0.184522 -0.0641322 -0.321002 -0.166253 0.104736 -0.0387433 -0.15576 0.0942227 -0.167562 -0.173271 -0.151178 -0.0430802
internal_weight=0 1731 576 438 68 508 1293 227 379 422 106 86 273 204
internal_count=2307 1731 576 438 68 508 1293 227 379 422 106 86 273 204
is_linear=0
shrinkage=0.05


Tree=42
num_leaves=15
num_cat=0
split_feature=0 1 1 4 4 1 7 1 1 4 7 4 7 1
split_gain=9531.83 3326.26 482.027 66.2073 48.8809 47.0652 26.3373 20.9564 16.4762 23.1275 12.5004 8.12741 7.27417 3.24756
threshold=1.0000000180025095e-35 19019585.500000004 20256855.000000004 9501916.2500000019 20212646.625000004 17759482.500000004 0.77000000000000013 40914003.000000007 9562122.5000000019 6042057.5000000009 0.6000000000000002 28627347.416666668 0.77000000000000013 23186879.500000004
decision_type=2 2 2 2 2 2 2 2 2 2 2 2 2 2
left_child=2 3 5 8 13 -1 10 -6 9 -2 -3 -9 -13 -4
right_child=1 6 4 -5 7 -7 -8 11 -10 -11 -12 12 -14 -15
leaf_value=-0.33715313775198802 -0.040293357567861676 0.12026313861211142 -0.12391803832281204 -0.089363025018832837 -0.19544564253324037 -0.25679021587497308 0.10434774849149915 -0.15226831888850734 -0.036635820899863503 -0.08331970230477756 0.086790465617960597 -0.18469362622600494 -0.15565756874925951 -0.144426190454092
leaf_weight=35 64 30 21 149 77 38 855 79 148 61 397 59 34 239
leaf_count=35 64 30 21 149 77 38 855 79 148 61 397 59 34 239
internal_value=0 0.0592034 -0.175165 -0.0625556 -0.157933 -0.29532 0.0992832 -0.173766 -0.0479245 -0.0612902 0.0891422 -0.164061 -0.174078 -0.14277
internal_weight=0 1704 582 422 509 73 1282 249 273 125 427 172 93 260
internal_count=2286 1704 582 422 509 73 1282 249 273 125 427 172 93 260
is_linear=0
shrinkage=0.05


Tree=43
num_leaves=15
num_cat=0
split_feature=0 1 1 3 1 3 7 7 5 1 1 1 3 5
split_gain=8488.77 2985.03 458.274 96.8653 67.2772 58.2145 31.6297 11.3503 6.78793 9.38617 7.77041 4.79227 6.95153 4.87563
threshold=1.0000000180025095e-35 19019585.500000004 20256855.000000004 1.5000000000000002 18050385.000000004 1.5000000000000002 0.77000000000000013 0.6000000000000002 0.090909099960946163 26730826.000000004 22731545.000000004 35616319.500000007 2.5000000000000004 0.090909085028608269
decision_type=2 2 2 2 2 2 2 2 2 2 2 2 2 2
left_child=2 3 4 -2 -1 -4 8 -7 10 -10 -3 12 13 -12
right_child=1 6 5 -5 -6 7 -8 -9 9 -11 11 -13 -14 -15
leaf_value=-0.3304026951660981 -0.08339449878476092 0.11530198857188226 -0.17984545831837931 -0.035743555796917383 -0.23568262545097818 -0.1345219378134575 0.099139908242750555 -0.15410965862227421 0.040868662771853533 0.08278250781928792 0.074713898517868735 0.086429003446641631 0.087786369751661264 0.040603743195533754
leaf_weight=37 207 20 121 220 38 269 863 102 22 34 22 274 39 20
leaf_count=37 207 20 121 220 38 269 863 102 22 34 22 274 39 20
internal_value=0 0.0557886 -0.16728 -0.0588437 -0.282411 -0.149729 0.0936155 -0.139907 0.0825539 0.0663164 0.0849788 0.0832704 0.0725858 0.058471
internal_weight=0 1721 567 427 75 492 1294 371 431 56 375 355 81 42
internal_count=2288 1721 567 427 75 492 1294 371 431 56 375 355 81 42
is_linear=0
shrinkage=0.05


Tree=44
num_leaves=15
num_cat=0
split_feature=0 1 1 3 3 1 7 7 8 7 4 7 1 1
split_gain=7728.57 2763.08 367.124 87.3962 60.4643 48.0563 16.0501 17.4537 10.7235 8.41582 3.61901 7.2805 3.13087 2.25456
threshold=1.0000000180025095e-35 19889280.000000004 20256855.000000004 1.5000000000000002 1.5000000000000002 17759482.500000004 0.77000000000000013 0.6000000000000002 3.0000000000000004 0.6000000000000002 13461447.000000002 0.77000000000000013 35616319.500000007 7593591.5000000009
decision_type=2 2 2 2 2 2 2 2 2 2 2 2 2 2
left_child=2 3 5 13 12 -1 7 -3 -5 -6 -11 -12 -4 -2
right_child=1 6 4 8 9 -7 -8 -9 -10 10 11 -13 -14 -15
leaf_value=-0.30782068931695189 -0.064266973733901986 0.12109484120651529 -0.17983654948972888 -0.036998636976327048 -0.12768777322769165 -0.22534508422801369 0.094176471644907472 0.079519069302327855 0.001383027546107769 -0.12503605544567109 -0.17077842308924751 -0.13918050312605063 -0.16435487443122312 -0.080249363342498214
leaf_weight=33 25 27 62 202 275 38 869 388 20 20 26 61 69 188
leaf_count=33 25 27 62 202 275 38 869 388 20 20 26 61 69 188
internal_value=0 0.0534163 -0.157118 -0.0554934 -0.142369 -0.263679 0.0903133 0.082224 -0.0335408 -0.132317 -0.144215 -0.148624 -0.171682 -0.0783735
internal_weight=0 1719 584 435 513 71 1284 415 222 382 107 87 131 213
internal_count=2303 1719 584 435 513 71 1284 415 222 382 107 87 131 213
is_linear=0
shrinkage=0.05


Tree=45
num_leaves=15
num_cat=0
split_feature=0 1 1 3 3 1 7 4 7 4 1 4 5 7
split_gain=7092.25 2502.38 399.269 79.515 54.2999 48.9445 16.5992 9.71766 8.78886 8.77546 9.76577 34.658 5.39636 8.11801
threshold=1.0000000180025095e-35 20256855.000000004 20256855.000000004 1.5000000000000002 1.5000000000000002 17759482.500000004 0.77000000000000013 8772896.583333334 0.6000000000000002 9099627.1666666698 35616319.500000007 15995987.000000002 0.090909086145147658 0.77000000000000013
decision_type=2 2 2 2 2 2 2 2 2 2 2 2 2 2
left_child=2 3 5 -2 -4 -1 9 -5 -6 -3 11 -11 -10 -14
right_child=1 6 4 7 8 -7 -8 -9 12 10 -12 -13 13 -15
leaf_value=-0.29765908962641008 -0.07455993107071629 0.10556845664978028 -0.16297883924209711 -0.035271584873863046 -0.12092897386128612 -0.21681111773682968 0.089458399147532439 0.0012576204910874367 -0.11488813275382632 0.075914190360840336 0.080462020594639472 0.0034296748042106627 -0.16535500798906599 -0.1328353657097113
leaf_weight=39 216 26 132 203 271 36 849 20 21 94 291 20 28 61
leaf_count=39 216 26 132 203 271 36 849 20 21 94 291 20 28 61
internal_value=0 0.0500721 -0.151096 -0.0529383 -0.135342 -0.258852 0.0854015 -0.0319954 -0.125767 0.0774101 0.0756024 0.0631976 -0.137687 -0.143066
internal_weight=0 1719 588 439 513 75 1280 223 381 431 405 114 110 89
internal_count=2307 1719 588 439 513 75 1280 223 381 431 405 114 110 89
is_linear=0
shrinkage=0.05


Tree=46
num_leaves=15
num_cat=0
split_feature=7 7 1 3 3 1 7 1 6 6 1 4 1 1
split_gain=5513.17 259.18 153.972 116.425 77.8237 53.3626 33.476 22.9383 10.1247 13.8869 7.26834 18.1383 8.10402 6.98104
threshold=0.6000000000000002 0.50000000000000011 19889280.000000004 1.5000000000000002 1.5000000000000002 20256855.000000004 0.77000000000000013 22731545.000000004 0.76500000000000012 0.74500000000000011 46110762.000000007 19784531.750000004 25933792.500000004 38975697.500000007
decision_type=2 2 2 2 2 2 2 2 2 2 2 2 2 2
left_child=1 3 -2 7 -3 -5 8 -1 9 -4 11 12 -7 -14
right_child=2 4 6 5 -6 10 -8 -9 -10 -11 -12 -13 13 -15
leaf_value=-0.20537575114341011 -0.057948091245690683 -0.088579031285540816 0.055846925245391005 -0.17713392972946168 -0.046923250866375762 -0.078895889009748199 0.070183303486356388 -0.14922947007067064 0.056540856751099933 0.0093548692505935147 -0.11252392096952959 -0.050535064935684208 -0.11016439716372871 -0.086493273668510978
leaf_weight=21 26 232 36 23 217 42 934 136 361 29 66 22 113 43
leaf_count=21 26 232 36 23 217 42 934 136 361 29 66 22 113 43
internal_value=0 -0.095557 0.0625812 -0.121678 -0.068447 -0.103864 0.0648855 -0.156739 0.05327 0.0351043 -0.0979712 -0.0936054 -0.098391 -0.10364
internal_weight=0 915 1386 466 449 309 1360 157 426 65 286 220 198 156
internal_count=2301 915 1386 466 449 309 1360 157 426 65 286 220 198 156
is_linear=0
shrinkage=0.05


Tree=47
num_leaves=15
num_cat=0
split_feature=0 1 1 3 3 7 3 7 7 1 1 5 3 7
split_gain=5721.06 2027.2 333.418 71.2264 63.9029 43.668 27.1189 15.8837 11.8647 5.24566 4.88026 4.56316 4.39 4.3253
threshold=1.0000000180025095e-35 19019585.500000004 19889280.000000004 1.5000000000000002 1.5000000000000002 0.50000000000000011 1.5000000000000002 0.77000000000000013 0.6000000000000002 36927604.500000007 35824614.000000007 0.09090908262774175 2.5000000000000004 0.77000000000000013
decision_type=2 2 2 2 2 2 2 2 2 2 2 2 2 2
left_child=2 4 3 -1 -2 -5 -4 9 -8 12 -10 -11 -3 -12
right_child=1 7 6 5 -6 -7 8 -9 10 11 13 -13 -14 -15
leaf_value=-0.30599044011189391 -0.067097944077991301 0.054584629638564024 -0.14396348039309184 -0.14712451040744781 -0.028747172228164142 -0.24814437161321226 -0.11102828309777078 0.081465099741577285 -0.10864484545309097 0.096210457597460067 -0.15461434229560522 0.071958742038471496 0.071605582038561502 -0.12922637404934054
leaf_weight=26 210 84 120 20 225 23 267 862 20 21 23 254 69 62
leaf_count=26 210 84 120 20 225 23 267 862 20 21 23 254 69 62
internal_value=0 0.04608 -0.13773 -0.24066 -0.0472613 -0.201158 -0.123295 0.0775556 -0.116628 0.0696819 -0.130867 0.0738107 0.0622607 -0.136096
internal_weight=0 1725 561 69 435 43 492 1290 372 428 105 275 153 85
internal_count=2286 1725 561 69 435 43 492 1290 372 428 105 275 153 85
is_linear=0
shrinkage=0.05


Tree=48
num_leaves=15
num_cat=0
split_feature=0 1 1 3 1 3 8 8 8 8 5 8 1 5
split_gain=5363.38 1800.98 272.124 57.3739 50.2198 32.1491 15.2855 12.5088 9.33362 7.46177 3.53718 5.88978 2.67673 2.55189
threshold=1.0000000180025095e-35 19889280.000000004 20256855.000000004 1.5000000000000002 17759482.500000004 1.5000000000000002 5.0000000000000009 10.000000000000002 3.0000000000000004 5.0000000000000009 0.090909086856757679 10.000000000000002 35616319.500000007 0.090909080969322834
decision_type=2 2 2 2 2 2 2 2 2 2 2 2 2 2
left_child=2 3 4 -2 -1 12 -7 9 -5 -3 -8 -12 -4 -11
right_child=1 7 5 8 -6 6 10 -9 -10 13 11 -13 -14 -15
leaf_value=-0.26219649959254909 -0.063048612716652103 0.092380937382026962 -0.14775983444575608 -0.029807078588735034 -0.17981655837313548 -0.10461643662717608 -0.10818018972873689 0.07740963115857516 0.005258466329957758 0.080366549468957466 -0.15253381431102753 -0.12329508476570004 -0.13332659900188445 0.064165369227488625
leaf_weight=37 210 27 58 197 37 270 20 865 21 26 24 61 72 373
leaf_count=37 210 27 58 197 37 270 20 865 21 26 24 61 72 373
internal_value=0 0.0444881 -0.131461 -0.0443967 -0.221007 -0.118339 -0.110912 0.0739557 -0.0264292 0.0669425 -0.127099 -0.131551 -0.139766 0.0652211
internal_weight=0 1719 579 428 74 505 375 1291 218 426 105 85 130 399
internal_count=2298 1719 579 428 74 505 375 1291 218 426 105 85 130 399
is_linear=0
shrinkage=0.05


Tree=49
num_leaves=15
num_cat=0
split_feature=0 1 1 3 3 3 5 8 8 8 5 8 1 5
split_gain=4883.84 1630.31 273.522 51.1414 45.0996 29.6038 16.4053 14.9478 12.2558 6.82848 4.1481 5.9371 2.91175 2.77049
threshold=1.0000000180025095e-35 19019585.500000004 20256855.000000004 1.5000000000000002 1.5000000000000002 1.5000000000000002 0.090909085440847762 5.0000000000000009 10.000000000000002 5.0000000000000009 0.090909086588019675 10.000000000000002 15329617.500000002 0.090909058798187101
decision_type=2 2 2 2 2 2 2 2 2 2 2 2 2 2
left_child=2 3 4 -2 -1 -4 -6 -7 9 -3 -9 -12 13 -5
right_child=1 8 5 12 6 7 -8 10 -10 -11 11 -13 -14 -15
leaf_value=-0.26512915738697712 -0.060530932006381814 0.086612669763893924 -0.13312814060107683 -0.01406948447227478 -0.21385365291075276 -0.099347540617849853 -0.15128456450998784 -0.10111426621675493 0.073544032459128092 0.061477611831041307 -0.14576537962313052 -0.11730257774654188 -0.016137669916296827 -0.032267306651920083
leaf_weight=29 210 29 129 25 22 277 20 20 874 396 27 57 58 128
leaf_count=29 210 29 129 25 22 277 20 20 874 396 27 57 58 128
internal_value=0 0.0424447 -0.125226 -0.0430628 -0.217172 -0.112425 -0.184059 -0.105416 0.0701573 0.0631927 -0.121579 -0.126451 -0.0256774 -0.0292938
internal_weight=0 1720 581 421 71 510 42 381 1299 425 104 84 211 153
internal_count=2301 1720 581 421 71 510 42 381 1299 425 104 84 211 153
is_linear=0
shrinkage=0.05


Tree=50
num_leaves=15
num_cat=0
split_feature=0 1 1 3 3 4 6 6 7 7 8 1 1 7
split_gain=4308.59 1506.56 256.493 50.1425 47.7787 22.6726 9.17544 16.6182 8.29065 9.91037 8.14472 7.66263 7.00837 4.31064
threshold=1.0000000180025095e-35 19889280.000000004 19889280.000000004 1.5000000000000002 1.5000000000000002 20212646.625000004 0.74500000000000011 0.76500000000000012 0.77000000000000013 0.6000000000000002 3.0000000000000004 35616319.500000007 23186879.500000004 0.6000000000000002
decision_type=2 2 2 2 2 2 2 2 2 2 2 2 2 2
left_child=2 4 3 -1 -2 6 -4 -8 9 -3 -6 -7 -9 -14
right_child=1 8 5 -5 10 11 7 12 -10 -11 -12 -13 13 -15
leaf_value=-0.26339953371456692 -0.056906662909489758 0.089541640363890562 -0.065420463113557731 -0.17471460039551195 -0.027141478228962648 -0.1340428128080853 -0.14029622984969098 -0.067395258024334909 0.069858743033498663 0.059266349448630566 0.0048207342201335868 -0.11332160035769145 -0.095376798171483118 -0.11626069463532547
leaf_weight=28 212 29 21 37 212 59 23 20 852 398 22 183 167 29
leaf_count=28 212 29 21 37 212 59 23 20 852 398 22 183 167 29
internal_value=0 0.0394158 -0.11946 -0.212917 -0.0397133 -0.107359 -0.0971078 -0.0998921 0.0670089 0.0613225 -0.0241365 -0.118373 -0.0955898 -0.0984668
internal_weight=0 1725 567 65 446 502 260 239 1279 427 234 242 216 196
internal_count=2292 1725 567 65 446 502 260 239 1279 427 234 242 216 196
is_linear=0
shrinkage=0.05


Tree=51
num_leaves=15
num_cat=0
split_feature=0 1 1 3 4 7 4 1 7 7 8 4 7 1
split_gain=3922.61 1369.26 205.032 42.1003 39.2677 34.9774 23.8374 7.50249 7.39291 10.4952 6.51842 3.08848 5.18792 2.06777
threshold=1.0000000180025095e-35 19889280.000000004 20256855.000000004 1.5000000000000002 9977634.1666666698 0.50000000000000011 18537828.500000004 35616319.500000007 0.77000000000000013 0.6000000000000002 3.0000000000000004 28627347.416666668 0.6000000000000002 23186879.500000004
decision_type=2 2 2 2 2 2 2 2 2 2 2 2 2 2
left_child=2 3 4 -2 5 -1 13 -8 9 -3 -5 12 -9 -4
right_child=1 8 6 10 -6 -7 7 11 -10 -11 -12 -13 -14 -15
leaf_value=-0.12138896558595741 -0.054003073179393735 0.088420512278874722 -0.0754104072632997 -0.025765106358593054 -0.24699556610801002 -0.20460481515952519 -0.1277988374233246 -0.092912766425048601 0.066356960734414355 0.056188786136524761 0.0041594086494296792 -0.11304723274494921 -0.11617791249945358 -0.091213285015976961
leaf_weight=23 218 27 23 202 22 28 56 68 873 391 20 112 37 207
leaf_count=23 218 27 23 202 22 28 56 68 873 391 20 112 37 207
internal_value=0 0.0377774 -0.112856 -0.0383955 -0.191161 -0.167076 -0.101492 -0.111482 0.0637388 0.0582707 -0.0230692 -0.107272 -0.101111 -0.089633
internal_weight=0 1731 576 440 73 51 503 273 1291 418 222 217 105 230
internal_count=2307 1731 576 440 73 51 503 273 1291 418 222 217 105 230
is_linear=0
shrinkage=0.05


Tree=52
num_leaves=15
num_cat=0
split_feature=0 1 1 3 3 4 7 7 1 8 4 7 5 1
split_gain=3543.75 1203.57 203.709 37.6451 37.3811 17.5441 7.72996 7.0023 6.68447 6.46738 3.0839 3.08983 2.64356 2.96813
threshold=1.0000000180025095e-35 19889280.000000004 19889280.000000004 1.5000000000000002 1.5000000000000002 20374005.33333334 0.77000000000000013 0.6000000000000002 35616319.500000007 3.0000000000000004 28627347.416666668 0.6000000000000002 0.090909078919755956 23186879.500000004
decision_type=2 2 2 2 2 2 2 2 2 2 2 2 2 2
left_child=2 4 3 -1 -2 -4 7 -3 -7 -6 11 -10 -9 -14
right_child=1 6 5 -5 9 8 -8 12 10 -11 -12 -13 13 -15
leaf_value=-0.24017557144165039 -0.05124794877710797 0.079923941538884102 -0.087916939139814312 -0.16075198875891197 -0.024650993078947067 -0.1212504779470378 0.063052482502879925 0.070397620115961346 -0.087567478528729203 0.0039107194001024425 -0.10726333684749433 -0.10854716553137854 0.033426630496978763 0.053225062290827435
leaf_weight=25 210 26 266 37 200 58 864 21 54 22 111 26 20 354
leaf_count=25 210 26 266 37 200 58 864 21 54 22 111 26 20 354
internal_value=0 0.0360732 -0.107154 -0.192778 -0.0361255 -0.0968457 0.0603455 0.05479 -0.106384 -0.0218206 -0.10187 -0.0943859 0.0531356 0.0521663
internal_weight=0 1717 577 62 432 515 1285 421 249 222 191 80 395 374
internal_count=2294 1717 577 62 432 515 1285 421 249 222 191 80 395 374
is_linear=0
shrinkage=0.05


Tree=53
num_leaves=15
num_cat=0
split_feature=0 1 1 7 3 3 7 4 7 1 4 5 7 3
split_gain=3325.57 1106.5 200.667 42.1826 35.425 20.4277 10.5014 7.46815 8.22147 5.38964 41.9761 3.31853 5.43238 3.01395
threshold=1.0000000180025095e-35 19019585.500000004 20256855.000000004 0.50000000000000011 1.5000000000000002 1.5000000000000002 0.6000000000000002 8293008.5000000009 0.77000000000000013 36927604.500000007 17309523.750000004 0.090909086903828318 0.77000000000000013 2.5000000000000004
decision_type=2 2 2 2 2 2 2 2 2 2 2 2 2 2
left_child=2 4 3 -1 -2 -4 -7 -3 9 10 -9 -8 -13 -11
right_child=1 7 5 -5 -6 6 11 8 -10 13 -12 12 -14 -15
leaf_value=-0.14063359532091355 -0.049527947894204852 0.087224293180874421 -0.10871341466903686 -0.21568928681887112 -0.020788129883895227 -0.080798794744626312 -0.081203768253326425 0.054862188739059251 0.059902080702563448 0.060484726459002325 -0.023723391145467759 -0.12184820132596152 -0.09487506161843029 0.050034517180310545
leaf_weight=36 211 21 135 39 218 269 20 113 874 139 20 28 56 137
leaf_count=36 211 21 135 39 218 269 20 113 874 139 20 28 56 137
internal_value=0 0.0347322 -0.103319 -0.179663 -0.0349236 -0.0920473 -0.0860153 0.0576482 0.0571641 0.0513131 0.0430448 -0.099508 -0.103866 0.0552975
internal_weight=0 1733 583 75 429 508 373 1304 1283 409 133 104 84 276
internal_count=2316 1733 583 75 429 508 373 1304 1283 409 133 104 84 276
is_linear=0
shrinkage=0.05


Tree=54
num_leaves=15
num_cat=0
split_feature=0 1 1 4 7 4 4 8 7 4 1 1 5 4
split_gain=2856.62 980.371 159.609 28.1093 30.0916 21.0571 16.8091 9.27875 7.04571 6.56952 34.6018 5.58059 5.49233 3.08589
threshold=1.0000000180025095e-35 19889280.000000004 20256855.000000004 9977634.1666666698 0.50000000000000011 9501916.2500000019 18537828.500000004 3.0000000000000004 0.77000000000000013 23928881.250000004 50446106.000000007 35616319.500000007 0.090909080969322834 8293008.5000000009
decision_type=2 2 2 2 2 2 2 2 2 2 2 2 2 2
left_child=2 5 3 4 -1 7 -4 13 9 12 -11 -8 -3 -2
right_child=1 8 6 -5 -6 -7 11 -9 -10 10 -12 -13 -14 -15
leaf_value=-0.10144036610921224 -0.024834910622582987 0.072719279527664188 -0.076983375261936882 -0.21458130641417072 -0.18124388776443623 -0.048195209619182867 -0.10924461936128552 0.0070459187030792242 0.056903081967912876 -0.017496616596525367 0.054390773091997427 -0.091750549626462341 0.050260486975819078 -0.038669082611799244
leaf_weight=21 208 30 224 22 27 149 58 21 870 22 70 213 294 50
leaf_count=21 208 30 224 22 27 149 58 21 870 22 70 213 294 50
internal_value=0 0.0325286 -0.0971114 -0.16778 -0.14633 -0.0330192 -0.0871178 -0.0249145 0.0543439 0.0489918 0.0372003 -0.0954947 0.05234 -0.027516
internal_weight=0 1714 565 70 48 428 495 279 1286 416 92 271 324 258
internal_count=2279 1714 565 70 48 428 495 279 1286 416 92 271 324 258
is_linear=0
shrinkage=0.05


Tree=55
num_leaves=15
num_cat=0
split_feature=0 2 2 3 2 3 7 6 2 7 6 4 2 4
split_gain=2576.08 891.001 145.877 28.475 24.9277 16.791 7.39461 5.92612 7.44518 5.66682 8.60797 7.57392 16.0532 4.70948
threshold=1.0000000180025095e-35 16.824003741506463 16.708677175772383 1.5000000000000002 16.824003741506463 1.5000000000000002 0.6000000000000002 0.75500000000000012 16.683423315526927 0.77000000000000013 0.77500000000000013 27209712.33333334 17.88995156251244 9099627.1666666698
decision_type=2 2 2 2 2 2 2 2 2 2 2 2 2 2
left_child=2 3 -1 -2 -4 -6 -7 -5 -9 10 -3 13 -13 -12
right_child=1 9 4 7 5 6 -8 8 -10 -11 11 12 -14 -15
leaf_value=-0.18957721127404109 -0.044196448240961347 0.063513217324560334 -0.12410384523562897 -0.039860377178109925 -0.097961017011686136 -0.072585719892348369 -0.088245561269094372 -0.019055889484436154 0.011766609270125628 0.054065602828028074 0.06988229879311153 -0.0063176080584526062 0.048188187820570813 0.045310376273406734
leaf_weight=36 210 66 39 29 131 261 106 179 22 848 21 22 35 273
leaf_count=36 210 66 39 29 131 261 106 179 22 848 21 22 35 273
internal_value=0 0.0304018 -0.0921407 -0.0308849 -0.0856087 -0.082594 -0.0771087 -0.0187308 -0.0156823 0.0517189 0.0469466 0.0438315 0.0271509 0.0470655
internal_weight=0 1705 573 440 537 498 367 230 201 1265 417 351 57 294
internal_count=2278 1705 573 440 537 498 367 230 201 1265 417 351 57 294
is_linear=0
shrinkage=0.05


Tree=56
num_leaves=15
num_cat=0
split_feature=0 1 1 3 1 4 7 7 1 4 7 3 6 1
split_gain=2358.91 820.033 129.381 26.0968 23.2232 15.1611 5.42718 7.805 4.63358 2.31502 3.34999 2.20222 3.93591 4.66595
threshold=1.0000000180025095e-35 19019585.500000004 17759482.500000004 1.5000000000000002 20256855.000000004 18537828.500000004 0.77000000000000013 0.6000000000000002 35616319.500000007 28627347.416666668 0.6000000000000002 2.5000000000000004 0.75500000000000012 26964128.500000004
decision_type=2 2 2 2 2 2 2 2 2 2 2 2 2 2
left_child=2 3 -1 -2 -4 -6 7 -3 -7 10 -10 -9 -13 -14
right_child=1 6 4 -5 5 8 -8 11 9 -11 -12 12 13 -15
leaf_value=-0.17817399276269449 -0.042718332440212919 0.069108612934748334 -0.11816835641860962 -0.018168384906265041 -0.068842515054049799 -0.09895417083953989 0.051351087134149959 0.046392071958798083 -0.070989371235690907 -0.087973926673855701 -0.089733721758868248 0.018516014729227339 0.061920341352621713 0.03826868699031806
leaf_weight=37 216 30 40 217 222 58 862 201 67 114 37 21 24 159
leaf_count=37 216 30 40 217 222 58 862 201 67 114 37 21 24 159
internal_value=0 0.0291634 -0.0877339 -0.030415 -0.0815141 -0.07857 0.0490535 0.0445005 -0.0863942 -0.0830526 -0.077658 0.0426777 0.0390179 0.0413705
internal_weight=0 1730 575 433 538 498 1297 435 276 218 104 405 204 183
internal_count=2305 1730 575 433 538 498 1297 435 276 218 104 405 204 183
is_linear=0
shrinkage=0.05


Tree=57
num_leaves=15
num_cat=0
split_feature=0 1 1 3 1 3 7 7 5 7 1 1 5 7
split_gain=2084.29 735.53 120.935 24.034 20.0452 13.9121 6.45542 5.00064 4.6993 12.4381 5.39368 5.10132 3.37271 5.15467
threshold=1.0000000180025095e-35 19889280.000000004 17759482.500000004 1.5000000000000002 20256855.000000004 1.5000000000000002 0.6000000000000002 0.77000000000000013 0.090909099960946163 0.6000000000000002 26730826.000000004 23186879.500000004 0.090909086588019675 0.77000000000000013
decision_type=2 2 2 2 2 2 2 2 2 2 2 2 2 2
left_child=2 3 -1 -2 -4 -6 -7 8 9 -3 -10 -11 -8 -14
right_child=1 7 4 -5 5 6 12 -9 10 11 -12 -13 13 -15
leaf_value=-0.17158200095097226 -0.040446586976541542 0.079719189975572674 -0.11191611180179997 -0.017041117227739759 -0.088524840103359675 -0.065400137667690886 -0.0620418731123209 0.048781244423731628 0.0077064171433448795 0.066230637878179552 0.040612686944730358 0.040203837488670589 -0.10556401285258206 -0.0770004404442651
leaf_weight=36 214 23 38 225 127 273 20 857 20 20 33 321 22 56
leaf_count=36 214 23 38 225 127 273 20 857 20 20 33 321 22 56
internal_value=0 0.0273635 -0.0828705 -0.0284506 -0.0769123 -0.0742413 -0.0693518 0.0465961 0.0421054 0.0441307 0.0281952 0.0417303 -0.0803599 -0.0850568
internal_weight=0 1713 572 439 536 498 371 1274 417 364 53 341 98 78
internal_count=2285 1713 572 439 536 498 371 1274 417 364 53 341 98 78
is_linear=0
shrinkage=0.05


Tree=58
num_leaves=15
num_cat=0
split_feature=0 9 1 3 1 4 1 7 6 4 4 1 1 5
split_gain=1922.39 661.848 117.992 17.3468 14.1842 12.4161 11.8012 4.64299 7.88237 6.49863 4.79252 6.72751 4.02602 2.43208
threshold=1.0000000180025095e-35 1.0000000180025095e-35 17759482.500000004 1.5000000000000002 20256855.000000004 18537828.500000004 20256855.000000004 0.77000000000000013 0.77500000000000013 32178820.500000004 9099627.1666666698 27475549.000000004 35616319.500000007 0.090909058798187101
decision_type=2 2 2 2 2 2 2 2 2 2 2 2 2 2
left_child=2 3 -1 -2 -4 -6 -3 8 -8 10 -10 -12 -7 -5
right_child=1 6 4 13 5 12 7 -9 9 -11 11 -13 -14 -15
leaf_value=-0.16325972095513955 -0.038256189999756995 0.010215109371795105 -0.10354836450682746 -0.0043370535065020829 -0.062378198013431696 -0.089473697689713028 0.055343487470046339 0.046346928841731097 0.062488326281309126 0.012797274727087755 0.014319624880264545 0.039653237892643495 -0.074949233349599798 -0.020171902497499689
leaf_weight=39 216 26 36 28 227 61 69 857 20 26 29 272 219 181
leaf_count=39 216 26 36 28 227 61 69 857 20 26 29 272 219 181
internal_value=0 0.0258417 -0.0792552 -0.0283197 -0.0732217 -0.0710683 0.043562 0.0442431 0.039909 0.0368399 0.0387873 0.0372125 -0.0781135 -0.0180505
internal_weight=0 1724 582 425 543 507 1299 1273 416 347 321 301 280 209
internal_count=2306 1724 582 425 543 507 1299 1273 416 347 321 301 280 209
is_linear=0
shrinkage=0.05


Tree=59
num_leaves=15
num_cat=0
split_feature=7 4 1 4 7 3 1 4 1 5 3 5 4 5
split_gain=1375.38 64.3834 63.1077 30.8112 14.7747 8.63708 8.0162 20.8576 6.42722 6.21616 9.61859 4.72795 4.48884 6.83399
threshold=0.6000000000000002 8913103.1666666698 19889280.000000004 25719477.750000004 0.77000000000000013 1.5000000000000002 36927604.500000007 18041414.166666668 18050385.000000004 0.090909082452320725 2.5000000000000004 0.090909080216389396 10764821.750000002 0.090909090293182296
decision_type=2 2 2 2 2 2 2 2 2 2 2 2 2 2
left_child=1 5 -2 6 11 -1 7 12 -7 -8 -11 -4 13 -3
right_child=2 3 4 -5 -6 8 9 -9 -10 10 -12 -13 -14 -15
leaf_value=-0.046768809932059258 -0.043847977949513332 -0.04631374831262388 0.044820150732994085 -0.07784270069582 0.03694647682557612 -0.022056470625953045 -0.014649518132209778 -0.089885038764853237 -0.043852608576416971 -0.026076416998374752 -0.05700286498436561 0.024234497543396218 -0.046825687330822617 -0.076714189019468096
leaf_weight=58 27 38 30 139 914 219 20 38 40 41 65 397 215 36
leaf_count=58 27 38 30 139 914 219 20 38 40 41 65 397 215 36
internal_value=0 -0.047513 0.0318354 -0.0572504 0.0333593 -0.0293283 -0.0509318 -0.0550605 -0.0254227 -0.0402167 -0.0450407 0.0256808 -0.0504815 -0.0611032
internal_weight=0 909 1368 592 1341 317 453 327 259 126 106 427 289 74
internal_count=2277 909 1368 592 1341 317 453 327 259 126 106 427 289 74
is_linear=0
shrinkage=0.05


Tree=60
num_leaves=15
num_cat=0
split_feature=0 8 1 3 3 7 1 1 4 7 5 5 4 4
split_gain=1613.35 536.045 90.283 31.2954 13.2064 11.3953 11.7393 11.3364 8.86401 4.4663 2.21801 1.87358 5.99785 3.41244
threshold=1.0000000180025095e-35 3.0000000000000004 19889280.000000004 1.5000000000000002 1.5000000000000002 0.6000000000000002 20256855.000000004 17759482.500000004 20212646.625000004 0.77000000000000013 0.090909058798187101 0.090909076873363623 8623305.4166666698 10224681.333333334
decision_type=2 2 2 2 2 2 2 2 2 2 2 2 2 2
left_child=2 4 3 -1 -2 -3 -7 -5 11 -8 -6 -4 -13 -14
right_child=1 5 8 7 10 6 9 -9 -10 -11 -12 12 13 -15
leaf_value=-0.17028772922662588 -0.033989881036929716 0.071208052594086232 -0.072872187197208407 -0.126442069709301 -0.0030545281246304513 0.0048726225271821027 0.035748936597029775 -0.073205904960632326 -0.07219618013926915 0.042184953438172058 -0.018176425145475905 -0.031420619934797292 -0.07703032837464259 -0.05771662068210151
leaf_weight=26 206 29 22 20 28 24 392 20 245 863 181 20 26 190
leaf_count=26 206 29 22 20 28 24 392 20 245 863 181 20 26 190
internal_value=0 0.024506 -0.0725994 -0.127582 -0.0250057 0.040215 0.0395122 -0.099824 -0.0653849 0.0401747 -0.0161505 -0.0589168 -0.0576159 -0.0600414
internal_weight=0 1723 569 66 415 1308 1279 40 503 1255 209 258 236 216
internal_count=2292 1723 569 66 415 1308 1279 40 503 1255 209 258 236 216
is_linear=0
shrinkage=0.05


Tree=61
num_leaves=15
num_cat=0
split_feature=0 8 1 3 3 1 5 3 1 1 3 7 1 7
split_gain=1449.52 478.501 85.9714 40.9691 12.088 8.53746 6.79733 6.23929 7.18512 4.0247 7.86847 5.07391 3.679 2.7321
threshold=1.0000000180025095e-35 3.0000000000000004 19889280.000000004 1.5000000000000002 1.5000000000000002 20256855.000000004 0.090909080969322834 2.5000000000000004 24248294.500000004 36359574.500000007 2.5000000000000004 0.77000000000000013 24889050.000000004 0.6000000000000002
decision_type=2 2 2 2 2 2 2 2 2 2 2 2 2 2
left_child=2 4 3 -1 -2 -3 -5 13 -9 10 11 -7 -12 -4
right_child=1 5 7 6 -6 9 -8 8 -10 -11 12 -13 -14 -15
leaf_value=-0.16478532234827678 -0.032413011271020642 0.010670232772827149 -0.063798956165001516 -0.10810083940625191 -0.015241626936373454 0.016245462066387828 -0.066877867281436923 -0.026121964454650884 -0.057738815399549774 0.039857996849941825 0.060742837474459702 0.039845593925565484 0.037476564709390148 -0.076386854396416598
leaf_weight=30 207 28 252 20 203 79 20 20 177 1061 21 32 89 52
leaf_count=30 207 28 252 20 203 79 20 20 177 1061 21 32 89 52
internal_value=0 0.0232291 -0.0687124 -0.120616 -0.0239111 0.0379829 -0.0874894 -0.0614604 -0.054529 0.0385794 0.032441 0.0230491 0.0419183 -0.0659521
internal_weight=0 1720 571 70 410 1310 40 501 197 1282 221 111 110 304
internal_count=2291 1720 571 70 410 1310 40 501 197 1282 221 111 110 304
is_linear=0
shrinkage=0.05


Tree=62
num_leaves=15
num_cat=0
split_feature=0 8 1 3 3 1 7 1 5 4 7 4 1 4
split_gain=1334.68 441.27 93.1376 10.6914 9.70894 7.64989 5.47491 10.1456 3.78462 3.67852 4.24577 3.62034 4.68145 28.4486
threshold=1.0000000180025095e-35 3.0000000000000004 18050385.000000004 1.5000000000000002 1.5000000000000002 20256855.000000004 0.6000000000000002 20256855.000000004 0.090909100142215274 13461447.000000002 0.77000000000000013 8293008.5000000009 35616319.500000007 17152512.250000004
decision_type=2 2 2 2 2 2 2 2 2 2 2 2 2 2
left_child=2 3 -1 -2 8 -3 7 -6 -4 -8 -11 -7 13 -13
right_child=1 5 4 -5 6 11 9 -9 -10 10 -12 12 -14 -15
leaf_value=-0.14146538078784943 -0.030731281353983772 0.010136720857449941 -0.068199454999167075 -0.014731721771798404 -0.08649954597155253 0.057660990357398995 -0.04707619693130255 -0.050438725774305582 -0.090744185447692874 -0.088204988956451416 -0.063618762753272468 0.035835224729098246 0.03748553665913814 -0.025911169676553637
leaf_weight=38 215 28 121 203 21 20 20 274 22 25 59 167 1083 21
leaf_count=38 215 28 121 203 21 20 20 274 22 25 59 167 1083 21
internal_value=0 0.0218057 -0.0657949 -0.0229612 -0.0604896 0.0359926 -0.0564834 -0.0530058 -0.0716679 -0.0663477 -0.0709361 0.0365534 0.0362212 0.028938
internal_weight=0 1737 580 418 542 1319 399 295 143 104 84 1291 1271 188
internal_count=2317 1737 580 418 542 1319 399 295 143 104 84 1291 1271 188
is_linear=0
shrinkage=0.05


Tree=63
num_leaves=15
num_cat=0
split_feature=0 1 1 3 1 4 1 4 6 1 4 8 7 5
split_gain=1174.36 395.715 67.831 12.5934 11.4692 8.23333 2.70575 36.4812 5.85876 6.31149 3.4159 2.65097 2.20684 2.1652
threshold=1.0000000180025095e-35 19889280.000000004 18050385.000000004 1.5000000000000002 20256855.000000004 18537828.500000004 35824614.000000007 17446781.83333334 0.75500000000000012 25933792.500000004 10224681.333333334 3.0000000000000004 0.6000000000000002 0.090909082320911064
decision_type=2 2 2 2 2 2 2 2 2 2 2 2 2 2
left_child=2 3 -1 -2 -4 12 7 8 -3 10 -10 -5 -6 -8
right_child=1 6 4 11 5 -7 13 -9 9 -11 -12 -13 -14 -15
leaf_value=-0.13199653751922377 -0.02906925001116686 0.011820544505661185 -0.084591808130866614 -0.013810488056981624 -0.047385262569476817 -0.062086236240728843 0.049927900731563571 -0.034783407300710681 0.064639615664879482 0.032781222550308006 0.039331870681295795 0.0052730098366737367 -0.062856965569349429 0.03532013715228742
leaf_weight=33 215 22 38 202 203 265 26 20 30 119 24 20 26 1042
leaf_count=33 215 22 38 202 203 265 26 20 30 119 24 20 26 1042
internal_value=0 0.0206489 -0.0624367 -0.0204443 -0.0581219 -0.0560857 0.0346455 0.0295279 0.036124 0.0392146 0.0533917 -0.0120913 -0.0491419 0.0356758
internal_weight=0 1720 565 437 532 494 1283 215 195 173 54 222 229 1068
internal_count=2285 1720 565 437 532 494 1283 215 195 173 54 222 229 1068
is_linear=0
shrinkage=0.05


Tree=64
num_leaves=15
num_cat=0
split_feature=7 1 4 4 7 3 5 5 4 5 4 4 6 1
split_gain=819.987 55.5556 40.3191 18.3799 7.57127 4.98041 4.2536 2.96434 7.7985 2.78192 5.85603 4.41986 3.81207 2.68743
threshold=0.6000000000000002 19889280.000000004 8913103.1666666698 26816424.000000004 0.77000000000000013 1.5000000000000002 0.090909078361844795 0.090909102869732764 9241176.833333334 0.090909088935826124 10111925.66666667 17446781.83333334 0.85500000000000009 19402933.000000004
decision_type=2 2 2 2 2 2 2 2 2 2 2 2 2 2
left_child=2 -2 5 9 6 -1 -3 8 -8 11 -11 -4 -13 -7
right_child=1 4 3 -5 -6 13 7 -9 -10 10 -12 12 -14 -15
leaf_value=-0.035642649059494338 -0.046980874185208923 0.04259971354156733 -0.031753879714579811 -0.062473570274525006 0.028061348219720773 -0.017509038710549599 -0.012577452026307584 0.034143878569205609 0.019477266548453151 -0.067581728038688504 -0.041682884777235293 -0.034930901000132929 -0.06175468663374583 -0.033058865834027527
leaf_weight=60 27 20 147 122 909 211 20 30 370 24 241 26 27 32
leaf_count=60 27 20 147 122 909 211 20 30 370 24 241 26 27 32
internal_value=0 0.0240339 -0.0375546 -0.0452005 0.0254552 -0.0227421 0.0200713 0.0189985 0.0178334 -0.0406687 -0.0440284 -0.036217 -0.0485958 -0.0195568
internal_weight=0 1376 890 587 1349 303 440 420 390 465 265 200 53 243
internal_count=2266 1376 890 587 1349 303 440 420 390 465 265 200 53 243
is_linear=0
shrinkage=0.05


Tree=65
num_leaves=15
num_cat=0
split_feature=0 1 1 4 5 3 4 6 8 7 7 7 7 3
split_gain=1028.41 323.872 80.394 17.6578 24.2764 9.15772 7.70163 6.01975 11.3066 4.24814 3.14931 2.68617 3.9698 3.94692
threshold=1.0000000180025095e-35 20256855.000000004 20256855.000000004 9716780.6666666698 0.090909085440847762 1.5000000000000002 18537828.500000004 0.75500000000000012 3.0000000000000004 0.6000000000000002 0.77000000000000013 0.6000000000000002 0.77000000000000013 1.5000000000000002
decision_type=2 2 2 2 2 2 2 2 2 2 2 2 2 2
left_child=2 5 3 4 -1 -2 -4 -7 -9 -3 -11 13 -13 -8
right_child=1 9 6 -5 -6 7 11 8 -10 10 -12 12 -14 -15
leaf_value=-0.12328216284513474 -0.025460881985864547 0.051843247276086073 -0.044882434189636659 -0.14135115238336415 -0.048694348335266119 -0.032716014502303943 -0.059329105529092978 -0.011938899027802881 0.027699893563985823 0.027622736795832426 0.033090549203225114 -0.084342765063047415 -0.05845184430741427 -0.044117933053236746
leaf_weight=24 212 26 235 26 20 28 124 179 20 379 863 20 57 65
leaf_count=24 212 26 235 26 20 28 124 179 20 379 863 20 57 65
internal_value=0 0.0190259 -0.0584908 -0.108683 -0.0893786 -0.0179882 -0.051478 -0.0110093 -0.0079551 0.0318408 0.031422 -0.0573048 -0.0651768 -0.0540977
internal_weight=0 1707 571 70 44 439 501 227 199 1268 1242 266 77 189
internal_count=2278 1707 571 70 44 439 501 227 199 1268 1242 266 77 189
is_linear=0
shrinkage=0.05


Tree=66
num_leaves=15
num_cat=0
split_feature=0 9 1 1 4 7 3 3 7 4 1 4 5 7
split_gain=924.113 282.353 62.1815 8.38086 7.78986 6.99731 8.12702 6.93599 2.78291 4.7488 10.7905 3.13692 2.18259 3.22138
threshold=1.0000000180025095e-35 1.0000000180025095e-35 17759482.500000004 20256855.000000004 7434291.5000000009 0.6000000000000002 1.5000000000000002 1.5000000000000002 0.77000000000000013 27209712.33333334 58817652.000000007 8772896.583333334 0.090909090293182296 0.77000000000000013
decision_type=2 2 2 2 2 2 2 2 2 2 2 2 2 2
left_child=2 7 -1 -4 -3 6 -5 -2 9 11 -11 -6 -7 -14
right_child=1 4 3 5 8 12 -8 -9 -10 10 -12 -13 13 -15
leaf_value=-0.11685760005524284 -0.024556320990834921 -0.0016978437453508376 -0.073027813740265679 -0.05642668607216033 0.046651670595873961 -0.052346699342052355 -0.041066114505862492 -0.011578931051795142 0.031400341168045999 -0.010980177040283498 0.02964788993651217 0.027571961930131214 -0.080413849830627437 -0.056770567157689272
leaf_weight=38 210 20 39 126 23 47 272 202 856 26 44 340 25 34
leaf_count=38 210 20 39 126 23 47 272 202 856 26 44 340 25 34
internal_value=0 0.0179055 -0.0550245 -0.0506974 0.0292675 -0.0489694 -0.045929 -0.0181936 0.029748 0.0264815 0.0145575 0.0287809 -0.0603853 -0.0667889
internal_weight=0 1721 581 543 1309 504 398 412 1289 433 70 363 106 59
internal_count=2302 1721 581 543 1309 504 398 412 1289 433 70 363 106 59
is_linear=0
shrinkage=0.05


Tree=67
num_leaves=15
num_cat=0
split_feature=0 1 1 4 5 7 3 4 5 6 1 7 7 3
split_gain=849.347 266.593 57.595 9.89797 9.668 9.09055 7.51312 6.87808 5.05529 4.66924 4.47052 2.38861 2.1128 3.33557
threshold=1.0000000180025095e-35 20256855.000000004 20256855.000000004 9716780.6666666698 0.090909085440847762 0.6000000000000002 1.5000000000000002 18537828.500000004 0.090909080216389396 0.76500000000000012 15999512.000000002 0.77000000000000013 0.6000000000000002 1.5000000000000002
decision_type=2 2 2 2 2 2 2 2 2 2 2 2 2 2
left_child=2 6 3 4 -1 -3 -2 -4 10 -10 -8 -7 13 -9
right_child=1 5 7 -5 -6 11 8 12 9 -11 -12 -13 -14 -15
leaf_value=-0.10357839587059887 -0.022763931453227998 0.056709410815403385 -0.04053885047404987 -0.11904065918039393 -0.056148575601123629 0.025126760566385145 -0.0066495065027001232 -0.054007661982818894 -0.035678345380195729 -0.011450073199250319 0.019837152044333162 0.029868839421997903 -0.059274313141071761 -0.040221409453795515
leaf_weight=22 215 29 230 27 21 386 66 135 24 116 21 851 77 65
leaf_count=22 215 29 230 27 21 386 66 135 24 116 21 851 77 65
internal_value=0 0.0173658 -0.0527997 -0.0953135 -0.080415 0.0290378 -0.0160657 -0.0469299 -0.00972148 -0.0156035 -0.000256175 0.0283891 -0.0522366 -0.0495271
internal_weight=0 1708 577 70 43 1266 442 507 227 140 87 1237 277 200
internal_count=2285 1708 577 70 43 1266 442 507 227 140 87 1237 277 200
is_linear=0
shrinkage=0.05


Tree=68
num_leaves=15
num_cat=0
split_feature=0 8 1 7 4 1 3 4 7 7 7 1 1 4
split_gain=744.56 242.532 44.0754 19.9153 7.7014 6.39275 6.04105 5.95507 2.23475 1.90321 3.14784 2.53583 1.64172 1.47763
threshold=1.0000000180025095e-35 3.0000000000000004 17759482.500000004 0.6000000000000002 7602372.5000000009 20256855.000000004 1.5000000000000002 18537828.500000004 0.77000000000000013 0.6000000000000002 0.77000000000000013 35616319.500000007 7593591.5000000009 24275050.750000004
decision_type=2 2 2 2 2 2 2 2 2 2 2 2 2 2
left_child=2 6 -1 -3 -5 -4 12 -7 13 11 -11 -9 -2 -6
right_child=1 3 5 4 8 7 -8 9 -10 10 -12 -13 -14 -15
leaf_value=-0.10456565688638127 -0.0091860964894294739 0.068350813923210935 -0.065584368690064079 -0.0043327802792191509 0.022242928765856994 -0.038439252857604751 -0.010367800252895583 -0.055819038477810945 0.028361321653060451 -0.072674050998120077 -0.049737599778633852 -0.043026134565131359 -0.023922391369860008 0.029609246243690625
leaf_weight=34 21 29 38 20 313 230 204 55 869 21 52 131 189 87
leaf_count=34 21 29 38 20 313 230 204 55 869 21 52 131 189 87
internal_value=0 0.0168882 -0.0493894 0.0273745 0.0264526 -0.0458296 -0.0164958 -0.0442945 0.0269378 -0.0494941 -0.0563358 -0.046809 -0.0224488 0.0238451
internal_weight=0 1732 561 1318 1289 527 414 489 1269 259 73 186 210 400
internal_count=2293 1732 561 1318 1289 527 414 489 1269 259 73 186 210 400
is_linear=0
shrinkage=0.05


Tree=69
num_leaves=15
num_cat=0
split_feature=0 1 1 4 5 3 4 6 8 4 1 7 7 3
split_gain=680.362 214.388 51.0825 13.9027 9.08227 5.8352 5.46045 5.37893 9.13406 2.27199 4.07174 3.05482 2.22162 2.98855
threshold=1.0000000180025095e-35 20256855.000000004 20256855.000000004 9716780.6666666698 0.090909085440847762 1.5000000000000002 17870455.000000004 0.75500000000000012 3.0000000000000004 8350922.5000000009 25144578.500000004 0.6000000000000002 0.6000000000000002 1.5000000000000002
decision_type=2 2 2 2 2 2 2 2 2 2 2 2 2 2
left_child=2 5 3 4 -1 -2 -4 -7 -9 -3 -11 -12 13 -8
right_child=1 9 6 -5 -6 7 12 8 -10 10 11 -13 -14 -15
leaf_value=-0.090301527910762361 -0.020585736290577358 0.042590511068701743 -0.036009029436401378 -0.11815748165051143 -0.045846664905548097 -0.028698512228826686 -0.048317931747436524 -0.0097945110171124162 0.02518135742062614 0.0052088323980569841 0.044910648323240737 0.025672855623586528 -0.053193590443494712 -0.035692984302838647
leaf_weight=27 218 20 221 24 20 30 125 168 21 24 21 1189 86 75
leaf_count=27 218 20 221 24 20 30 125 168 21 24 21 1189 86 75
internal_value=0 0.0153635 -0.0474744 -0.0871951 -0.0713846 -0.0147948 -0.041912 -0.00903025 -0.0059083 0.0258732 0.0256022 0.0260067 -0.0464733 -0.0435836
internal_weight=0 1691 578 71 47 437 507 219 189 1254 1234 1210 286 200
internal_count=2269 1691 578 71 47 437 507 219 189 1254 1234 1210 286 200
is_linear=0
shrinkage=0.05


Tree=70
num_leaves=15
num_cat=0
split_feature=0 8 1 7 5 3 1 6 1 6 7 3 7 5
split_gain=611.118 191.593 43.2882 6.85251 6.50053 4.76479 4.75212 3.83644 4.78322 3.73247 3.44406 6.38074 2.17731 1.91529
threshold=1.0000000180025095e-35 3.0000000000000004 17759482.500000004 0.6000000000000002 0.090909074936114595 1.5000000000000002 20256855.000000004 0.74500000000000011 32188671.500000004 0.75500000000000012 0.6000000000000002 1.5000000000000002 0.77000000000000013 0.090909058798187101
